{"learner":{"attributes":{"scikit_learn":"{\"_estimator_type\": \"classifier\"}"},"feature_names":["avg_overall_sentiment","avg_ticker_sentiment","sentiment_std","sentiment_range","pct_negative","article_count","sentiment_rolling_3d","sentiment_rolling_5d","daily_return","intraday_range","gap_pct","rsi_14","macd","macd_signal","macd_histogram","bb_pct_b","bb_width","atr_14","distance_52w_high","distance_52w_low","volume_zscore","stoch_d","obv_slope","ema_cross","adx_14","cci_20","mfi_14","roc_10","vwap_distance","VIX_close","return_lag3","return_lag10","volatility_5d","volatility_10d","avg_return_5d","avg_return_10d","sentiment_momentum","sentiment_relative","sentiment_surprise"],"feature_types":["float","float","float","float","float","float","float","float","float","float","float","float","float","float","float","float","float","float","float","float","float","float","float","float","float","float","float","float","float","float","float","float","float","float","float","float","float","float","float"],"gradient_booster":{"model":{"cats":{"enc":[],"feature_segments":[],"sorted_idx":[]},"gbtree_model_param":{"num_parallel_tree":"1","num_trees":"150"},"iteration_indptr":[0,1,2,3,4,5,6,7,8,9,10,11,12,13,14,15,16,17,18,19,20,21,22,23,24,25,26,27,28,29,30,31,32,33,34,35,36,37,38,39,40,41,42,43,44,45,46,47,48,49,50,51,52,53,54,55,56,57,58,59,60,61,62,63,64,65,66,67,68,69,70,71,72,73,74,75,76,77,78,79,80,81,82,83,84,85,86,87,88,89,90,91,92,93,94,95,96,97,98,99,100,101,102,103,104,105,106,107,108,109,110,111,112,113,114,115,116,117,118,119,120,121,122,123,124,125,126,127,128,129,130,131,132,133,134,135,136,137,138,139,140,141,142,143,144,145,146,147,148,149,150],"tree_info":[0,0,0,0,0,0,0,0,0,0,0,0,0,0,0,0,0,0,0,0,0,0,0,0,0,0,0,0,0,0,0,0,0,0,0,0,0,0,0,0,0,0,0,0,0,0,0,0,0,0,0,0,0,0,0,0,0,0,0,0,0,0,0,0,0,0,0,0,0,0,0,0,0,0,0,0,0,0,0,0,0,0,0,0,0,0,0,0,0,0,0,0,0,0,0,0,0,0,0,0,0,0,0,0,0,0,0,0,0,0,0,0,0,0,0,0,0,0,0,0,0,0,0,0,0,0,0,0,0,0,0,0,0,0,0,0,0,0,0,0,0,0,0,0,0,0,0,0,0,0],"trees":[{"base_weights":[6.0467245E-3,4.9955854E-1,-1.485768E-1,6.680641E-1,-6.741574E-1,-4.6257722E-1,2.0711862E-2,-4.601702E-3,2.3007229E-2,-2.9527545E-2,-0E0,-5.0570304E-3,-2.4478406E-2,1.0795797E-2,-4.7615594E-3],"categories":[],"categories_nodes":[],"categories_segments":[],"categories_sizes":[],"default_left":[0,0,0,0,0,0,0,0,0,0,0,0,0,0,0],"id":0,"left_children":[1,3,5,7,9,11,13,-1,-1,-1,-1,-1,-1,-1,-1],"loss_changes":[1.2752187E2,8.126266E1,6.804295E1,3.0509277E1,9.487305E0,4.3741646E1,5.0644047E1,0E0,0E0,0E0,0E0,0E0,0E0,0E0,0E0],"parents":[2147483647,0,0,1,1,2,2,3,3,4,4,5,5,6,6],"right_children":[2,4,6,8,10,12,14,-1,-1,-1,-1,-1,-1,-1,-1],"split_conditions":[-6.356039E-1,-8.079259E0,2.287365E1,-2.5398657E0,1.3992902E0,-6.8350077E0,1.4874454E0,-4.601702E-3,2.3007229E-2,-2.9527545E-2,-0E0,-5.0570304E-3,-2.4478406E-2,1.0795797E-2,-4.7615594E-3],"split_indices":[13,18,19,14,32,18,13,0,0,0,0,0,0,0,0],"split_type":[0,0,0,0,0,0,0,0,0,0,0,0,0,0,0],"sum_hessian":[1.6520729E3,3.9455438E2,1.2575184E3,3.4839484E2,4.6159565E1,4.415932E2,8.159253E2,3.4949387E1,3.1344543E2,2.8794777E1,1.736479E1,2.4816263E2,1.9343057E2,2.8443085E2,5.3149445E2],"tree_param":{"num_deleted":"0","num_feature":"39","num_nodes":"15","size_leaf_vector":"1"}},{"base_weights":[-3.706029E-3,4.8277813E-1,-1.5630817E-1,7.343737E-2,7.690811E-1,-2.4825545E-1,5.0508195E-1,7.995605E-3,-2.4620838E-2,2.2573146E-4,2.490289E-2,-3.5154785E-3,-2.7780546E-2,1.9544603E-2,-2.9848153E-2],"categories":[],"categories_nodes":[],"categories_segments":[],"categories_sizes":[],"default_left":[0,0,0,0,0,0,0,0,0,0,0,0,0,0,0],"id":1,"left_children":[1,3,5,7,9,11,13,-1,-1,-1,-1,-1,-1,-1,-1],"loss_changes":[1.2493979E2,4.500894E1,7.861229E1,2.9916845E1,9.095337E0,9.858073E1,3.693233E1,0E0,0E0,0E0,0E0,0E0,0E0,0E0,0E0],"parents":[2147483647,0,0,1,1,2,2,3,3,4,4,5,5,6,6],"right_children":[2,4,6,8,10,12,14,-1,-1,-1,-1,-1,-1,-1,-1],"split_conditions":[-6.609334E-1,1.66E1,1.3488032E-3,1.5739195E0,2.0946095E1,7.7726063E-4,1.2E1,7.995605E-3,-2.4620838E-2,2.2573146E-4,2.490289E-2,-3.5154785E-3,-2.7780546E-2,1.9544603E-2,-2.9848153E-2],"split_indices":[13,29,37,14,11,37,5,0,0,0,0,0,0,0,0],"split_type":[0,0,0,0,0,0,0,0,0,0,0,0,0,0,0],"sum_hessian":[1.6816633E3,3.9583786E2,1.2858256E3,1.6837393E2,2.2746394E2,1.1342832E3,1.5154227E2,1.4319763E2,2.5176304E1,1.9720419E1,2.0774353E2,9.5785803E2,1.7642519E2,1.4185835E2,9.683923E0],"tree_param":{"num_deleted":"0","num_feature":"39","num_nodes":"15","size_leaf_vector":"1"}},{"base_weights":[-1.0628479E-2,-2.5632098E-1,2.4162985E-1,-5.6162864E-1,5.0629478E-2,-1.067336E0,3.2681224E-1,-6.039526E-3,-2.9748876E-2,1.7987166E-2,-5.429195E-3,-4.9175788E-2,3.4011927E-4,1.9288836E-2,1.1372566E-3],"categories":[],"categories_nodes":[],"categories_segments":[],"categories_sizes":[],"default_left":[0,0,0,0,0,0,0,0,0,0,0,0,0,0,0],"id":2,"left_children":[1,3,5,7,9,11,13,-1,-1,-1,-1,-1,-1,-1,-1],"loss_changes":[1.0517423E2,8.207149E1,9.316004E1,6.424588E1,5.628132E1,3.45876E1,7.044469E1,0E0,0E0,0E0,0E0,0E0,0E0,0E0,0E0],"parents":[2147483647,0,0,1,1,2,2,3,3,4,4,5,5,6,6],"right_children":[2,4,6,8,10,12,14,-1,-1,-1,-1,-1,-1,-1,-1],"split_conditions":[1.615E1,4.462766E-4,6.2012917E-1,-1.8783244E-4,-8.383885E0,8.462324E-2,-8.753235E0,-6.039526E-3,-2.9748876E-2,1.7987166E-2,-5.429195E-3,-4.9175788E-2,3.4011927E-4,1.9288836E-2,1.1372566E-3],"split_indices":[29,37,17,37,18,16,18,0,0,0,0,0,0,0,0],"split_type":[0,0,0,0,0,0,0,0,0,0,0,0,0,0,0],"sum_hessian":[1.6864906E3,8.583398E2,8.281509E2,4.3150818E2,4.2683157E2,4.5642986E1,7.825079E2,2.4130397E2,1.9020421E2,1.2685422E2,2.9997736E2,2.9342855E1,1.6300133E1,3.6740457E2,4.151033E2],"tree_param":{"num_deleted":"0","num_feature":"39","num_nodes":"15","size_leaf_vector":"1"}},{"base_weights":[3.099061E-3,-2.2094765E-1,3.0383313E-1,-4.8215348E-1,3.6138322E-2,6.437464E-1,2.3026122E-2,-4.034817E-3,-2.729359E-2,1.6842995E-2,-6.1617224E-3,-0E0,2.202777E-2,1.6450392E-2,-5.8880704E-3],"categories":[],"categories_nodes":[],"categories_segments":[],"categories_sizes":[],"default_left":[0,0,0,0,0,0,0,0,0,0,0,0,0,0,0],"id":3,"left_children":[1,3,5,7,9,11,13,-1,-1,-1,-1,-1,-1,-1,-1],"loss_changes":[1.137303E2,6.558748E1,6.763845E1,6.887584E1,6.290808E1,1.7963974E1,4.784483E1,0E0,0E0,0E0,0E0,0E0,0E0,0E0,0E0],"parents":[2147483647,0,0,1,1,2,2,3,3,4,4,5,5,6,6],"right_children":[2,4,6,8,10,12,14,-1,-1,-1,-1,-1,-1,-1,-1],"split_conditions":[1.664E1,4.462766E-4,-9.897597E0,-7.537234E-4,-8.079259E0,-2.161723E0,1.305851E-4,-4.034817E-3,-2.729359E-2,1.6842995E-2,-6.1617224E-3,-0E0,2.202777E-2,1.6450392E-2,-5.8880704E-3],"split_indices":[29,37,18,37,18,14,37,0,0,0,0,0,0,0,0],"split_type":[0,0,0,0,0,0,0,0,0,0,0,0,0,0,0],"sum_hessian":[1.6754902E3,9.5711566E2,7.183745E2,4.764414E2,4.8067426E2,3.188391E2,3.9953543E2,2.689987E2,2.0744272E2,1.5192181E2,3.2875244E2,4.15989E1,2.772402E2,1.1814276E2,2.8139267E2],"tree_param":{"num_deleted":"0","num_feature":"39","num_nodes":"15","size_leaf_vector":"1"}},{"base_weights":[2.1263728E-2,4.9591273E-1,-1.2533896E-1,6.364436E-1,-4.8132062E-1,-2.0569737E-1,4.6518502E-1,8.876963E-3,2.6072415E-2,-0E0,-3.4464356E-2,-2.4269014E-3,-2.7325818E-2,3.0268593E-2,-5.925599E-3],"categories":[],"categories_nodes":[],"categories_segments":[],"categories_sizes":[],"default_left":[0,0,0,0,0,0,0,0,0,0,0,0,0,0,0],"id":4,"left_children":[1,3,5,7,9,11,13,-1,-1,-1,-1,-1,-1,-1,-1],"loss_changes":[1.1789379E2,5.6838768E1,6.087373E1,2.4434158E1,1.830655E1,9.76525E1,5.7505047E1,0E0,0E0,0E0,0E0,0E0,0E0,0E0,0E0],"parents":[2147483647,0,0,1,1,2,2,3,3,4,4,5,5,6,6],"right_children":[2,4,6,8,10,12,14,-1,-1,-1,-1,-1,-1,-1,-1],"split_conditions":[-6.1120707E-1,-8.20654E0,1.3488032E-3,1.669E1,1.0129655E-3,7.7726063E-4,4.6971264E1,8.876963E-3,2.6072415E-2,-0E0,-3.4464356E-2,-2.4269014E-3,-2.7325818E-2,3.0268593E-2,-5.925599E-3],"split_indices":[13,18,37,29,37,37,19,0,0,0,0,0,0,0,0],"split_type":[0,0,0,0,0,0,0,0,0,0,0,0,0,0,0],"sum_hessian":[1.6741284E3,3.95468E2,1.2786604E3,3.490615E2,4.6406498E1,1.1313514E3,1.4730898E2,1.4977316E2,1.9928835E2,2.8511677E1,1.7894821E1,9.6837683E2,1.6297467E2,8.1138275E1,6.61707E1],"tree_param":{"num_deleted":"0","num_feature":"39","num_nodes":"15","size_leaf_vector":"1"}},{"base_weights":[-1.3102954E-2,4.8928255E-1,-1.5379055E-1,6.23673E-1,-3.9061293E-1,-4.6736896E-1,2.5567142E-2,6.6179535E-3,2.4810048E-2,-2.8093861E-2,-0E0,1.6975667E-2,-1.6963692E-2,-5.1999018E-3,8.995027E-3],"categories":[],"categories_nodes":[],"categories_segments":[],"categories_sizes":[],"default_left":[0,0,0,0,0,0,0,0,0,0,0,0,0,0,0],"id":5,"left_children":[1,3,5,7,9,11,13,-1,-1,-1,-1,-1,-1,-1,-1],"loss_changes":[1.1841132E2,4.490635E1,7.512656E1,2.3299362E1,9.51749E0,5.0674675E1,4.6321873E1,0E0,0E0,0E0,0E0,0E0,0E0,0E0,0E0],"parents":[2147483647,0,0,1,1,2,2,3,3,4,4,5,5,6,6],"right_children":[2,4,6,8,10,12,14,-1,-1,-1,-1,-1,-1,-1,-1],"split_conditions":[-7.285975E-1,-8.4734955E0,2.3798422E1,1.613E1,-1.9496782E0,-1.8783244E-4,5.9880316E-4,6.6179535E-3,2.4810048E-2,-2.8093861E-2,-0E0,1.6975667E-2,-1.6963692E-2,-5.1999018E-3,8.995027E-3],"split_indices":[13,18,19,29,13,37,37,0,0,0,0,0,0,0,0],"split_type":[0,0,0,0,0,0,0,0,0,0,0,0,0,0,0],"sum_hessian":[1.6745001E3,3.6051642E2,1.3139836E3,3.1598376E2,4.453267E1,4.7923657E2,8.3474713E2,1.1274377E2,2.0323999E2,1.4470769E1,3.0061901E1,3.771574E1,4.4152084E2,4.8069635E2,3.5405075E2],"tree_param":{"num_deleted":"0","num_feature":"39","num_nodes":"15","size_leaf_vector":"1"}},{"base_weights":[-1.5002172E-2,2.1551415E-1,-2.2588652E-1,-5.162899E-1,3.1322703E-1,-4.0644163E-1,-6.187668E-2,-2.4659496E-2,5.277561E-3,1.870411E-2,2.7029442E-3,1.3845422E-2,-1.4526407E-2,1.7451657E-2,-4.8353006E-3],"categories":[],"categories_nodes":[],"categories_segments":[],"categories_sizes":[],"default_left":[0,0,0,0,0,0,0,0,0,0,0,0,0,0,0],"id":6,"left_children":[1,3,5,7,9,11,13,-1,-1,-1,-1,-1,-1,-1,-1],"loss_changes":[8.1325874E1,5.7229E1,2.4932114E1,2.1713089E1,4.7206795E1,2.8915009E1,2.9772722E1,0E0,0E0,0E0,0E0,0E0,0E0,0E0,0E0],"parents":[2147483647,0,0,1,1,2,2,3,3,4,4,5,5,6,6],"right_children":[2,4,6,8,10,12,14,-1,-1,-1,-1,-1,-1,-1,-1],"split_conditions":[-7.3667097E0,-2.161723E0,1.1258109E0,1.97E1,-7.9374367E-1,3.714252E-2,1.23165E0,-2.4659496E-2,5.277561E-3,1.870411E-2,2.7029442E-3,1.3845422E-2,-1.4526407E-2,1.7451657E-2,-4.8353006E-3],"split_indices":[18,14,23,29,12,16,12,0,0,0,0,0,0,0,0],"split_type":[0,0,0,0,0,0,0,0,0,0,0,0,0,0,0],"sum_hessian":[1.6625151E3,7.897026E2,8.728125E2,8.8088905E1,7.016137E2,4.061286E2,4.6668393E2,6.245806E1,2.563084E1,2.8600775E2,4.1560596E2,2.9254406E1,3.7687418E2,5.6440556E1,4.1024338E2],"tree_param":{"num_deleted":"0","num_feature":"39","num_nodes":"15","size_leaf_vector":"1"}},{"base_weights":[3.2035064E-2,4.0405688E-1,-1.1303416E-1,1.23951755E-1,6.294477E-1,-4.3305683E-1,6.2051892E-2,1.4342957E-2,-1.5272979E-2,-1.7884044E-2,2.1347012E-2,-1.612494E-2,2.033161E-2,-5.200316E-3,1.12698125E-2],"categories":[],"categories_nodes":[],"categories_segments":[],"categories_sizes":[],"default_left":[0,0,0,0,0,0,0,0,0,0,0,0,0,0,0],"id":7,"left_children":[1,3,5,7,9,11,13,-1,-1,-1,-1,-1,-1,-1,-1],"loss_changes":[9.187775E1,2.8303444E1,6.890108E1,5.1256268E1,2.850779E1,5.188851E1,5.8684547E1,0E0,0E0,0E0,0E0,0E0,0E0,0E0,0E0],"parents":[2147483647,0,0,1,1,2,2,3,3,4,4,5,5,6,6],"right_children":[2,4,6,8,10,12,14,-1,-1,-1,-1,-1,-1,-1,-1],"split_conditions":[-3.3299226E-1,1.656E1,2.576657E1,6.281122E0,7.2133195E-1,1.3488032E-3,5.9880316E-4,1.4342957E-2,-1.5272979E-2,-1.7884044E-2,2.1347012E-2,-1.612494E-2,2.033161E-2,-5.200316E-3,1.12698125E-2],"split_indices":[13,29,19,17,17,37,37,0,0,0,0,0,0,0,0],"split_type":[0,0,0,0,0,0,0,0,0,0,0,0,0,0,0],"sum_hessian":[1.6824037E3,4.7335968E2,1.209044E3,2.1847385E2,2.5488585E2,4.289904E2,7.800536E2,1.4290941E2,7.556444E1,1.2511259E1,2.4237459E2,3.9612564E2,3.2864754E1,4.4322565E2,3.3682797E2],"tree_param":{"num_deleted":"0","num_feature":"39","num_nodes":"15","size_leaf_vector":"1"}},{"base_weights":[-4.2187073E-3,4.452945E-1,-1.3750862E-1,5.761251E-1,-4.7493505E-1,-4.20267E-1,1.9941665E-2,-9.741185E-3,2.0594247E-2,-5.099638E-4,-2.8028738E-2,-1.53034E-2,1.9985212E-2,-5.2913553E-3,8.799094E-3],"categories":[],"categories_nodes":[],"categories_segments":[],"categories_sizes":[],"default_left":[0,0,0,0,0,0,0,0,0,0,0,0,0,0,0],"id":8,"left_children":[1,3,5,7,9,11,13,-1,-1,-1,-1,-1,-1,-1,-1],"loss_changes":[1.00208664E2,4.7493347E1,5.877357E1,3.5449432E1,8.181825E0,4.7282677E1,4.535992E1,0E0,0E0,0E0,0E0,0E0,0E0,0E0,0E0],"parents":[2147483647,0,0,1,1,2,2,3,3,4,4,5,5,6,6],"right_children":[2,4,6,8,10,12,14,-1,-1,-1,-1,-1,-1,-1,-1],"split_conditions":[-6.872764E-1,-8.286322E0,2.2530218E1,-2.647667E0,1.0129655E-3,1.3488032E-3,5.9880316E-4,-9.741185E-3,2.0594247E-2,-5.099638E-4,-2.8028738E-2,-1.53034E-2,1.9985212E-2,-5.2913553E-3,8.799094E-3],"split_indices":[13,18,19,14,37,37,37,0,0,0,0,0,0,0,0],"split_type":[0,0,0,0,0,0,0,0,0,0,0,0,0,0,0],"sum_hessian":[1.672662E3,3.764375E2,1.2962245E3,3.3312024E2,4.3317234E1,4.6518127E2,8.310432E2,3.3315483E1,2.9980478E2,2.6469002E1,1.6848232E1,4.3380017E2,3.1381117E1,4.804533E2,3.505899E2],"tree_param":{"num_deleted":"0","num_feature":"39","num_nodes":"15","size_leaf_vector":"1"}},{"base_weights":[1.0283644E-2,-1.7560086E-1,2.6647142E-1,3.201784E-2,-4.4188318E-1,-1.0777421E0,3.539153E-1,9.818852E-3,-3.8327684E-3,-1.0913152E-2,-3.8893003E-2,8.864875E-4,-4.6491012E-2,1.9805778E-2,3.3308465E-3],"categories":[],"categories_nodes":[],"categories_segments":[],"categories_sizes":[],"default_left":[0,0,0,0,0,0,0,0,0,0,0,0,0,0,0],"id":9,"left_children":[1,3,5,7,9,11,13,-1,-1,-1,-1,-1,-1,-1,-1],"loss_changes":[8.0426186E1,5.4636333E1,8.426578E1,2.6400192E1,2.3055191E1,2.5943207E1,4.8274757E1,0E0,0E0,0E0,0E0,0E0,0E0,0E0,0E0],"parents":[2147483647,0,0,1,1,2,2,3,3,4,4,5,5,6,6],"right_children":[2,4,6,8,10,12,14,-1,-1,-1,-1,-1,-1,-1,-1],"split_conditions":[1.664E1,4.5136266E0,6.087814E-1,-8.079259E0,1.3922267E2,-1.812669E1,-1.0023098E1,9.818852E-3,-3.8327684E-3,-1.0913152E-2,-3.8893003E-2,8.864875E-4,-4.6491012E-2,1.9805778E-2,3.3308465E-3],"split_indices":[29,17,17,18,19,18,18,0,0,0,0,0,0,0,0],"split_type":[0,0,0,0,0,0,0,0,0,0,0,0,0,0,0],"sum_hessian":[1.6751394E3,9.671567E2,7.0798267E2,5.416913E2,4.254654E2,3.8387157E1,6.695955E2,1.9275098E2,3.4894034E2,3.9850803E2,2.6957365E1,1.1606256E1,2.6780901E1,2.8871057E2,3.8088495E2],"tree_param":{"num_deleted":"0","num_feature":"39","num_nodes":"15","size_leaf_vector":"1"}},{"base_weights":[1.931759E-2,4.231107E-1,-9.748369E-2,9.1591877E-1,2.0033918E-1,-3.94625E-1,6.0938116E-2,-7.086769E-4,3.0257825E-2,-8.332459E-3,1.6337102E-2,1.6273698E-2,-1.4307803E-2,-3.7620626E-3,9.499472E-3],"categories":[],"categories_nodes":[],"categories_segments":[],"categories_sizes":[],"default_left":[0,0,0,0,0,0,0,0,0,0,0,0,0,0,0],"id":10,"left_children":[1,3,5,7,9,11,13,-1,-1,-1,-1,-1,-1,-1,-1],"loss_changes":[7.960807E1,3.8502106E1,6.176364E1,1.20082855E1,4.5803944E1,3.6292984E1,4.0836163E1,0E0,0E0,0E0,0E0,0E0,0E0,0E0,0E0],"parents":[2147483647,0,0,1,1,2,2,3,3,4,4,5,5,6,6],"right_children":[2,4,6,8,10,12,14,-1,-1,-1,-1,-1,-1,-1,-1],"split_conditions":[-6.356039E-1,8.192722E0,2.2530218E1,-8.169267E0,1.613E1,-4.0870585E-2,5.9880316E-4,-7.086769E-4,3.0257825E-2,-8.332459E-3,1.6337102E-2,1.6273698E-2,-1.4307803E-2,-3.7620626E-3,9.499472E-3],"split_indices":[13,19,19,12,29,37,37,0,0,0,0,0,0,0,0],"split_type":[0,0,0,0,0,0,0,0,0,0,0,0,0,0,0],"sum_hessian":[1.6647339E3,3.7440182E2,1.290332E3,1.0891916E2,2.6548267E2,4.5050992E2,8.398221E2,8.175983E0,1.0074317E2,1.0910581E2,1.5637688E2,3.2153732E1,4.183562E2,4.8275693E2,3.570652E2],"tree_param":{"num_deleted":"0","num_feature":"39","num_nodes":"15","size_leaf_vector":"1"}},{"base_weights":[1.8442638E-2,3.673563E-1,-1.2737173E-1,5.0860965E-1,-4.244209E-1,-4.2624384E-1,1.8212773E-2,-5.398134E-3,1.797191E-2,-0E0,-3.1399228E-2,1.9405527E-2,-1.6338607E-2,8.502363E-3,-5.9529613E-3],"categories":[],"categories_nodes":[],"categories_segments":[],"categories_sizes":[],"default_left":[0,0,0,0,0,0,0,0,0,0,0,0,0,0,0],"id":11,"left_children":[1,3,5,7,9,11,13,-1,-1,-1,-1,-1,-1,-1,-1],"loss_changes":[8.5946106E1,5.7066902E1,5.2249302E1,2.8030937E1,2.0173836E1,5.1302475E1,4.61025E1,0E0,0E0,0E0,0E0,0E0,0E0,0E0,0E0],"parents":[2147483647,0,0,1,1,2,2,3,3,4,4,5,5,6,6],"right_children":[2,4,6,8,10,12,14,-1,-1,-1,-1,-1,-1,-1,-1],"split_conditions":[-2.387676E-1,-8.079259E0,2.4460443E1,-2.161723E0,5.874728E0,-1.935748E-2,4.635555E0,-5.398134E-3,1.797191E-2,-0E0,-3.1399228E-2,1.9405527E-2,-1.6338607E-2,8.502363E-3,-5.9529613E-3],"split_indices":[13,18,19,14,17,37,17,0,0,0,0,0,0,0,0],"split_type":[0,0,0,0,0,0,0,0,0,0,0,0,0,0,0],"sum_hessian":[1.6702719E3,4.9409354E2,1.1761783E3,4.2295276E2,7.114078E1,3.86607E2,7.8957135E2,4.596959E1,3.7698315E2,4.5204563E1,2.5936218E1,3.451429E1,3.520927E2,3.5846176E2,4.3110956E2],"tree_param":{"num_deleted":"0","num_feature":"39","num_nodes":"15","size_leaf_vector":"1"}},{"base_weights":[4.339506E-3,3.5816875E-1,-1.04085915E-1,4.980648E-1,-5.280946E-1,-3.818349E-1,4.2074483E-2,2.2746325E-2,8.805613E-3,-2.019504E-3,-3.0287381E-2,2.107165E-2,-1.4108748E-2,-4.328694E-3,8.653469E-3],"categories":[],"categories_nodes":[],"categories_segments":[],"categories_sizes":[],"default_left":[0,0,0,0,0,0,0,0,0,0,0,0,0,0,0],"id":12,"left_children":[1,3,5,7,9,11,13,-1,-1,-1,-1,-1,-1,-1,-1],"loss_changes":[6.476139E1,5.049643E1,5.2633785E1,1.5276588E1,9.624717E0,4.3942062E1,3.8928493E1,0E0,0E0,0E0,0E0,0E0,0E0,0E0,0E0],"parents":[2147483647,0,0,1,1,2,2,3,3,4,4,5,5,6,6],"right_children":[2,4,6,8,10,12,14,-1,-1,-1,-1,-1,-1,-1,-1],"split_conditions":[-5.870414E-1,-8.383885E0,2.2530218E1,1.1582081E1,1.0129655E-3,-4.0870585E-2,5.9880316E-4,2.2746325E-2,8.805613E-3,-2.019504E-3,-3.0287381E-2,2.107165E-2,-1.4108748E-2,-4.328694E-3,8.653469E-3],"split_indices":[13,18,19,19,37,37,37,0,0,0,0,0,0,0,0],"split_type":[0,0,0,0,0,0,0,0,0,0,0,0,0,0,0],"sum_hessian":[1.6649689E3,3.9215662E2,1.2728123E3,3.4253455E2,4.962208E1,4.407932E2,8.3201904E2,1.4051328E2,2.0202127E2,3.0390985E1,1.9231098E1,2.892645E1,4.1186676E2,4.702576E2,3.6176144E2],"tree_param":{"num_deleted":"0","num_feature":"39","num_nodes":"15","size_leaf_vector":"1"}},{"base_weights":[-8.66733E-3,3.9196858E-1,-1.23729855E-1,5.2672744E-1,-4.3512028E-1,-1.9073711E-1,3.8265538E-1,5.0440943E-3,2.2503333E-2,2.2326065E-3,-3.8874958E-2,-2.3240817E-3,-2.3411222E-2,1.9215802E-2,-3.265354E-2],"categories":[],"categories_nodes":[],"categories_segments":[],"categories_sizes":[],"default_left":[0,0,0,0,0,0,0,0,0,0,0,0,0,0,0],"id":13,"left_children":[1,3,5,7,9,11,13,-1,-1,-1,-1,-1,-1,-1,-1],"loss_changes":[7.6851395E1,4.2647907E1,4.435633E1,2.3415535E1,2.599241E1,7.557393E1,5.9874687E1,0E0,0E0,0E0,0E0,0E0,0E0,0E0,0E0],"parents":[2147483647,0,0,1,1,2,2,3,3,4,4,5,5,6,6],"right_children":[2,4,6,8,10,12,14,-1,-1,-1,-1,-1,-1,-1,-1],"split_conditions":[-6.872764E-1,-8.4734955E0,1.3488032E-3,1.669E1,1.0129655E-3,7.7726063E-4,7.0181103E0,5.0440943E-3,2.2503333E-2,2.2326065E-3,-3.8874958E-2,-2.3240817E-3,-2.3411222E-2,1.9215802E-2,-3.265354E-2],"split_indices":[13,18,37,29,37,37,17,0,0,0,0,0,0,0,0],"split_type":[0,0,0,0,0,0,0,0,0,0,0,0,0,0,0],"sum_hessian":[1.6685018E3,3.6571277E2,1.3027891E3,3.181156E2,4.759717E1,1.1567842E3,1.4600485E2,1.28905E2,1.8921062E2,3.1307302E1,1.6289871E1,9.7796796E2,1.7881625E2,1.2778741E2,1.8217447E1],"tree_param":{"num_deleted":"0","num_feature":"39","num_nodes":"15","size_leaf_vector":"1"}},{"base_weights":[-1.2855187E-2,-1.9337134E-1,2.373416E-1,-2.0045258E-2,-3.822217E-1,6.5065026E-1,5.1368408E-2,1.3555499E-3,-1.5352195E-2,-2.9486032E-2,-8.807355E-3,2.098655E-2,-6.400497E-3,-9.631755E-3,6.9538844E-3],"categories":[],"categories_nodes":[],"categories_segments":[],"categories_sizes":[],"default_left":[0,0,0,0,0,0,0,0,0,0,0,0,0,0,0],"id":14,"left_children":[1,3,5,7,9,11,13,-1,-1,-1,-1,-1,-1,-1,-1],"loss_changes":[7.52042E1,3.1000393E1,5.1784576E1,1.7664711E1,2.0483711E1,1.0660973E1,3.2952084E1,0E0,0E0,0E0,0E0,0E0,0E0,0E0,0E0],"parents":[2147483647,0,0,1,1,2,2,3,3,4,4,5,5,6,6],"right_children":[2,4,6,8,10,12,14,-1,-1,-1,-1,-1,-1,-1,-1],"split_conditions":[1.664E1,1.160662E0,-7.9374367E-1,1.0961577E0,3.3587307E1,3.537466E-1,7.153984E-2,1.3555499E-3,-1.5352195E-2,-2.9486032E-2,-8.807355E-3,2.098655E-2,-6.400497E-3,-9.631755E-3,6.9538844E-3],"split_indices":[29,13,12,14,21,16,16,0,0,0,0,0,0,0,0],"split_type":[0,0,0,0,0,0,0,0,0,0,0,0,0,0,0],"sum_hessian":[1.6569814E3,9.6782684E2,6.8915454E2,5.130619E2,4.54765E2,2.0664882E2,4.8250577E2,4.5338666E2,5.9675217E1,4.909505E1,4.0566995E2,1.9867078E2,7.978044E0,1.5257947E2,3.299263E2],"tree_param":{"num_deleted":"0","num_feature":"39","num_nodes":"15","size_leaf_vector":"1"}},{"base_weights":[-7.952478E-3,2.0200315E-1,-2.0038088E-1,-3.5617348E-2,5.6659853E-1,-6.8854105E-1,-1.35221565E-2,-2.7508277E-2,5.2804756E-3,2.3273202E-2,-5.3531183E-3,2.6465924E-2,-2.6409967E-2,-9.080635E-3,9.410051E-3],"categories":[],"categories_nodes":[],"categories_segments":[],"categories_sizes":[],"default_left":[0,0,0,0,0,0,0,0,0,0,0,0,0,0,0],"id":15,"left_children":[1,3,5,7,9,11,13,-1,-1,-1,-1,-1,-1,-1,-1],"loss_changes":[6.772237E1,7.019162E1,7.877777E1,9.252019E1,5.1445633E1,7.630371E1,6.1394848E1,0E0,0E0,0E0,0E0,0E0,0E0,0E0,0E0],"parents":[2147483647,0,0,1,1,2,2,3,3,4,4,5,5,6,6],"right_children":[2,4,6,8,10,12,14,-1,-1,-1,-1,-1,-1,-1,-1],"split_conditions":[-7.2928276E0,5.9880316E-4,2.2530218E1,8.935457E-1,8.190437E0,-4.0870585E-2,5.9880316E-4,-2.7508277E-2,5.2804756E-3,2.3273202E-2,-5.3531183E-3,2.6465924E-2,-2.6409967E-2,-9.080635E-3,9.410051E-3],"split_indices":[18,37,19,17,17,37,37,0,0,0,0,0,0,0,0],"split_type":[0,0,0,0,0,0,0,0,0,0,0,0,0,0,0],"sum_hessian":[1.6663079E3,7.917737E2,8.745342E2,4.7876837E2,3.130053E2,2.3540959E2,6.391246E2,9.1308815E1,3.8745956E2,2.4632555E2,6.6679756E1,2.2522993E1,2.128866E2,3.427207E2,2.964039E2],"tree_param":{"num_deleted":"0","num_feature":"39","num_nodes":"15","size_leaf_vector":"1"}},{"base_weights":[-7.6333936E-3,1.9160445E-1,-1.8907712E-1,-3.602552E-2,5.497868E-1,-7.811045E-1,-3.6102857E-2,-2.7106661E-2,4.8458534E-3,2.3447884E-2,-5.9523606E-3,2.7235363E-2,-3.0121721E-2,1.1504983E-2,-4.0232386E-3],"categories":[],"categories_nodes":[],"categories_segments":[],"categories_sizes":[],"default_left":[0,0,0,0,0,0,0,0,0,0,0,0,0,0,0],"id":16,"left_children":[1,3,5,7,9,11,13,-1,-1,-1,-1,-1,-1,-1,-1],"loss_changes":[5.9852055E1,6.5051094E1,7.7173164E1,8.4590904E1,5.542601E1,7.1050316E1,2.8571905E1,0E0,0E0,0E0,0E0,0E0,0E0,0E0,0E0],"parents":[2147483647,0,0,1,1,2,2,3,3,4,4,5,5,6,6],"right_children":[2,4,6,8,10,12,14,-1,-1,-1,-1,-1,-1,-1,-1],"split_conditions":[-7.2928276E0,5.9880316E-4,1.8452911E1,8.935457E-1,8.190437E0,-4.0870585E-2,1.4635372E0,-2.7106661E-2,4.8458534E-3,2.3447884E-2,-5.9523606E-3,2.7235363E-2,-3.0121721E-2,1.1504983E-2,-4.0232386E-3],"split_indices":[18,37,19,17,17,37,17,0,0,0,0,0,0,0,0],"split_type":[0,0,0,0,0,0,0,0,0,0,0,0,0,0,0],"sum_hessian":[1.6457666E3,7.790323E2,8.667344E2,4.7565814E2,3.0337415E2,1.7106996E2,6.9566437E2,8.678955E1,3.888686E2,2.3348497E2,6.988916E1,1.7111792E1,1.5395818E2,1.25097115E2,5.7056726E2],"tree_param":{"num_deleted":"0","num_feature":"39","num_nodes":"15","size_leaf_vector":"1"}},{"base_weights":[2.5292635E-2,-1.6433153E-1,2.2844368E-1,-4.1054076E-1,7.438008E-2,-8.60318E-1,2.9462677E-1,-2.5538977E-3,-2.5319628E-2,9.439704E-3,-5.463308E-3,-3.858149E-2,-0E0,1.6829181E-2,4.403157E-3],"categories":[],"categories_nodes":[],"categories_segments":[],"categories_sizes":[],"default_left":[0,0,0,0,0,0,0,0,0,0,0,0,0,0,0],"id":17,"left_children":[1,3,5,7,9,11,13,-1,-1,-1,-1,-1,-1,-1,-1],"loss_changes":[6.41871E1,5.1098328E1,5.8333164E1,5.7864777E1,2.7323841E1,1.8172062E1,2.8370728E1,0E0,0E0,0E0,0E0,0E0,0E0,0E0,0E0],"parents":[2147483647,0,0,1,1,2,2,3,3,4,4,5,5,6,6],"right_children":[2,4,6,8,10,12,14,-1,-1,-1,-1,-1,-1,-1,-1],"split_conditions":[1.615E1,4.462766E-4,6.087814E-1,-1.8783244E-4,7.7726063E-4,8.462324E-2,-2.387676E-1,-2.5538977E-3,-2.5319628E-2,9.439704E-3,-5.463308E-3,-3.858149E-2,-0E0,1.6829181E-2,4.403157E-3],"split_indices":[29,37,17,37,37,16,13,0,0,0,0,0,0,0,0],"split_type":[0,0,0,0,0,0,0,0,0,0,0,0,0,0,0],"sum_hessian":[1.6530293E3,8.5038135E2,8.026479E2,4.2096927E2,4.294121E2,4.0825367E1,7.618225E2,2.46503E2,1.7446625E2,2.2515428E2,2.0425784E2,2.649454E1,1.4330827E1,2.6212787E2,4.9969467E2],"tree_param":{"num_deleted":"0","num_feature":"39","num_nodes":"15","size_leaf_vector":"1"}},{"base_weights":[1.0368373E-3,3.3592686E-1,-9.4745696E-2,4.6304056E-1,-5.0056434E-1,-3.5454923E-1,5.0384596E-2,-6.6484427E-3,1.6638162E-2,-7.321219E-5,-3.0240847E-2,-1.4208239E-2,1.5192616E-2,-3.1856117E-3,8.363112E-3],"categories":[],"categories_nodes":[],"categories_segments":[],"categories_sizes":[],"default_left":[0,0,0,0,0,0,0,0,0,0,0,0,0,0,0],"id":18,"left_children":[1,3,5,7,9,11,13,-1,-1,-1,-1,-1,-1,-1,-1],"loss_changes":[5.393622E1,4.0985188E1,4.93836E1,2.1995392E1,1.0562682E1,4.914136E1,3.0097107E1,0E0,0E0,0E0,0E0,0E0,0E0,0E0,0E0],"parents":[2147483647,0,0,1,1,2,2,3,3,4,4,5,5,6,6],"right_children":[2,4,6,8,10,12,14,-1,-1,-1,-1,-1,-1,-1,-1],"split_conditions":[-6.356039E-1,-8.138137E0,2.2530218E1,-2.161723E0,1.0129655E-3,1.0731383E-3,5.9880316E-4,-6.6484427E-3,1.6638162E-2,-7.321219E-5,-3.0240847E-2,-1.4208239E-2,1.5192616E-2,-3.1856117E-3,8.363112E-3],"split_indices":[13,18,19,14,37,37,37,0,0,0,0,0,0,0,0],"split_type":[0,0,0,0,0,0,0,0,0,0,0,0,0,0,0],"sum_hessian":[1.6564819E3,3.7026114E2,1.2862208E3,3.2543155E2,4.4829582E1,4.6334116E2,8.228797E2,3.49744E1,2.9045715E2,2.7147223E1,1.7682362E1,4.110692E2,5.2271954E1,4.845861E2,3.382936E2],"tree_param":{"num_deleted":"0","num_feature":"39","num_nodes":"15","size_leaf_vector":"1"}},{"base_weights":[-0E0,-1.9255993E-1,2.052777E-1,-4.0323552E-1,1.917042E-2,5.5527824E-1,2.0028472E-2,-0E0,-2.8387038E-2,1.164156E-2,-4.8303413E-3,2.187247E-2,3.9368896E-3,-2.9740289E-2,3.6262323E-3],"categories":[],"categories_nodes":[],"categories_segments":[],"categories_sizes":[],"default_left":[0,0,0,0,0,0,0,0,0,0,0,0,0,0,0],"id":19,"left_children":[1,3,5,7,9,11,13,-1,-1,-1,-1,-1,-1,-1,-1],"loss_changes":[6.580356E1,3.9034122E1,5.1149433E1,9.428928E1,2.917822E1,1.8109291E1,5.3622585E1,0E0,0E0,0E0,0E0,0E0,0E0,0E0,0E0],"parents":[2147483647,0,0,1,1,2,2,3,3,4,4,5,5,6,6],"right_children":[2,4,6,8,10,12,14,-1,-1,-1,-1,-1,-1,-1,-1],"split_conditions":[1.615E1,4.462766E-4,2.0531914E-4,-1.8783244E-4,1.354E1,2.806318E0,2.2506648E-4,-0E0,-2.8387038E-2,1.164156E-2,-4.8303413E-3,2.187247E-2,3.9368896E-3,-2.9740289E-2,3.6262323E-3],"split_indices":[29,37,37,37,29,13,37,0,0,0,0,0,0,0,0],"split_type":[0,0,0,0,0,0,0,0,0,0,0,0,0,0,0],"sum_hessian":[1.6544845E3,8.5199194E2,8.0249255E2,4.2952762E2,4.224643E2,2.7054843E2,5.319441E2,2.5030789E2,1.7921973E2,1.403864E2,2.8207788E2,1.8599985E2,8.4548584E1,4.243048E1,4.8951364E2],"tree_param":{"num_deleted":"0","num_feature":"39","num_nodes":"15","size_leaf_vector":"1"}},{"base_weights":[-3.6103595E-2,3.030289E-1,-1.2712142E-1,4.1786763E-1,-4.5217443E-1,-5.046674E-1,-8.1015915E-2,-1.1313212E-2,1.5845567E-2,3.0200713E-4,-2.6866352E-2,-1.9716728E-2,2.2679347E-5,-8.162926E-3,1.2952563E-3],"categories":[],"categories_nodes":[],"categories_segments":[],"categories_sizes":[],"default_left":[0,0,0,0,0,0,0,0,0,0,0,0,0,0,0],"id":20,"left_children":[1,3,5,7,9,11,13,-1,-1,-1,-1,-1,-1,-1,-1],"loss_changes":[5.086641E1,3.0936518E1,2.1452778E1,2.8113075E1,1.1213262E1,1.1882622E1,2.850486E1,0E0,0E0,0E0,0E0,0E0,0E0,0E0,0E0],"parents":[2147483647,0,0,1,1,2,2,3,3,4,4,5,5,6,6],"right_children":[2,4,6,8,10,12,14,-1,-1,-1,-1,-1,-1,-1,-1],"split_conditions":[-7.285975E-1,-8.079259E0,1.6661806E1,-2.5398657E0,3.2276794E1,-2.6186302E0,1.1590854E0,-1.1313212E-2,1.5845567E-2,3.0200713E-4,-2.6866352E-2,-1.9716728E-2,2.2679347E-5,-8.162926E-3,1.2952563E-3],"split_indices":[13,18,24,14,24,18,33,0,0,0,0,0,0,0,0],"split_type":[0,0,0,0,0,0,0,0,0,0,0,0,0,0,0],"sum_hessian":[1.6480743E3,3.41611E2,1.3064633E3,3.007584E2,4.0852615E1,1.3204802E2,1.1744153E3,3.2967354E1,2.6779102E2,2.018455E1,2.0668066E1,1.0331792E2,2.87301E1,4.6661957E2,7.077957E2],"tree_param":{"num_deleted":"0","num_feature":"39","num_nodes":"15","size_leaf_vector":"1"}},{"base_weights":[2.3337279E-2,3.3389205E-1,-5.9604112E-2,4.6723852E-1,-4.591307E-1,-2.2764874E-1,1.2032511E-1,2.4350494E-2,7.3296563E-3,-0E0,-2.8685037E-2,2.865648E-3,-1.7998436E-2,1.1316025E-2,-3.8386215E-3],"categories":[],"categories_nodes":[],"categories_segments":[],"categories_sizes":[],"default_left":[0,0,0,0,0,0,0,0,0,0,0,0,0,0,0],"id":21,"left_children":[1,3,5,7,9,11,13,-1,-1,-1,-1,-1,-1,-1,-1],"loss_changes":[4.381874E1,3.906383E1,4.0320976E1,2.0856949E1,1.1431436E1,8.443428E1,4.129574E1,0E0,0E0,0E0,0E0,0E0,0E0,0E0,0E0],"parents":[2147483647,0,0,1,1,2,2,3,3,4,4,5,5,6,6],"right_children":[2,4,6,8,10,12,14,-1,-1,-1,-1,-1,-1,-1,-1],"split_conditions":[-6.872764E-1,-8.20654E0,5.9880316E-4,4.8532515E0,1.0129655E-3,-1.8783244E-4,7.7726063E-4,2.4350494E-2,7.3296563E-3,-0E0,-2.8685037E-2,2.865648E-3,-1.7998436E-2,1.1316025E-2,-3.8386215E-3],"split_indices":[13,18,37,17,37,37,37,0,0,0,0,0,0,0,0],"split_type":[0,0,0,0,0,0,0,0,0,0,0,0,0,0,0],"sum_hessian":[1.6710198E3,3.541126E2,1.3169072E3,3.0705713E2,4.7055473E1,6.8600415E2,6.309031E2,1.1192922E2,1.951279E2,2.7549477E1,1.9505997E1,3.6634625E2,3.1965787E2,3.1276642E2,3.181367E2],"tree_param":{"num_deleted":"0","num_feature":"39","num_nodes":"15","size_leaf_vector":"1"}},{"base_weights":[-1.2371276E-3,-1.5996611E-1,2.1885614E-1,-3.8443947E-1,6.665143E-2,-8.8645244E-1,2.9319626E-1,-4.2489916E-3,-2.0711612E-2,1.5586321E-2,-2.9994154E-3,5.386793E-3,-4.207296E-2,1.4739733E-2,5.952272E-4],"categories":[],"categories_nodes":[],"categories_segments":[],"categories_sizes":[],"default_left":[0,0,0,0,0,0,0,0,0,0,0,0,0,0,0],"id":22,"left_children":[1,3,5,7,9,11,13,-1,-1,-1,-1,-1,-1,-1,-1],"loss_changes":[5.779576E1,5.0025547E1,5.6754997E1,3.4371353E1,3.7452766E1,2.7350288E1,3.420559E1,0E0,0E0,0E0,0E0,0E0,0E0,0E0,0E0],"parents":[2147483647,0,0,1,1,2,2,3,3,4,4,5,5,6,6],"right_children":[2,4,6,8,10,12,14,-1,-1,-1,-1,-1,-1,-1,-1],"split_conditions":[1.664E1,4.462766E-4,6.087814E-1,-1.8783244E-4,-8.648063E0,-1.7849619E1,-6.918142E0,-4.2489916E-3,-2.0711612E-2,1.5586321E-2,-2.9994154E-3,5.386793E-3,-4.207296E-2,1.4739733E-2,5.952272E-4],"split_indices":[29,37,17,37,18,18,18,0,0,0,0,0,0,0,0],"split_type":[0,0,0,0,0,0,0,0,0,0,0,0,0,0,0],"sum_hessian":[1.6477319E3,9.6339465E2,6.843373E2,4.866714E2,4.7672327E2,3.798855E1,6.463487E2,2.7905737E2,2.0761401E2,1.2860307E2,3.481202E2,1.2189327E1,2.5799223E1,3.681847E2,2.78164E2],"tree_param":{"num_deleted":"0","num_feature":"39","num_nodes":"15","size_leaf_vector":"1"}},{"base_weights":[2.2897914E-2,3.4706894E-1,-6.651528E-2,6.0493666E-1,-1.678122E-2,-2.7602834E-1,6.502768E-2,2.9812338E-2,1.1789081E-2,6.5325466E-3,-2.4608733E-2,-2.2587925E-3,-1.614331E-2,3.4246119E-3,-2.7677637E-2],"categories":[],"categories_nodes":[],"categories_segments":[],"categories_sizes":[],"default_left":[0,0,0,0,0,0,0,0,0,0,0,0,0,0,0],"id":23,"left_children":[1,3,5,7,9,11,13,-1,-1,-1,-1,-1,-1,-1,-1],"loss_changes":[4.9236927E1,3.5739376E1,3.6684666E1,1.3291649E1,3.1159761E1,2.5561516E1,3.7940746E1,0E0,0E0,0E0,0E0,0E0,0E0,0E0,0E0],"parents":[2147483647,0,0,1,1,2,2,3,3,4,4,5,5,6,6],"right_children":[2,4,6,8,10,12,14,-1,-1,-1,-1,-1,-1,-1,-1],"split_conditions":[-6.356039E-1,6.8697953E0,2.477975E1,6.6173034E0,-1.0550138E1,-6.3202534E0,1.6626936E1,2.9812338E-2,1.1789081E-2,6.5325466E-3,-2.4608733E-2,-2.2587925E-3,-1.614331E-2,3.4246119E-3,-2.7677637E-2],"split_indices":[13,17,19,19,18,18,17,0,0,0,0,0,0,0,0],"split_type":[0,0,0,0,0,0,0,0,0,0,0,0,0,0,0],"sum_hessian":[1.670353E3,3.6283618E2,1.3075168E3,2.1362193E2,1.4921426E2,5.080462E2,7.9947064E2,6.5535286E1,1.4808664E2,1.1639591E2,3.2818348E1,2.9566022E2,2.1238597E2,7.677294E2,3.1741302E1],"tree_param":{"num_deleted":"0","num_feature":"39","num_nodes":"15","size_leaf_vector":"1"}},{"base_weights":[-2.2585287E-3,3.3700493E-1,-9.985522E-2,4.6199578E-1,-4.8753056E-1,-3.3095336E-1,3.1087741E-2,2.3868196E-2,7.0269643E-3,-0E0,-2.8491125E-2,-3.4727417E-3,-1.8422276E-2,8.430418E-3,-5.5473917E-3],"categories":[],"categories_nodes":[],"categories_segments":[],"categories_sizes":[],"default_left":[0,0,0,0,0,0,0,0,0,0,0,0,0,0,0],"id":24,"left_children":[1,3,5,7,9,11,13,-1,-1,-1,-1,-1,-1,-1,-1],"loss_changes":[5.4574154E1,3.888243E1,3.9857265E1,2.1569214E1,1.2366738E1,2.7097652E1,4.504634E1,0E0,0E0,0E0,0E0,0E0,0E0,0E0,0E0],"parents":[2147483647,0,0,1,1,2,2,3,3,4,4,5,5,6,6],"right_children":[2,4,6,8,10,12,14,-1,-1,-1,-1,-1,-1,-1,-1],"split_conditions":[-6.609334E-1,-8.079259E0,2.2530218E1,4.8532515E0,6.418983E0,-6.4494E0,4.589608E0,2.3868196E-2,7.0269643E-3,-0E0,-2.8491125E-2,-3.4727417E-3,-1.8422276E-2,8.430418E-3,-5.5473917E-3],"split_indices":[13,18,19,17,17,18,17,0,0,0,0,0,0,0,0],"split_type":[0,0,0,0,0,0,0,0,0,0,0,0,0,0,0],"sum_hessian":[1.6524615E3,3.6184976E2,1.2906118E3,3.1823306E2,4.361672E1,4.695502E2,8.2106165E2,1.2049482E2,1.9773824E2,2.209355E1,2.1523169E1,2.7479376E2,1.9475644E2,3.8423383E2,4.368278E2],"tree_param":{"num_deleted":"0","num_feature":"39","num_nodes":"15","size_leaf_vector":"1"}},{"base_weights":[8.887995E-3,3.686561E-1,-8.520324E-2,8.6673826E-1,1.7213205E-1,-1.565689E-1,4.4592166E-1,-0E0,2.9990813E-2,5.120918E-4,2.0491362E-2,-1.9083512E-3,-1.9813541E-2,2.0978574E-2,-3.0400846E-2],"categories":[],"categories_nodes":[],"categories_segments":[],"categories_sizes":[],"default_left":[0,0,0,0,0,0,0,0,0,0,0,0,0,0,0],"id":25,"left_children":[1,3,5,7,9,11,13,-1,-1,-1,-1,-1,-1,-1,-1],"loss_changes":[5.63839E1,3.1066395E1,4.916085E1,1.1193314E1,1.8932394E1,5.2474792E1,5.9234528E1,0E0,0E0,0E0,0E0,0E0,0E0,0E0,0E0],"parents":[2147483647,0,0,1,1,2,2,3,3,4,4,5,5,6,6],"right_children":[2,4,6,8,10,12,14,-1,-1,-1,-1,-1,-1,-1,-1],"split_conditions":[-6.872764E-1,7.586057E0,1.3488032E-3,-9.230792E-1,2.7103255E0,7.7726063E-4,7.0181103E0,-0E0,2.9990813E-2,5.120918E-4,2.0491362E-2,-1.9083512E-3,-1.9813541E-2,2.0978574E-2,-3.0400846E-2],"split_indices":[13,19,37,35,32,37,17,0,0,0,0,0,0,0,0],"split_type":[0,0,0,0,0,0,0,0,0,0,0,0,0,0,0],"sum_hessian":[1.6392616E3,3.4122318E2,1.2980385E3,8.883809E1,2.523851E2,1.1507123E3,1.473261E2,1.2100244E1,7.673785E1,2.0058815E2,5.1796944E1,9.7959515E2,1.7111716E2,1.2891765E2,1.840844E1],"tree_param":{"num_deleted":"0","num_feature":"39","num_nodes":"15","size_leaf_vector":"1"}},{"base_weights":[7.6176797E-4,-1.4387389E-1,2.0969157E-1,-2.812016E-2,-1.1765149E-1,5.700925E-1,5.495504E-2,-0E0,-7.5905304E-3,-0E0,2.1673813E-2,-9.187667E-3,9.130684E-3],"categories":[],"categories_nodes":[],"categories_segments":[],"categories_sizes":[],"default_left":[0,0,0,0,0,0,0,0,0,0,0,0,0],"id":26,"left_children":[1,3,5,-1,7,9,11,-1,-1,-1,-1,-1,-1],"loss_changes":[4.9598213E1,1.734768E1,3.6252262E1,0E0,1.5089104E1,1.8080383E1,4.3871483E1,0E0,0E0,0E0,0E0,0E0,0E0],"parents":[2147483647,0,0,1,1,2,2,4,4,5,5,6,6],"right_children":[2,4,6,-1,8,10,12,-1,-1,-1,-1,-1,-1],"split_conditions":[1.664E1,-3.2519767E0,-7.9374367E-1,-2.812016E-2,1.1935569E0,-2.161723E0,2.20139E1,-0E0,-7.5905304E-3,-0E0,2.1673813E-2,-9.187667E-3,9.130684E-3],"split_indices":[29,14,12,0,13,14,19,0,0,0,0,0,0],"split_type":[0,0,0,0,0,0,0,0,0,0,0,0,0],"sum_hessian":[1.6269608E3,9.5667114E2,6.702896E2,2.2606943E1,9.340642E2,1.9342703E2,4.7686258E2,5.0031995E2,4.3374426E2,4.0231064E1,1.5319597E2,1.9103102E2,2.8583154E2],"tree_param":{"num_deleted":"0","num_feature":"39","num_nodes":"13","size_leaf_vector":"1"}},{"base_weights":[1.2531888E-2,-1.3690276E-1,2.3209931E-1,6.771579E-2,-3.7788185E-1,6.221566E-1,1.9411154E-2,2.051398E-2,-3.092882E-4,-2.0597935E-2,-3.4945186E-3,3.4357592E-2,1.0921143E-2,-1.5849857E-2,6.249652E-3],"categories":[],"categories_nodes":[],"categories_segments":[],"categories_sizes":[],"default_left":[0,0,0,0,0,0,0,0,0,0,0,0,0,0,0],"id":27,"left_children":[1,3,5,7,9,11,13,-1,-1,-1,-1,-1,-1,-1,-1],"loss_changes":[5.4428226E1,4.899456E1,5.463369E1,2.6806461E1,3.4675377E1,2.6574783E1,4.5969574E1,0E0,0E0,0E0,0E0,0E0,0E0,0E0,0E0],"parents":[2147483647,0,0,1,1,2,2,3,3,4,4,5,5,6,6],"right_children":[2,4,6,8,10,12,14,-1,-1,-1,-1,-1,-1,-1,-1],"split_conditions":[1.664E1,4.174247E0,2.0531914E-4,-4.8226733E-2,1.305851E-4,4.174247E0,5.9880316E-4,2.051398E-2,-3.092882E-4,-2.0597935E-2,-3.4945186E-3,3.4357592E-2,1.0921143E-2,-1.5849857E-2,6.249652E-3],"split_indices":[29,17,37,37,37,17,37,0,0,0,0,0,0,0,0],"split_type":[0,0,0,0,0,0,0,0,0,0,0,0,0,0,0],"sum_hessian":[1.6431968E3,9.73452E2,6.697448E2,5.2389844E2,4.495536E2,2.2961508E2,4.4012973E2,5.740959E1,4.6648883E2,1.9888373E2,2.5066988E2,6.762828E1,1.619868E2,1.0785046E2,3.3227927E2],"tree_param":{"num_deleted":"0","num_feature":"39","num_nodes":"15","size_leaf_vector":"1"}},{"base_weights":[-3.2464424E-3,2.613028E-1,-8.1966E-2,7.075809E-1,6.749194E-2,-1.514851E-1,4.4903597E-1,-1.0068298E-2,2.4471993E-2,-1.6960183E-4,2.6598359E-2,-1.0700966E-2,6.9538434E-4,2.016718E-2,-2.6005097E-2],"categories":[],"categories_nodes":[],"categories_segments":[],"categories_sizes":[],"default_left":[0,0,0,0,0,0,0,0,0,0,0,0,0,0,0],"id":28,"left_children":[1,3,5,7,9,11,13,-1,-1,-1,-1,-1,-1,-1,-1],"loss_changes":[3.4293537E1,3.071295E1,4.729277E1,1.4754017E1,1.800262E1,4.178515E1,4.5711246E1,0E0,0E0,0E0,0E0,0E0,0E0,0E0,0E0],"parents":[2147483647,0,0,1,1,2,2,3,3,4,4,5,5,6,6],"right_children":[2,4,6,8,10,12,14,-1,-1,-1,-1,-1,-1,-1,-1],"split_conditions":[-6.260896E-1,8.034999E0,1.3488032E-3,-8.169267E0,1.8529564E1,2.9473742E1,7.0181103E0,-1.0068298E-2,2.4471993E-2,-1.6960183E-4,2.6598359E-2,-1.0700966E-2,6.9538434E-4,2.016718E-2,-2.6005097E-2],"split_indices":[12,19,37,12,17,19,17,0,0,0,0,0,0,0,0],"split_type":[0,0,0,0,0,0,0,0,0,0,0,0,0,0,0],"sum_hessian":[1.6538136E3,3.7077228E2,1.2830413E3,1.0512733E2,2.6564496E2,1.1410009E3,1.4204047E2,7.1503096E0,9.797702E1,2.4618509E2,1.9459856E1,5.274906E2,6.135102E2,1.2483161E2,1.7208858E1],"tree_param":{"num_deleted":"0","num_feature":"39","num_nodes":"15","size_leaf_vector":"1"}},{"base_weights":[-2.2249127E-2,3.058198E-1,-1.05101146E-1,4.286788E-1,-4.3598852E-1,-1.5939501E-1,3.1452253E-1,-1.4822385E-3,1.693629E-2,-0E0,-2.683634E-2,-1.809371E-3,-1.94768E-2,1.7322645E-2,-3.0733587E-2],"categories":[],"categories_nodes":[],"categories_segments":[],"categories_sizes":[],"default_left":[0,0,0,0,0,0,0,0,0,0,0,0,0,0,0],"id":29,"left_children":[1,3,5,7,9,11,13,-1,-1,-1,-1,-1,-1,-1,-1],"loss_changes":[4.4637672E1,3.093264E1,3.0168247E1,1.9834824E1,7.866153E0,5.576717E1,5.467648E1,0E0,0E0,0E0,0E0,0E0,0E0,0E0,0E0],"parents":[2147483647,0,0,1,1,2,2,3,3,4,4,5,5,6,6],"right_children":[2,4,6,8,10,12,14,-1,-1,-1,-1,-1,-1,-1,-1],"split_conditions":[-7.285975E-1,-8.286322E0,1.3488032E-3,-1.3849757E0,2.933465E-1,7.7726063E-4,7.0181103E0,-1.4822385E-3,1.693629E-2,-0E0,-2.683634E-2,-1.809371E-3,-1.94768E-2,1.7322645E-2,-3.0733587E-2],"split_indices":[13,18,37,14,31,37,17,0,0,0,0,0,0,0,0],"split_type":[0,0,0,0,0,0,0,0,0,0,0,0,0,0,0],"sum_hessian":[1.646084E3,3.2431186E2,1.3217721E3,2.823547E2,4.195715E1,1.1773103E3,1.4446179E2,5.9930164E1,2.2242455E2,2.5972597E1,1.5984552E1,9.872992E2,1.9001117E2,1.2437839E2,2.00834E1],"tree_param":{"num_deleted":"0","num_feature":"39","num_nodes":"15","size_leaf_vector":"1"}},{"base_weights":[-2.1728758E-2,2.2462301E-1,-1.3029748E-1,6.283195E-2,4.040265E-1,-3.69964E-1,-7.348623E-3,1.0087842E-2,-9.975785E-3,2.3874976E-2,6.4446153E-3,1.8033398E-2,-1.3749336E-2,-5.081088E-3,6.459095E-3],"categories":[],"categories_nodes":[],"categories_segments":[],"categories_sizes":[],"default_left":[0,0,0,0,0,0,0,0,0,0,0,0,0,0,0],"id":30,"left_children":[1,3,5,7,9,11,13,-1,-1,-1,-1,-1,-1,-1,-1],"loss_changes":[4.4116337E1,1.3488413E1,3.3259575E1,3.0331696E1,1.4241161E1,3.42013E1,2.8006897E1,0E0,0E0,0E0,0E0,0E0,0E0,0E0,0E0],"parents":[2147483647,0,0,1,1,2,2,3,3,4,4,5,5,6,6],"right_children":[2,4,6,8,10,12,14,-1,-1,-1,-1,-1,-1,-1,-1],"split_conditions":[-1.812807E-1,5.9880316E-4,2.4460443E1,2.0531914E-4,6.4143357E0,-4.0870585E-2,5.9880316E-4,1.0087842E-2,-9.975785E-3,2.3874976E-2,6.4446153E-3,1.8033398E-2,-1.3749336E-2,-5.081088E-3,6.459095E-3],"split_indices":[13,37,19,37,19,37,37,0,0,0,0,0,0,0,0],"split_type":[0,0,0,0,0,0,0,0,0,0,0,0,0,0,0],"sum_hessian":[1.6460314E3,4.9624423E2,1.1497871E3,2.7034174E2,2.259025E2,3.8092688E2,7.688602E2,1.6324657E2,1.0709516E2,6.490223E1,1.6100026E2,2.74583E1,3.5346857E2,4.509145E2,3.1794574E2],"tree_param":{"num_deleted":"0","num_feature":"39","num_nodes":"15","size_leaf_vector":"1"}},{"base_weights":[-1.9552771E-2,-1.5902428E-1,1.7840335E-1,-3.4028748E-1,2.7744187E-2,5.9509677E-1,-2.9352086E-2,-1.9663856E-3,-2.0085266E-2,1.3154887E-2,-5.2657938E-3,1.9789752E-2,-1.0526447E-2,-1.56012345E-2,3.9207228E-3],"categories":[],"categories_nodes":[],"categories_segments":[],"categories_sizes":[],"default_left":[0,0,0,0,0,0,0,0,0,0,0,0,0,0,0],"id":31,"left_children":[1,3,5,7,9,11,13,-1,-1,-1,-1,-1,-1,-1,-1],"loss_changes":[4.5442013E1,3.3577507E1,5.96709E1,4.345121E1,4.08127E1,1.570443E1,3.6624096E1,0E0,0E0,0E0,0E0,0E0,0E0,0E0,0E0],"parents":[2147483647,0,0,1,1,2,2,3,3,4,4,5,5,6,6],"right_children":[2,4,6,8,10,12,14,-1,-1,-1,-1,-1,-1,-1,-1],"split_conditions":[1.664E1,4.462766E-4,2.0531914E-4,-7.537234E-4,-7.437233E0,1.2999214E2,5.9880316E-4,-1.9663856E-3,-2.0085266E-2,1.3154887E-2,-5.2657938E-3,1.9789752E-2,-1.0526447E-2,-1.56012345E-2,3.9207228E-3],"split_indices":[29,37,37,37,18,19,37,0,0,0,0,0,0,0,0],"split_type":[0,0,0,0,0,0,0,0,0,0,0,0,0,0,0],"sum_hessian":[1.6371648E3,9.6696716E2,6.7019763E2,4.940645E2,4.7290262E2,2.2307748E2,4.4712012E2,2.758953E2,2.1816924E2,1.5789497E2,3.1500766E2,2.1222128E2,1.0856205E1,1.1027334E2,3.3684677E2],"tree_param":{"num_deleted":"0","num_feature":"39","num_nodes":"15","size_leaf_vector":"1"}},{"base_weights":[-1.8306252E-2,-1.6865672E-1,1.470407E-1,3.733237E-2,-4.209075E-1,-7.739158E-1,2.1833727E-1,-3.1603274E-3,1.5836775E-2,1.13113895E-2,-1.5083994E-2,5.392488E-3,-3.633523E-2,1.2569368E-2,-6.866664E-4],"categories":[],"categories_nodes":[],"categories_segments":[],"categories_sizes":[],"default_left":[0,0,0,0,0,0,0,0,0,0,0,0,0,0,0],"id":32,"left_children":[1,3,5,7,9,11,13,-1,-1,-1,-1,-1,-1,-1,-1],"loss_changes":[4.102835E1,4.602717E1,5.0891674E1,3.4640923E1,2.7053284E1,2.6114246E1,3.6126396E1,0E0,0E0,0E0,0E0,0E0,0E0,0E0,0E0],"parents":[2147483647,0,0,1,1,2,2,3,3,4,4,5,5,6,6],"right_children":[2,4,6,8,10,12,14,-1,-1,-1,-1,-1,-1,-1,-1],"split_conditions":[1.615E1,4.257859E0,6.2012917E-1,1.5110874E0,1.1582081E1,-1.6267838E1,-6.918142E0,-3.1603274E-3,1.5836775E-2,1.13113895E-2,-1.5083994E-2,5.392488E-3,-3.633523E-2,1.2569368E-2,-6.866664E-4],"split_indices":[29,17,17,33,19,18,18,0,0,0,0,0,0,0,0],"split_type":[0,0,0,0,0,0,0,0,0,0,0,0,0,0,0],"sum_hessian":[1.6386498E3,8.645278E2,7.7412195E2,4.738837E2,3.906441E2,5.0067005E1,7.2405493E2,3.669947E2,1.0688899E2,3.240906E1,3.5823505E2,1.5227123E1,3.483988E1,3.977937E2,3.2626126E2],"tree_param":{"num_deleted":"0","num_feature":"39","num_nodes":"15","size_leaf_vector":"1"}},{"base_weights":[3.8984764E-2,2.3569892E-1,-8.6821936E-2,-0E0,6.305771E-1,-3.585125E-1,3.415007E-2,1.5228973E-2,-6.383597E-3,2.4857016E-2,6.5272115E-3,-1.4070622E-2,1.7851852E-2,-3.8533243E-3,7.07277E-3],"categories":[],"categories_nodes":[],"categories_segments":[],"categories_sizes":[],"default_left":[0,0,0,0,0,0,0,0,0,0,0,0,0,0,0],"id":33,"left_children":[1,3,5,7,9,11,13,-1,-1,-1,-1,-1,-1,-1,-1],"loss_changes":[4.0731E1,5.9164124E1,3.3295242E1,4.5110138E1,1.6521843E1,3.3912678E1,2.2835754E1,0E0,0E0,0E0,0E0,0E0,0E0,0E0,0E0],"parents":[2147483647,0,0,1,1,2,2,3,3,4,4,5,5,6,6],"right_children":[2,4,6,8,10,12,14,-1,-1,-1,-1,-1,-1,-1,-1],"split_conditions":[-8.648063E0,5.9880316E-4,2.4223368E1,-7.537234E-4,1.0731383E-3,1.3488032E-3,5.9880316E-4,1.5228973E-2,-6.383597E-3,2.4857016E-2,6.5272115E-3,-1.4070622E-2,1.7851852E-2,-3.8533243E-3,7.07277E-3],"split_indices":[18,37,19,37,37,37,37,0,0,0,0,0,0,0,0],"split_type":[0,0,0,0,0,0,0,0,0,0,0,0,0,0,0],"sum_hessian":[1.6246667E3,6.382362E2,9.864305E2,4.0457452E2,2.3366171E2,3.059695E2,6.80461E2,1.1899918E2,2.8557532E2,1.5127045E2,8.2391266E1,2.7835007E2,2.7619455E1,3.721902E2,3.082708E2],"tree_param":{"num_deleted":"0","num_feature":"39","num_nodes":"15","size_leaf_vector":"1"}},{"base_weights":[1.8503601E-3,-1.4863364E-1,1.7568187E-1,-3.3236077E-1,4.369965E-2,4.8367125E-1,1.9823821E-2,-2.5111581E-3,-1.8954337E-2,1.4088457E-2,-3.6233005E-3,1.7887015E-2,-4.8218872E-3,1.463996E-2,-3.7133093E-3],"categories":[],"categories_nodes":[],"categories_segments":[],"categories_sizes":[],"default_left":[0,0,0,0,0,0,0,0,0,0,0,0,0,0,0],"id":34,"left_children":[1,3,5,7,9,11,13,-1,-1,-1,-1,-1,-1,-1,-1],"loss_changes":[4.2951885E1,3.1493427E1,3.5766052E1,3.198339E1,3.0791231E1,1.9717304E1,3.59126E1,0E0,0E0,0E0,0E0,0E0,0E0,0E0,0E0],"parents":[2147483647,0,0,1,1,2,2,3,3,4,4,5,5,6,6],"right_children":[2,4,6,8,10,12,14,-1,-1,-1,-1,-1,-1,-1,-1],"split_conditions":[1.615E1,4.462766E-4,-1.812807E-1,-7.537234E-4,-8.648063E0,-8.383885E0,-1.935748E-2,-2.5111581E-3,-1.8954337E-2,1.4088457E-2,-3.6233005E-3,1.7887015E-2,-4.8218872E-3,1.463996E-2,-3.7133093E-3],"split_indices":[29,37,13,37,18,18,37,0,0,0,0,0,0,0,0],"split_type":[0,0,0,0,0,0,0,0,0,0,0,0,0,0,0],"sum_hessian":[1.6299039E3,8.678421E2,7.620618E2,4.4730786E2,4.205342E2,2.4821611E2,5.138457E2,2.5152495E2,1.9578291E2,1.1795932E2,3.025749E2,2.1426598E2,3.395013E1,1.2106835E2,3.9277737E2],"tree_param":{"num_deleted":"0","num_feature":"39","num_nodes":"15","size_leaf_vector":"1"}},{"base_weights":[-2.62896E-2,1.4689842E-1,-1.7219009E-1,-2.9671066E-2,4.3852237E-1,-5.7233953E-1,-7.411148E-3,1.4904138E-2,-8.347356E-3,2.107383E-2,-9.383757E-3,2.3748402E-2,-2.205696E-2,-6.7558605E-3,7.339258E-3],"categories":[],"categories_nodes":[],"categories_segments":[],"categories_sizes":[],"default_left":[0,0,0,0,0,0,0,0,0,0,0,0,0,0,0],"id":35,"left_children":[1,3,5,7,9,11,13,-1,-1,-1,-1,-1,-1,-1,-1],"loss_changes":[4.213942E1,3.9798317E1,5.8815746E1,6.1912968E1,5.930753E1,6.096337E1,3.608824E1,0E0,0E0,0E0,0E0,0E0,0E0,0E0,0E0],"parents":[2147483647,0,0,1,1,2,2,3,3,4,4,5,5,6,6],"right_children":[2,4,6,8,10,12,14,-1,-1,-1,-1,-1,-1,-1,-1],"split_conditions":[-7.3667097E0,5.9880316E-4,2.2530218E1,-7.537234E-4,7.563083E0,-4.0870585E-2,5.9880316E-4,1.4904138E-2,-8.347356E-3,2.107383E-2,-9.383757E-3,2.3748402E-2,-2.205696E-2,-6.7558605E-3,7.339258E-3],"split_indices":[18,37,19,37,17,37,37,0,0,0,0,0,0,0,0],"split_type":[0,0,0,0,0,0,0,0,0,0,0,0,0,0,0],"sum_hessian":[1.6556776E3,7.507609E2,9.049167E2,4.6615268E2,2.8460825E2,2.5679965E2,6.4811707E2,1.4532272E2,3.2082996E2,2.1282825E2,7.178E1,2.4028059E1,2.327716E2,3.5223724E2,2.9587982E2],"tree_param":{"num_deleted":"0","num_feature":"39","num_nodes":"15","size_leaf_vector":"1"}},{"base_weights":[-3.865544E-2,2.5503618E-1,-1.1331534E-1,7.212331E-1,8.033158E-2,-1.6656205E-1,2.782946E-1,-2.7832268E-3,2.8081004E-2,-4.0345136E-3,2.3004359E-2,-2.144033E-3,-2.0058772E-2,3.0930439E-2,-9.823459E-3],"categories":[],"categories_nodes":[],"categories_segments":[],"categories_sizes":[],"default_left":[0,0,0,0,0,0,0,0,0,0,0,0,0,0,0],"id":36,"left_children":[1,3,5,7,9,11,13,-1,-1,-1,-1,-1,-1,-1,-1],"loss_changes":[3.6081757E1,2.5059696E1,2.765706E1,1.7238056E1,3.856766E1,5.4373177E1,7.426308E1,0E0,0E0,0E0,0E0,0E0,0E0,0E0,0E0],"parents":[2147483647,0,0,1,1,2,2,3,3,4,4,5,5,6,6],"right_children":[2,4,6,8,10,12,14,-1,-1,-1,-1,-1,-1,-1,-1],"split_conditions":[-6.872764E-1,7.7786365E0,1.3488032E-3,-2.8711737E1,2.064E1,7.7726063E-4,4.0291283E1,-2.7832268E-3,2.8081004E-2,-4.0345136E-3,2.3004359E-2,-2.144033E-3,-2.0058772E-2,3.0930439E-2,-9.823459E-3],"split_indices":[13,19,37,18,29,37,19,0,0,0,0,0,0,0,0],"split_type":[0,0,0,0,0,0,0,0,0,0,0,0,0,0,0],"sum_hessian":[1.6468779E3,3.2592197E2,1.3209559E3,8.145935E1,2.4446262E2,1.1698706E3,1.5108537E2,1.5656601E1,6.580275E1,1.8704047E2,5.7422157E1,9.917262E2,1.7814441E2,6.727644E1,8.380892E1],"tree_param":{"num_deleted":"0","num_feature":"39","num_nodes":"15","size_leaf_vector":"1"}},{"base_weights":[1.6132651E-3,1.3089354E-1,-1.3397029E-1,-3.468027E-1,2.3928173E-1,-4.9202457E-1,-5.1244334E-3,-1.4447199E-2,1.847328E-2,-9.322913E-3,1.0781239E-2,2.462834E-2,-2.0035667E-2,-5.808822E-3,6.4090868E-3],"categories":[],"categories_nodes":[],"categories_segments":[],"categories_sizes":[],"default_left":[0,0,0,0,0,0,0,0,0,0,0,0,0,0,0],"id":37,"left_children":[1,3,5,7,9,11,13,-1,-1,-1,-1,-1,-1,-1,-1],"loss_changes":[2.9371393E1,4.5010815E1,3.6386375E1,2.1800076E1,4.767349E1,5.0991825E1,2.5123915E1,0E0,0E0,0E0,0E0,0E0,0E0,0E0,0E0],"parents":[2147483647,0,0,1,1,2,2,3,3,4,4,5,5,6,6],"right_children":[2,4,6,8,10,12,14,-1,-1,-1,-1,-1,-1,-1,-1],"split_conditions":[-6.3202534E0,-1.3849757E0,2.287365E1,2.692E1,7.102829E-1,-4.0870585E-2,5.9880316E-4,-1.4447199E-2,1.847328E-2,-9.322913E-3,1.0781239E-2,2.462834E-2,-2.0035667E-2,-5.808822E-3,6.4090868E-3],"split_indices":[18,14,19,29,17,37,37,0,0,0,0,0,0,0,0],"split_type":[0,0,0,0,0,0,0,0,0,0,0,0,0,0,0],"sum_hessian":[1.6660062E3,8.604666E2,8.0553955E2,1.5368492E2,7.0678174E2,2.0532864E2,6.002109E2,1.388244E2,1.486052E1,1.2225254E2,5.845292E2,2.0739912E1,1.8458873E2,3.2762122E2,2.725897E2],"tree_param":{"num_deleted":"0","num_feature":"39","num_nodes":"15","size_leaf_vector":"1"}},{"base_weights":[6.631851E-3,-1.2399308E-1,1.5805155E-1,-3.1137463E-1,7.474362E-2,5.287194E-1,-2.5663765E-2,-1.726697E-2,4.5631386E-4,1.7874243E-2,-2.2569178E-3,2.130838E-2,3.0318173E-3,-3.9696787E-3,1.4893775E-2],"categories":[],"categories_nodes":[],"categories_segments":[],"categories_sizes":[],"default_left":[0,0,0,0,0,0,0,0,0,0,0,0,0,0,0],"id":38,"left_children":[1,3,5,7,9,11,13,-1,-1,-1,-1,-1,-1,-1,-1],"loss_changes":[3.2702175E1,3.3317043E1,5.358596E1,4.0723164E1,3.4504513E1,1.8158295E1,2.8377466E1,0E0,0E0,0E0,0E0,0E0,0E0,0E0,0E0],"parents":[2147483647,0,0,1,1,2,2,3,3,4,4,5,5,6,6],"right_children":[2,4,6,8,10,12,14,-1,-1,-1,-1,-1,-1,-1,-1],"split_conditions":[1.615E1,4.462766E-4,2.0531914E-4,5.391232E1,1.319E1,2.7521045E0,6.0287285E1,-1.726697E-2,4.5631386E-4,1.7874243E-2,-2.2569178E-3,2.130838E-2,3.0318173E-3,-3.9696787E-3,1.4893775E-2],"split_indices":[29,37,37,19,29,13,19,0,0,0,0,0,0,0,0],"split_type":[0,0,0,0,0,0,0,0,0,0,0,0,0,0,0],"sum_hessian":[1.6399652E3,8.738339E2,7.661312E2,4.5348718E2,4.203467E2,2.5438184E2,5.1174942E2,2.5196895E2,2.0151823E2,9.360414E1,3.2674258E2,1.7296832E2,8.141353E1,4.312229E2,8.052651E1],"tree_param":{"num_deleted":"0","num_feature":"39","num_nodes":"15","size_leaf_vector":"1"}},{"base_weights":[4.3285877E-2,-8.671379E-2,2.3432265E-1,-2.685858E-1,9.6218E-2,6.549186E-1,1.6811958E-2,-5.4598774E-4,-1.7204184E-2,1.0735916E-2,-5.005315E-3,8.017104E-3,2.3894649E-2,-3.011331E-2,4.2868615E-3],"categories":[],"categories_nodes":[],"categories_segments":[],"categories_sizes":[],"default_left":[0,0,0,0,0,0,0,0,0,0,0,0,0,0,0],"id":39,"left_children":[1,3,5,7,9,11,13,-1,-1,-1,-1,-1,-1,-1,-1],"loss_changes":[4.098571E1,3.2744907E1,5.9840435E1,3.6414616E1,3.384057E1,9.152245E0,5.683481E1,0E0,0E0,0E0,0E0,0E0,0E0,0E0,0E0],"parents":[2147483647,0,0,1,1,2,2,3,3,4,4,5,5,6,6],"right_children":[2,4,6,8,10,12,14,-1,-1,-1,-1,-1,-1,-1,-1],"split_conditions":[1.664E1,4.462766E-4,2.0531914E-4,-1.8783244E-4,7.7726063E-4,-4.0875006E-1,2.2506648E-4,-5.4598774E-4,-1.7204184E-2,1.0735916E-2,-5.005315E-3,8.017104E-3,2.3894649E-2,-3.011331E-2,4.2868615E-3],"split_indices":[29,37,37,37,37,34,37,0,0,0,0,0,0,0,0],"split_type":[0,0,0,0,0,0,0,0,0,0,0,0,0,0,0],"sum_hessian":[1.6293611E3,9.649668E2,6.6439435E2,4.8819348E2,4.767733E2,2.1990968E2,4.4448465E2,2.7456625E2,2.1362723E2,2.4193822E2,2.3483508E2,6.6464775E1,1.534449E2,4.330241E1,4.0118225E2],"tree_param":{"num_deleted":"0","num_feature":"39","num_nodes":"15","size_leaf_vector":"1"}},{"base_weights":[-1.164235E-2,2.13562E-1,-1.0026436E-1,3.1922486E-1,-4.8347306E-1,-3.5664135E-1,3.4489524E-2,-3.0057046E-3,1.3281033E-2,-3.506242E-2,-4.733742E-3,4.0752385E-3,-1.2813438E-2,2.9133076E-3,-2.036721E-2],"categories":[],"categories_nodes":[],"categories_segments":[],"categories_sizes":[],"default_left":[0,0,0,0,0,0,0,0,0,0,0,0,0,0,0],"id":40,"left_children":[1,3,5,7,9,11,13,-1,-1,-1,-1,-1,-1,-1,-1],"loss_changes":[3.2863667E1,3.4463356E1,4.2015045E1,2.1964329E1,9.882776E0,1.5362949E1,3.415458E1,0E0,0E0,0E0,0E0,0E0,0E0,0E0,0E0],"parents":[2147483647,0,0,1,1,2,2,3,3,4,4,5,5,6,6],"right_children":[2,4,6,8,10,12,14,-1,-1,-1,-1,-1,-1,-1,-1],"split_conditions":[-2.387676E-1,-7.3667097E0,2.477975E1,-2.3736906E1,1.33E1,1.309E1,1.5042579E1,-3.0057046E-3,1.3281033E-2,-3.506242E-2,-4.733742E-3,4.0752385E-3,-1.2813438E-2,2.9133076E-3,-2.036721E-2],"split_indices":[13,18,19,18,29,29,17,0,0,0,0,0,0,0,0],"split_type":[0,0,0,0,0,0,0,0,0,0,0,0,0,0,0],"sum_hessian":[1.647625E3,4.5691235E2,1.1907126E3,4.0161185E2,5.5300518E1,4.125057E2,7.78207E2,8.7873886E1,3.1373798E2,1.1667211E1,4.363331E1,4.750598E1,3.6499973E2,7.2195764E2,5.6249336E1],"tree_param":{"num_deleted":"0","num_feature":"39","num_nodes":"15","size_leaf_vector":"1"}},{"base_weights":[1.2543706E-4,-4.7122706E-2,3.9824516E-1,1.3262663E-2,-5.010853E-1,2.8649969E-2,-2.1455331E-1,-2.6482767E-3,6.9543268E-3,3.992772E-3,-3.7839565E-2,4.18798E-3,-3.3638373E-2],"categories":[],"categories_nodes":[],"categories_segments":[],"categories_sizes":[],"default_left":[0,0,0,0,0,0,0,0,0,0,0,0,0],"id":41,"left_children":[1,3,5,7,9,-1,11,-1,-1,-1,-1,-1,-1],"loss_changes":[3.173561E1,4.1313614E1,6.3751587E1,2.920809E1,8.825446E1,0E0,3.0949455E1,0E0,0E0,0E0,0E0,0E0,0E0],"parents":[2147483647,0,0,1,1,2,2,3,3,4,4,6,6],"right_children":[2,4,6,8,10,-1,12,-1,-1,-1,-1,-1,-1],"split_conditions":[1.3488032E-3,1.0129655E-3,4.1536705E1,5.9880316E-4,-6.8350077E0,2.8649969E-2,7.0181103E0,-2.6482767E-3,6.9543268E-3,3.992772E-3,-3.7839565E-2,4.18798E-3,-3.3638373E-2],"split_indices":[37,37,19,37,18,0,17,0,0,0,0,0,0],"split_type":[0,0,0,0,0,0,0,0,0,0,0,0,0],"sum_hessian":[1.6398085E3,1.4652944E3,1.7451398E2,1.293662E3,1.7163254E2,9.1685425E1,8.282856E1,8.790706E2,4.1459134E2,9.43886E1,7.7243935E1,6.1019695E1,2.180886E1],"tree_param":{"num_deleted":"0","num_feature":"39","num_nodes":"13","size_leaf_vector":"1"}},{"base_weights":[1.5037711E-2,3.304205E-1,-5.473556E-2,7.8948444E-1,1.9243017E-1,-9.870349E-2,2.8561333E-1,-0E0,2.7688777E-2,1.9747544E-2,-0E0,-4.8381943E-4,-1.5608069E-2,2.681247E-2,-8.386214E-3],"categories":[],"categories_nodes":[],"categories_segments":[],"categories_sizes":[],"default_left":[0,0,0,0,0,0,0,0,0,0,0,0,0,0,0],"id":42,"left_children":[1,3,5,7,9,11,13,-1,-1,-1,-1,-1,-1,-1,-1],"loss_changes":[3.6876793E1,1.6546757E1,1.9930906E1,8.33445E0,2.1084541E1,4.0735733E1,5.411198E1,0E0,0E0,0E0,0E0,0E0,0E0,0E0,0E0],"parents":[2147483647,0,0,1,1,2,2,3,3,4,4,5,5,6,6],"right_children":[2,4,6,8,10,12,14,-1,-1,-1,-1,-1,-1,-1,-1],"split_conditions":[-8.546907E-1,6.2006373E0,1.3488032E-3,-7.4337726E0,-7.537234E-4,7.7726063E-4,4.211575E1,-0E0,2.7688777E-2,1.9747544E-2,-0E0,-4.8381943E-4,-1.5608069E-2,2.681247E-2,-8.386214E-3],"split_indices":[13,19,37,28,37,37,19,0,0,0,0,0,0,0,0],"split_type":[0,0,0,0,0,0,0,0,0,0,0,0,0,0,0],"sum_hessian":[1.6416494E3,2.9920343E2,1.3424459E3,6.034578E1,2.3885765E2,1.1972107E3,1.4523521E2,7.7495837E0,5.2596195E1,6.450101E1,1.7435664E2,1.009421E3,1.877897E2,7.026166E1,7.4973564E1],"tree_param":{"num_deleted":"0","num_feature":"39","num_nodes":"15","size_leaf_vector":"1"}},{"base_weights":[-3.2555368E-3,-4.6731263E-2,3.4915376E-1,3.0144643E-2,-4.05305E-1,6.4658034E-1,-5.1937246E-1,-8.542016E-4,2.379534E-2,1.222264E-3,-2.1579977E-2,2.0997578E-2,-0E0,-2.8990524E-2,1.9135334E-2],"categories":[],"categories_nodes":[],"categories_segments":[],"categories_sizes":[],"default_left":[0,0,0,0,0,0,0,0,0,0,0,0,0,0,0],"id":43,"left_children":[1,3,5,7,9,11,13,-1,-1,-1,-1,-1,-1,-1,-1],"loss_changes":[2.4507492E1,4.116137E1,4.712778E1,5.5557587E1,3.8392754E1,5.678215E0,2.7370392E1,0E0,0E0,0E0,0E0,0E0,0E0,0E0,0E0],"parents":[2147483647,0,0,1,1,2,2,3,3,4,4,5,5,6,6],"right_children":[2,4,6,8,10,12,14,-1,-1,-1,-1,-1,-1,-1,-1],"split_conditions":[1.3488032E-3,7.7726063E-4,6.6163526E0,6.543218E-4,-5.2417074E-3,7.966436E1,2.19E1,-8.542016E-4,2.379534E-2,1.222264E-3,-2.1579977E-2,2.0997578E-2,-0E0,-2.8990524E-2,1.9135334E-2],"split_indices":[37,37,17,37,13,26,29,0,0,0,0,0,0,0,0],"split_type":[0,0,0,0,0,0,0,0,0,0,0,0,0,0,0],"sum_hessian":[1.6287279E3,1.4587751E3,1.6995274E2,1.2004158E3,2.5835944E2,1.2926607E2,4.068667E1,1.1168119E3,8.3603836E1,1.0590856E2,1.5245088E2,1.21172585E2,8.093486E0,3.1191734E1,9.494935E0],"tree_param":{"num_deleted":"0","num_feature":"39","num_nodes":"15","size_leaf_vector":"1"}},{"base_weights":[-2.1174882E-2,-1.6587421E-1,1.3993593E-1,-4.581334E-1,-7.8421995E-2,-3.221598E-2,3.083013E-1,1.3347665E-2,-1.6856838E-2,6.7832586E-3,-4.0980317E-3,2.7186594E-3,-7.2063007E-3,1.09060835E-2,-1.0740158E-2],"categories":[],"categories_nodes":[],"categories_segments":[],"categories_sizes":[],"default_left":[0,0,0,0,0,0,0,0,0,0,0,0,0,0,0],"id":44,"left_children":[1,3,5,7,9,11,13,-1,-1,-1,-1,-1,-1,-1,-1],"loss_changes":[3.8931194E1,2.13622E1,2.3294739E1,1.9988796E1,1.22417755E1,1.0264218E1,1.5462879E1,0E0,0E0,0E0,0E0,0E0,0E0,0E0,0E0],"parents":[2147483647,0,0,1,1,2,2,3,3,4,4,5,5,6,6],"right_children":[2,4,6,8,10,12,14,-1,-1,-1,-1,-1,-1,-1,-1],"split_conditions":[1.615E1,-4.6563745E-1,1.2967379E0,8.363404E0,6.470476E-1,1.862E1,1.07206085E2,1.3347665E-2,-1.6856838E-2,6.7832586E-3,-4.0980317E-3,2.7186594E-3,-7.2063007E-3,1.09060835E-2,-1.0740158E-2],"split_indices":[29,14,32,19,32,29,19,0,0,0,0,0,0,0,0],"split_type":[0,0,0,0,0,0,0,0,0,0,0,0,0,0,0],"sum_hessian":[1.6577584E3,8.798236E2,7.7793475E2,1.9248596E2,6.8733765E2,3.8076785E2,3.9716693E2,1.615663E1,1.7632933E2,1.02420784E2,5.849169E2,2.3511723E2,1.4565062E2,3.7163327E2,2.5533653E1],"tree_param":{"num_deleted":"0","num_feature":"39","num_nodes":"15","size_leaf_vector":"1"}},{"base_weights":[-2.0293016E-2,1.1163941E-1,-1.4568998E-1,-4.523265E-1,2.2328225E-1,1.880938E-1,-2.2839397E-1,3.7174327E-3,-2.6637975E-2,1.8382527E-2,-1.0433624E-3,-3.5015275E-3,2.6578689E-2,-5.2940426E-4,-2.2461979E-2],"categories":[],"categories_nodes":[],"categories_segments":[],"categories_sizes":[],"default_left":[0,0,0,0,0,0,0,0,0,0,0,0,0,0,0],"id":45,"left_children":[1,3,5,7,9,11,13,-1,-1,-1,-1,-1,-1,-1,-1],"loss_changes":[2.6894678E1,4.9336666E1,2.3450142E1,3.4221703E1,6.7575325E1,3.704749E1,7.289094E1,0E0,0E0,0E0,0E0,0E0,0E0,0E0,0E0],"parents":[2147483647,0,0,1,1,2,2,3,3,4,4,5,5,6,6],"right_children":[2,4,6,8,10,12,14,-1,-1,-1,-1,-1,-1,-1,-1],"split_conditions":[-6.918142E0,7.2133195E-1,1.3870515E0,-1.7603931E1,4.4185724E0,6.543218E-4,7.7726063E-4,3.7174327E-3,-2.6637975E-2,1.8382527E-2,-1.0433624E-3,-3.5015275E-3,2.6578689E-2,-5.2940426E-4,-2.2461979E-2],"split_indices":[18,17,17,18,17,37,37,0,0,0,0,0,0,0,0],"split_type":[0,0,0,0,0,0,0,0,0,0,0,0,0,0,0],"sum_hessian":[1.6116207E3,7.7784015E2,8.337806E2,1.2305474E2,6.547854E2,1.5950055E2,6.7428E2,5.2539413E1,7.0515335E1,2.6130252E2,3.9348288E2,1.11915924E2,4.7584618E1,4.8632303E2,1.8795697E2],"tree_param":{"num_deleted":"0","num_feature":"39","num_nodes":"15","size_leaf_vector":"1"}},{"base_weights":[1.7973337E-2,1.4405099E-1,-1.0905023E-1,-3.415028E-2,3.602847E-1,-7.6536E-1,-3.2670222E-2,1.2179763E-2,-9.074631E-3,1.2391567E-2,-2.2731757E-2,-2.725731E-2,1.7472254E-3,-3.3002654E-3,1.219963E-2],"categories":[],"categories_nodes":[],"categories_segments":[],"categories_sizes":[],"default_left":[0,0,0,0,0,0,0,0,0,0,0,0,0,0,0],"id":46,"left_children":[1,3,5,7,9,11,13,-1,-1,-1,-1,-1,-1,-1,-1],"loss_changes":[2.6108349E1,3.244882E1,3.8502747E1,5.3672108E1,2.3151154E1,1.1483536E1,2.4321709E1,0E0,0E0,0E0,0E0,0E0,0E0,0E0,0E0],"parents":[2147483647,0,0,1,1,2,2,3,3,4,4,5,5,6,6],"right_children":[2,4,6,8,10,12,14,-1,-1,-1,-1,-1,-1,-1,-1],"split_conditions":[-6.4494E0,4.462766E-4,1.1509195E-1,-7.537234E-4,7.005784E0,1.3488032E-3,2.8134072E0,1.2179763E-2,-9.074631E-3,1.2391567E-2,-2.2731757E-2,-2.725731E-2,1.7472254E-3,-3.3002654E-3,1.219963E-2],"split_indices":[18,37,12,37,13,37,23,0,0,0,0,0,0,0,0],"split_type":[0,0,0,0,0,0,0,0,0,0,0,0,0,0,0],"sum_hessian":[1.6159851E3,8.185779E2,7.974072E2,4.4599127E2,3.725866E2,7.569515E1,7.217121E2,1.651252E2,2.8086606E2,3.6051285E2,1.2073771E1,6.6111435E1,9.583722E0,6.207379E2,1.0097418E2],"tree_param":{"num_deleted":"0","num_feature":"39","num_nodes":"15","size_leaf_vector":"1"}},{"base_weights":[1.4861623E-3,-1.2694815E-1,1.4703317E-1,7.259741E-2,-3.847576E-1,-5.758371E-1,2.0093204E-1,1.6251087E-2,-0E0,-9.347778E-3,-3.2828957E-2,4.428376E-3,-2.8488467E-2,6.9415155E-3,-2.2868719E-2],"categories":[],"categories_nodes":[],"categories_segments":[],"categories_sizes":[],"default_left":[0,0,0,0,0,0,0,0,0,0,0,0,0,0,0],"id":47,"left_children":[1,3,5,7,9,11,13,-1,-1,-1,-1,-1,-1,-1,-1],"loss_changes":[3.0562311E1,4.501254E1,2.9933786E1,1.6512186E1,1.5233299E1,1.6456446E1,2.1095871E1,0E0,0E0,0E0,0E0,0E0,0E0,0E0,0E0],"parents":[2147483647,0,0,1,1,2,2,3,3,4,4,5,5,6,6],"right_children":[2,4,6,8,10,12,14,-1,-1,-1,-1,-1,-1,-1,-1],"split_conditions":[1.615E1,4.4185724E0,6.087814E-1,-5.870414E-1,1.3922267E2,4.7308818E-1,1.2999214E2,1.6251087E-2,-0E0,-9.347778E-3,-3.2828957E-2,4.428376E-3,-2.8488467E-2,6.9415155E-3,-2.2868719E-2],"split_indices":[29,17,17,13,19,17,19,0,0,0,0,0,0,0,0],"split_type":[0,0,0,0,0,0,0,0,0,0,0,0,0,0,0],"sum_hessian":[1.6227983E3,8.5511835E2,7.6768005E2,4.796791E2,3.754392E2,4.7333748E1,7.203463E2,5.997579E1,4.1970334E2,3.494226E2,2.6016594E1,1.5332426E1,3.2001324E1,7.0396606E2,1.6380278E1],"tree_param":{"num_deleted":"0","num_feature":"39","num_nodes":"15","size_leaf_vector":"1"}},{"base_weights":[1.3853663E-2,1.4457645E-1,-9.0470575E-2,-8.612843E-2,4.5172983E-1,-4.1584483E-1,2.2682365E-2,1.1908888E-2,-1.0124318E-2,1.842997E-2,-6.977642E-3,2.4222199E-2,-1.68487E-2,-3.5761816E-3,7.4462504E-3],"categories":[],"categories_nodes":[],"categories_segments":[],"categories_sizes":[],"default_left":[0,0,0,0,0,0,0,0,0,0,0,0,0,0,0],"id":48,"left_children":[1,3,5,7,9,11,13,-1,-1,-1,-1,-1,-1,-1,-1],"loss_changes":[2.2460335E1,5.306379E1,3.4095707E1,5.1628784E1,3.7097717E1,4.4205196E1,2.1861975E1,0E0,0E0,0E0,0E0,0E0,0E0,0E0,0E0],"parents":[2147483647,0,0,1,1,2,2,3,3,4,4,5,5,6,6],"right_children":[2,4,6,8,10,12,14,-1,-1,-1,-1,-1,-1,-1,-1],"split_conditions":[-7.518185E0,4.462766E-4,2.126124E1,-7.537234E-4,8.363051E0,-4.0870585E-2,6.136968E-4,1.1908888E-2,-1.0124318E-2,1.842997E-2,-6.977642E-3,2.4222199E-2,-1.68487E-2,-3.5761816E-3,7.4462504E-3],"split_indices":[18,37,19,37,17,37,37,0,0,0,0,0,0,0,0],"split_type":[0,0,0,0,0,0,0,0,0,0,0,0,0,0,0],"sum_hessian":[1.629217E3,7.3077106E2,8.984459E2,4.1565588E2,3.151152E2,2.3293501E2,6.655109E2,1.3853621E2,2.7711966E2,2.5739008E2,5.7725136E1,2.0926332E1,2.1200868E2,4.0450677E2,2.6100418E2],"tree_param":{"num_deleted":"0","num_feature":"39","num_nodes":"15","size_leaf_vector":"1"}},{"base_weights":[-1.41783245E-2,-1.2752938E-1,1.1604877E-1,-6.933533E-2,-5.606547E-1,-2.9913092E-1,1.8032162E-1,-1.1880157E-3,-2.8027236E-2,-1.9226057E-2,-0E0,-1.58044E-2,2.0333822E-3,6.2642666E-3,-2.37998E-2],"categories":[],"categories_nodes":[],"categories_segments":[],"categories_sizes":[],"default_left":[0,0,0,0,0,0,0,0,0,0,0,0,0,0,0],"id":49,"left_children":[1,3,5,7,9,11,13,-1,-1,-1,-1,-1,-1,-1,-1],"loss_changes":[2.4259565E1,2.0870958E1,2.0209576E1,1.8199917E1,5.1013355E0,9.373107E0,1.802275E1,0E0,0E0,0E0,0E0,0E0,0E0,0E0,0E0],"parents":[2147483647,0,0,1,1,2,2,3,3,4,4,5,5,6,6],"right_children":[2,4,6,8,10,12,14,-1,-1,-1,-1,-1,-1,-1,-1],"split_conditions":[1.615E1,1.577E1,1.1765354E0,1.3305914E1,1.1596671E0,1.5989126E-1,1E1,-1.1880157E-3,-2.8027236E-2,-1.9226057E-2,-0E0,-1.58044E-2,2.0333822E-3,6.2642666E-3,-2.37998E-2],"split_indices":[29,29,9,13,14,10,5,0,0,0,0,0,0,0,0],"split_type":[0,0,0,0,0,0,0,0,0,0,0,0,0,0,0],"sum_hessian":[1.6318801E3,8.8073785E2,7.511423E2,7.856034E2,9.513445E1,9.407348E1,6.570688E2,7.6678326E2,1.88201E1,8.4057335E1,1.1077117E1,6.006971E1,3.4003773E1,6.442024E2,1.2866419E1],"tree_param":{"num_deleted":"0","num_feature":"39","num_nodes":"15","size_leaf_vector":"1"}},{"base_weights":[7.3198723E-3,1.5467605E-1,-1.08721286E-1,-5.2956504E-1,2.2678141E-1,-3.4984577E-1,4.3784E-2,-2.0712497E-2,7.382432E-3,-8.536131E-3,1.0398555E-2,-1.4823586E-2,2.1314813E-2,8.993952E-3,-3.8445897E-3],"categories":[],"categories_nodes":[],"categories_segments":[],"categories_sizes":[],"default_left":[0,0,0,0,0,0,0,0,0,0,0,0,0,0,0],"id":50,"left_children":[1,3,5,7,9,11,13,-1,-1,-1,-1,-1,-1,-1,-1],"loss_changes":[2.8074263E1,3.5934258E1,3.4081955E1,1.0259512E1,4.1373726E1,5.6007183E1,2.4993439E1,0E0,0E0,0E0,0E0,0E0,0E0,0E0,0E0],"parents":[2147483647,0,0,1,1,2,2,3,3,4,4,5,5,6,6],"right_children":[2,4,6,8,10,12,14,-1,-1,-1,-1,-1,-1,-1,-1],"split_conditions":[-7.518185E0,-2.5398657E0,3.294164E1,2.2197294E0,8.0298316E-1,1.3488032E-3,4.174247E0,-2.0712497E-2,7.382432E-3,-8.536131E-3,1.0398555E-2,-1.4823586E-2,2.1314813E-2,8.993952E-3,-3.8445897E-3],"split_indices":[18,14,19,8,17,37,17,0,0,0,0,0,0,0,0],"split_type":[0,0,0,0,0,0,0,0,0,0,0,0,0,0,0],"sum_hessian":[1.6265367E3,7.2343945E2,9.030973E2,6.329979E1,6.601397E2,3.524642E2,5.5063306E2,5.5018166E1,8.281627E0,1.20866615E2,5.392731E2,3.1426086E2,3.8203323E1,2.2440607E2,3.26227E2],"tree_param":{"num_deleted":"0","num_feature":"39","num_nodes":"15","size_leaf_vector":"1"}},{"base_weights":[-1.5060319E-2,-5.4358512E-2,3.028971E-1,1.691398E-2,-5.528568E-1,6.4170945E-1,-1.632464E-1,-2.5785584E-3,7.0508006E-3,3.1102521E-4,-3.9660897E-2,2.65949E-2,8.557373E-3,1.943772E-2,-1.7173829E-2],"categories":[],"categories_nodes":[],"categories_segments":[],"categories_sizes":[],"default_left":[0,0,0,0,0,0,0,0,0,0,0,0,0,0,0],"id":51,"left_children":[1,3,5,7,9,11,13,-1,-1,-1,-1,-1,-1,-1,-1],"loss_changes":[1.982348E1,5.2684265E1,2.8855375E1,2.8919134E1,8.292741E1,5.45578E0,2.6418997E1,0E0,0E0,0E0,0E0,0E0,0E0,0E0,0E0],"parents":[2147483647,0,0,1,1,2,2,3,3,4,4,5,5,6,6],"right_children":[2,4,6,8,10,12,14,-1,-1,-1,-1,-1,-1,-1,-1],"split_conditions":[1.3488032E-3,1.0129655E-3,4.589608E0,5.9880316E-4,-6.3202534E0,1.3174392E0,-1.1421155E1,-2.5785584E-3,7.0508006E-3,3.1102521E-4,-3.9660897E-2,2.65949E-2,8.557373E-3,1.943772E-2,-1.7173829E-2],"split_indices":[37,37,17,37,18,17,18,0,0,0,0,0,0,0,0],"split_type":[0,0,0,0,0,0,0,0,0,0,0,0,0,0,0],"sum_hessian":[1.6146869E3,1.4463584E3,1.6832846E2,1.2661497E3,1.802087E2,9.8871735E1,6.945672E1,8.56207E2,4.0994275E2,1.0537826E2,7.4830444E1,5.088395E1,4.7987785E1,2.0673111E1,4.878361E1],"tree_param":{"num_deleted":"0","num_feature":"39","num_nodes":"15","size_leaf_vector":"1"}},{"base_weights":[6.3077514E-3,3.0816833E-2,-4.3947858E-1,6.1143667E-4,5.7643175E-1,4.5752063E-1,-3.2952823E-2,4.445084E-4,-2.5276124E-2,-2.0107452E-3,2.3558008E-2,-1.1204446E-3,2.0197537E-2],"categories":[],"categories_nodes":[],"categories_segments":[],"categories_sizes":[],"default_left":[0,0,0,0,0,0,0,0,0,0,0,0,0],"id":52,"left_children":[1,3,5,7,9,11,-1,-1,-1,-1,-1,-1,-1],"loss_changes":[1.7002079E1,2.4372467E1,5.1522503E1,1.6088245E1,1.2150927E1,5.2879286E0,0E0,0E0,0E0,0E0,0E0,0E0,0E0],"parents":[2147483647,0,0,1,1,2,2,3,3,4,4,5,5],"right_children":[2,4,6,8,10,12,-1,-1,-1,-1,-1,-1,-1],"split_conditions":[1.1410309E2,8.521134E1,4.6735697E0,6E0,-8.383885E0,1.2999214E2,-3.2952823E-2,4.445084E-4,-2.5276124E-2,-2.0107452E-3,2.3558008E-2,-1.1204446E-3,2.0197537E-2],"split_indices":[19,19,17,5,18,19,0,0,0,0,0,0,0],"split_type":[0,0,0,0,0,0,0,0,0,0,0,0,0],"sum_hessian":[1.6197474E3,1.544E3,7.5747444E1,1.4712239E3,7.277618E1,3.1441172E1,4.430627E1,1.4540106E3,1.7213213E1,1.631751E1,5.6458664E1,7.9858427E0,2.345533E1],"tree_param":{"num_deleted":"0","num_feature":"39","num_nodes":"13","size_leaf_vector":"1"}},{"base_weights":[-2.6110359E-2,-1.3948141E-1,9.924874E-2,1.3424149E-1,-4.111774E-1,5.370625E-1,-3.6257215E-2,1.40814455E-2,-3.1101885E-3,2.7288007E-2,-1.44460825E-2,2.4427976E-2,-5.888246E-3,-1.0113141E-2,6.819637E-3],"categories":[],"categories_nodes":[],"categories_segments":[],"categories_sizes":[],"default_left":[0,0,0,0,0,0,0,0,0,0,0,0,0,0,0],"id":53,"left_children":[1,3,5,7,9,11,13,-1,-1,-1,-1,-1,-1,-1,-1],"loss_changes":[2.361606E1,6.608836E1,4.7294308E1,3.583612E1,4.271237E1,4.0220787E1,4.7849403E1,0E0,0E0,0E0,0E0,0E0,0E0,0E0,0E0],"parents":[2147483647,0,0,1,1,2,2,3,3,4,4,5,5,6,6],"right_children":[2,4,6,8,10,12,14,-1,-1,-1,-1,-1,-1,-1,-1],"split_conditions":[5.9880316E-4,-7.537234E-4,-9.897597E0,4.174247E0,-4.0308735E1,8.272143E0,2.576657E1,1.40814455E-2,-3.1101885E-3,2.7288007E-2,-1.44460825E-2,2.4427976E-2,-5.888246E-3,-1.0113141E-2,6.819637E-3],"split_indices":[37,37,18,17,18,17,19,0,0,0,0,0,0,0,0],"split_type":[0,0,0,0,0,0,0,0,0,0,0,0,0,0,0],"sum_hessian":[1.6461556E3,8.724913E2,7.7366437E2,4.3221762E2,4.4027365E2,1.8284447E2,5.9081995E2,1.8091382E2,2.513038E2,1.7813404E1,4.2246027E2,1.3426677E2,4.85777E1,2.7879614E2,3.1202377E2],"tree_param":{"num_deleted":"0","num_feature":"39","num_nodes":"15","size_leaf_vector":"1"}},{"base_weights":[2.4555534E-2,-5.618104E-1,5.3905327E-2,-8.022213E-1,1.4627571E-2,2.1826583E-1,-7.334414E-2,-2.8746324E-2,-0E0,-8.473079E-3,1.12505965E-2,-9.186393E-3,1.0035525E-2,-1.0725466E-2,3.0940203E-3],"categories":[],"categories_nodes":[],"categories_segments":[],"categories_sizes":[],"default_left":[0,0,0,0,0,0,0,0,0,0,0,0,0,0,0],"id":54,"left_children":[1,3,5,7,9,11,13,-1,-1,-1,-1,-1,-1,-1,-1],"loss_changes":[2.7057451E1,1.1962084E1,3.284884E1,7.3717957E0,3.3266604E0,4.2380695E1,4.4431847E1,0E0,0E0,0E0,0E0,0E0,0E0,0E0,0E0],"parents":[2147483647,0,0,1,1,2,2,3,3,4,4,5,5,6,6],"right_children":[2,4,6,8,10,12,14,-1,-1,-1,-1,-1,-1,-1,-1],"split_conditions":[-2.8888724E0,1.98E1,-7.437233E0,-1.4625834E-1,3.617747E1,7.2133195E-1,3.220343E1,-2.8746324E-2,-0E0,-8.473079E-3,1.12505965E-2,-9.186393E-3,1.0035525E-2,-1.0725466E-2,3.0940203E-3],"split_indices":[14,29,18,34,19,17,19,0,0,0,0,0,0,0,0],"split_type":[0,0,0,0,0,0,0,0,0,0,0,0,0,0,0],"sum_hessian":[1.6174462E3,6.9527885E1,1.5479182E3,5.0131172E1,1.9396711E1,6.80761E2,8.671572E2,4.1671158E1,8.460015E0,8.183374E0,1.1213336E1,1.1891082E2,5.6185016E2,3.3459085E2,5.325664E2],"tree_param":{"num_deleted":"0","num_feature":"39","num_nodes":"15","size_leaf_vector":"1"}},{"base_weights":[-0E0,1.4889932E-1,-1.3081607E-1,1.9319537E-1,-8.5067856E-1,-2.302056E-1,2.0659119E-1,-8.5230395E-3,8.807415E-3,-3.555606E-2,-0E0,3.8635887E-3,-1.0632067E-2,9.003134E-3,-2.4658512E-2],"categories":[],"categories_nodes":[],"categories_segments":[],"categories_sizes":[],"default_left":[0,0,0,0,0,0,0,0,0,0,0,0,0,0,0],"id":55,"left_children":[1,3,5,7,9,11,13,-1,-1,-1,-1,-1,-1,-1,-1],"loss_changes":[3.2053226E1,3.3586758E1,2.9656567E1,3.603678E1,1.0511801E1,3.1153885E1,1.9171227E1,0E0,0E0,0E0,0E0,0E0,0E0,0E0,0E0],"parents":[2147483647,0,0,1,1,2,2,3,3,4,4,5,5,6,6],"right_children":[2,4,6,8,10,12,14,-1,-1,-1,-1,-1,-1,-1,-1],"split_conditions":[-6.918142E0,9.3127E0,5.7325788E0,7.2133195E-1,-9.394275E0,1.4635372E0,1.713748E1,-8.5230395E-3,8.807415E-3,-3.555606E-2,-0E0,3.8635887E-3,-1.0632067E-2,9.003134E-3,-2.4658512E-2],"split_indices":[18,13,13,17,18,17,17,0,0,0,0,0,0,0,0],"split_type":[0,0,0,0,0,0,0,0,0,0,0,0,0,0,0],"sum_hessian":[1.6355474E3,7.646932E2,8.708541E2,7.3802234E2,2.6670834E1,6.7850433E2,1.923498E2,1.2319563E2,6.148267E2,1.8798986E1,7.871847E0,1.7021309E2,5.0829123E2,1.8134758E2,1.1002207E1],"tree_param":{"num_deleted":"0","num_feature":"39","num_nodes":"15","size_leaf_vector":"1"}},{"base_weights":[1.3819218E-2,-6.4364845E-1,4.150737E-2,-0E0,-8.101863E-1,-0E0,4.0780425E-1,-3.2595363E-2,-0E0,-7.541614E-3,2.8860108E-3,2.1260643E-2,-3.9486936E-3],"categories":[],"categories_nodes":[],"categories_segments":[],"categories_sizes":[],"default_left":[0,0,0,0,0,0,0,0,0,0,0,0,0],"id":56,"left_children":[1,3,5,-1,7,9,11,-1,-1,-1,-1,-1,-1],"loss_changes":[2.8515219E1,7.7105236E0,2.3882767E1,0E0,9.457726E0,3.429715E1,2.7564054E1,0E0,0E0,0E0,0E0,0E0,0E0],"parents":[2147483647,0,0,1,1,2,2,4,4,5,5,6,6],"right_children":[2,4,6,-1,8,10,12,-1,-1,-1,-1,-1,-1],"split_conditions":[-3.2519767E0,-1.935748E-2,1.3488032E-3,-0E0,1.958E1,1.0455643E0,4.756032E0,-3.2595363E-2,-0E0,-7.541614E-3,2.8860108E-3,2.1260643E-2,-3.9486936E-3],"split_indices":[14,37,37,0,29,33,17,0,0,0,0,0,0],"split_type":[0,0,0,0,0,0,0,0,0,0,0,0,0],"sum_hessian":[1.620237E3,5.806208E1,1.5621749E3,1.1514255E1,4.6547825E1,1.4073307E3,1.5484425E2,3.1673868E1,1.4873959E1,3.8765964E2,1.019671E3,1.00773285E2,5.407097E1],"tree_param":{"num_deleted":"0","num_feature":"39","num_nodes":"13","size_leaf_vector":"1"}},{"base_weights":[-3.0452758E-3,1.7449455E-2,-5.572999E-1,-5.1721625E-2,2.910917E-1,2.1786992E-2,-3.1476803E-2,4.7885627E-3,-5.3532044E-3,1.8935604E-2,2.2632405E-3,-1.7103588E-2,1.962536E-2],"categories":[],"categories_nodes":[],"categories_segments":[],"categories_sizes":[],"default_left":[0,0,0,0,0,0,0,0,0,0,0,0,0],"id":57,"left_children":[1,3,5,7,9,11,-1,-1,-1,-1,-1,-1,-1],"loss_changes":[1.9454046E1,3.0027397E1,1.9591383E1,3.342418E1,2.1874895E1,1.3682299E1,0E0,0E0,0E0,0E0,0E0,0E0,0E0],"parents":[2147483647,0,0,1,1,2,2,3,3,4,4,5,5],"right_children":[2,4,6,8,10,12,-1,-1,-1,-1,-1,-1,-1],"split_conditions":[1.3922267E2,5.834875E1,3.7265675E0,-1.0224103E1,-7.537234E-4,2.7474192E1,-3.1476803E-2,4.7885627E-3,-5.3532044E-3,1.8935604E-2,2.2632405E-3,-1.7103588E-2,1.962536E-2],"split_indices":[19,19,13,18,37,24,0,0,0,0,0,0,0],"split_type":[0,0,0,0,0,0,0,0,0,0,0,0,0],"sum_hessian":[1.6082792E3,1.5521205E3,5.6158783E1,1.2363444E3,3.1577606E2,2.612171E1,3.0037071E1,4.570305E2,7.7931384E2,1.15195786E2,2.0058028E2,1.211348E1,1.4008231E1],"tree_param":{"num_deleted":"0","num_feature":"39","num_nodes":"13","size_leaf_vector":"1"}},{"base_weights":[1.1807532E-3,-4.1413736E-2,2.527243E-1,1.2004341E-2,-2.529466E-1,7.219381E-1,-0E0,-1.1174796E-3,1.1715259E-2,-1.6636103E-2,-1.8071813E-4,2.5315287E-2,4.2202594E-3,1.2645344E-2,-1.0458327E-2],"categories":[],"categories_nodes":[],"categories_segments":[],"categories_sizes":[],"default_left":[0,0,0,0,0,0,0,0,0,0,0,0,0,0,0],"id":58,"left_children":[1,3,5,7,9,11,13,-1,-1,-1,-1,-1,-1,-1,-1],"loss_changes":[1.7665625E1,1.5973158E1,2.9359285E1,2.1112804E1,2.0004642E1,3.5116158E0,2.4024174E1,0E0,0E0,0E0,0E0,0E0,0E0,0E0,0E0],"parents":[2147483647,0,0,1,1,2,2,3,3,4,4,5,5,6,6],"right_children":[2,4,6,8,10,12,14,-1,-1,-1,-1,-1,-1,-1,-1],"split_conditions":[1.97E1,7.844995E0,2.0531914E-4,1.0731383E-3,8.1671154E-1,2.6502316E0,-1.2326824E-1,-1.1174796E-3,1.1715259E-2,-1.6636103E-2,-1.8071813E-4,2.5315287E-2,4.2202594E-3,1.2645344E-2,-1.0458327E-2],"split_indices":[29,17,37,37,28,13,13,0,0,0,0,0,0,0,0],"split_type":[0,0,0,0,0,0,0,0,0,0,0,0,0,0,0],"sum_hessian":[1.5994504E3,1.3646045E3,2.3484596E2,1.0856967E3,2.7890787E2,8.0722565E1,1.541234E2,9.599987E2,1.2569785E2,1.1910496E2,1.5980293E2,6.2016685E1,1.8705881E1,6.764263E1,8.648076E1],"tree_param":{"num_deleted":"0","num_feature":"39","num_nodes":"15","size_leaf_vector":"1"}},{"base_weights":[-1.995171E-2,1.50386E-1,-1.05159104E-1,-3.577598E-1,2.1169792E-1,-2.071167E-1,1.1089678E-1,-2.3912061E-2,-0E0,1.1653601E-2,1.1090554E-3,-9.388895E-3,6.3247923E-3,8.354976E-3,-6.374796E-3],"categories":[],"categories_nodes":[],"categories_segments":[],"categories_sizes":[],"default_left":[0,0,0,0,0,0,0,0,0,0,0,0,0,0,0],"id":59,"left_children":[1,3,5,7,9,11,13,-1,-1,-1,-1,-1,-1,-1,-1],"loss_changes":[2.3675343E1,1.6860344E1,2.4507755E1,1.0359563E1,1.412044E1,3.390765E1,1.935411E1,0E0,0E0,0E0,0E0,0E0,0E0,0E0,0E0],"parents":[2147483647,0,0,1,1,2,2,3,3,4,4,5,5,6,6],"right_children":[2,4,6,8,10,12,14,-1,-1,-1,-1,-1,-1,-1,-1],"split_conditions":[-1.0224103E1,1.6826385E1,5.4783485E1,-4.4605522E-3,-7.9374367E-1,1.8778794E0,1.8918666E0,-2.3912061E-2,-0E0,1.1653601E-2,1.1090554E-3,-9.388895E-3,6.3247923E-3,8.354976E-3,-6.374796E-3],"split_indices":[18,24,19,14,12,23,33,0,0,0,0,0,0,0,0],"split_type":[0,0,0,0,0,0,0,0,0,0,0,0,0,0,0],"sum_hessian":[1.6269877E3,5.333911E2,1.0935966E3,5.1313717E1,4.8207742E2,7.4941064E2,3.4418594E2,2.2651129E1,2.8662588E1,2.3091884E2,2.5115857E2,6.027915E2,1.4661913E2,2.3122708E2,1.12958855E2],"tree_param":{"num_deleted":"0","num_feature":"39","num_nodes":"15","size_leaf_vector":"1"}},{"base_weights":[-1.0384908E-3,-4.7606447E-1,2.8070213E-2,-8.2714736E-1,-1.0124649E-2,-6.4798266E-2,1.7499565E-1,-3.3093728E-2,1.1708889E-2,-1.5038155E-2,8.404558E-3,-6.2474213E-3,2.2854938E-3,1.6267546E-2,-3.7853172E-4],"categories":[],"categories_nodes":[],"categories_segments":[],"categories_sizes":[],"default_left":[0,0,0,0,0,0,0,0,0,0,0,0,0,0,0],"id":60,"left_children":[1,3,5,7,9,11,13,-1,-1,-1,-1,-1,-1,-1,-1],"loss_changes":[2.3495108E1,1.4369595E1,2.1238224E1,2.1577068E1,8.239394E0,1.928423E1,4.2754486E1,0E0,0E0,0E0,0E0,0E0,0E0,0E0,0E0],"parents":[2147483647,0,0,1,1,2,2,3,3,4,4,5,5,6,6],"right_children":[2,4,6,8,10,12,14,-1,-1,-1,-1,-1,-1,-1,-1],"split_conditions":[-2.5398657E0,5.5227516E1,1.664E1,2.692E1,2.8499813E1,4.462766E-4,2.0531914E-4,-3.3093728E-2,1.1708889E-2,-1.5038155E-2,8.404558E-3,-6.2474213E-3,2.2854938E-3,1.6267546E-2,-3.7853172E-4],"split_indices":[14,19,29,29,24,37,37,0,0,0,0,0,0,0,0],"split_type":[0,0,0,0,0,0,0,0,0,0,0,0,0,0,0],"sum_hessian":[1.624541E3,9.333519E1,1.5312059E3,4.8569695E1,4.476549E1,9.315654E2,5.9964044E2,4.13162E1,7.253495E0,1.783846E1,2.692703E1,4.6759073E2,4.6397473E2,2.0316023E2,3.964802E2],"tree_param":{"num_deleted":"0","num_feature":"39","num_nodes":"15","size_leaf_vector":"1"}},{"base_weights":[-1.9465559E-3,2.3445277E-2,-4.1629544E-1,-1.1600492E-1,1.230761E-1,4.156475E-2,-6.7763764E-1,1.9739714E-2,-4.7834967E-3,-1.2623396E-4,7.92365E-3,2.0565411E-2,-1.64232E-2,-3.4239113E-2,-0E0],"categories":[],"categories_nodes":[],"categories_segments":[],"categories_sizes":[],"default_left":[0,0,0,0,0,0,0,0,0,0,0,0,0,0,0],"id":61,"left_children":[1,3,5,7,9,11,13,-1,-1,-1,-1,-1,-1,-1,-1],"loss_changes":[1.7709198E1,2.1085146E1,1.3071028E1,2.0512707E1,1.6546366E1,1.631266E1,1.8909973E1,0E0,0E0,0E0,0E0,0E0,0E0,0E0,0E0],"parents":[2147483647,0,0,1,1,2,2,3,3,4,4,5,5,6,6],"right_children":[2,4,6,8,10,12,14,-1,-1,-1,-1,-1,-1,-1,-1],"split_conditions":[6.3496742E1,2.7899628E1,2.34291E0,3.714252E-2,1.615E1,1.461E1,8.739898E0,1.9739714E-2,-4.7834967E-3,-1.2623396E-4,7.92365E-3,2.0565411E-2,-1.64232E-2,-3.4239113E-2,-0E0],"split_indices":[24,24,17,16,29,29,12,0,0,0,0,0,0,0,0],"split_type":[0,0,0,0,0,0,0,0,0,0,0,0,0,0,0],"sum_hessian":[1.5988943E3,1.5064663E3,9.242796E1,6.1907306E2,8.8739325E2,3.2333336E1,6.0094624E1,2.66966E1,5.9237646E2,4.615485E2,4.258448E2,1.667698E1,1.5656357E1,3.2465004E1,2.762962E1],"tree_param":{"num_deleted":"0","num_feature":"39","num_nodes":"15","size_leaf_vector":"1"}},{"base_weights":[-1.3643026E-2,1.2858523E-1,-1.4475025E-1,-3.7095508E-1,1.8840317E-1,-2.1831322E-1,3.4979916E-1,-1.6931739E-2,9.985354E-3,8.3285326E-4,1.0894264E-2,9.300348E-3,-7.3733456E-3,-1.3636967E-2,1.3540157E-2],"categories":[],"categories_nodes":[],"categories_segments":[],"categories_sizes":[],"default_left":[0,0,0,0,0,0,0,0,0,0,0,0,0,0,0],"id":62,"left_children":[1,3,5,7,9,11,13,-1,-1,-1,-1,-1,-1,-1,-1],"loss_changes":[3.0325321E1,2.3057533E1,3.112921E1,1.2386628E1,1.8718018E1,1.1115227E1,9.903445E0,0E0,0E0,0E0,0E0,0E0,0E0,0E0,0E0],"parents":[2147483647,0,0,1,1,2,2,3,3,4,4,5,5,6,6],"right_children":[2,4,6,8,10,12,14,-1,-1,-1,-1,-1,-1,-1,-1],"split_conditions":[-6.918142E0,-2.5398657E0,2.8134072E0,2.171E1,1.656E1,3.714252E-2,-5.4617965E-1,-1.6931739E-2,9.985354E-3,8.3285326E-4,1.0894264E-2,9.300348E-3,-7.3733456E-3,-1.3636967E-2,1.3540157E-2],"split_indices":[18,14,23,29,29,16,14,0,0,0,0,0,0,0,0],"split_type":[0,0,0,0,0,0,0,0,0,0,0,0,0,0,0],"sum_hessian":[1.614546E3,7.671571E2,8.473889E2,7.568329E1,6.914738E2,7.43615E2,1.0377394E2,6.2372585E1,1.3310703E1,3.6925217E2,3.2222168E2,3.0606228E1,7.130088E2,7.4754257E0,9.6298515E1],"tree_param":{"num_deleted":"0","num_feature":"39","num_nodes":"15","size_leaf_vector":"1"}},{"base_weights":[-3.2166755E-3,-4.8185803E-2,2.6469097E-1,7.217495E-2,-2.0099948E-1,-2.3853035E-1,4.1371557E-1,-4.5502785E-4,1.39062805E-2,-4.176425E-3,-3.1754028E-2,-1.5520245E-2,1.0703463E-2,1.5204173E-2,-6.9221235E-3],"categories":[],"categories_nodes":[],"categories_segments":[],"categories_sizes":[],"default_left":[0,0,0,0,0,0,0,0,0,0,0,0,0,0,0],"id":63,"left_children":[1,3,5,7,9,11,13,-1,-1,-1,-1,-1,-1,-1,-1],"loss_changes":[1.8960869E1,2.5794884E1,1.7716057E1,2.7281694E1,2.9643366E1,9.793605E0,1.1844051E1,0E0,0E0,0E0,0E0,0E0,0E0,0E0,0E0],"parents":[2147483647,0,0,1,1,2,2,3,3,4,4,5,5,6,6],"right_children":[2,4,6,8,10,12,14,-1,-1,-1,-1,-1,-1,-1,-1],"split_conditions":[1.98E1,4.635555E0,1.0008699E0,1.6897384E0,1.3922267E2,3.7566315E1,5.896208E1,-4.5502785E-4,1.39062805E-2,-4.176425E-3,-3.1754028E-2,-1.5520245E-2,1.0703463E-2,1.5204173E-2,-6.9221235E-3],"split_indices":[29,17,32,33,19,19,24,0,0,0,0,0,0,0,0],"split_type":[0,0,0,0,0,0,0,0,0,0,0,0,0,0,0],"sum_hessian":[1.5994814E3,1.3794949E3,2.1998653E2,7.6584357E2,6.136513E2,4.6509872E1,1.7347665E2,6.258639E2,1.3997972E2,5.800031E2,3.364822E1,3.440905E1,1.2100822E1,1.5522588E2,1.825078E1],"tree_param":{"num_deleted":"0","num_feature":"39","num_nodes":"15","size_leaf_vector":"1"}},{"base_weights":[3.2243594E-3,-9.7234465E-2,1.5345396E-1,3.1494983E-2,-2.5236034E-1,-1.8831204E-1,3.3778426E-1,1.5783263E-2,-2.3530459E-3,-1.6099432E-2,-4.891049E-4,-9.590818E-3,1.3189634E-2,1.5308075E-2,-1.7516814E-3],"categories":[],"categories_nodes":[],"categories_segments":[],"categories_sizes":[],"default_left":[0,0,0,0,0,0,0,0,0,0,0,0,0,0,0],"id":64,"left_children":[1,3,5,7,9,11,13,-1,-1,-1,-1,-1,-1,-1,-1],"loss_changes":[2.4693533E1,1.9815426E1,4.223544E1,2.9729456E1,2.8825895E1,1.9511005E1,3.0761322E1,0E0,0E0,0E0,0E0,0E0,0E0,0E0,0E0],"parents":[2147483647,0,0,1,1,2,2,3,3,4,4,5,5,6,6],"right_children":[2,4,6,8,10,12,14,-1,-1,-1,-1,-1,-1,-1,-1],"split_conditions":[1.664E1,4.4185724E0,2.6055143E0,-4.5897406E-2,1.305851E-4,4.4706814E1,7.7726063E-4,1.5783263E-2,-2.3530459E-3,-1.6099432E-2,-4.891049E-4,-9.590818E-3,1.3189634E-2,1.5308075E-2,-1.7516814E-3],"split_indices":[29,17,17,37,37,19,37,0,0,0,0,0,0,0,0],"split_type":[0,0,0,0,0,0,0,0,0,0,0,0,0,0,0],"sum_hessian":[1.6188184E3,9.6318536E2,6.5563306E2,5.215091E2,4.4167627E2,2.2587715E2,4.2975592E2,9.4697075E1,4.2681198E2,1.9363673E2,2.4803955E2,1.9145975E2,3.4417404E1,3.019167E2,1.2783925E2],"tree_param":{"num_deleted":"0","num_feature":"39","num_nodes":"15","size_leaf_vector":"1"}},{"base_weights":[7.186406E-3,-8.019027E-2,1.4298305E-1,6.038175E-2,-2.4552518E-1,-5.8811677E-1,2.0073724E-1,-2.2866526E-3,9.974743E-3,1.559935E-2,-8.658357E-3,8.782527E-3,-2.9956358E-2,1.3508052E-2,1.0909049E-3],"categories":[],"categories_nodes":[],"categories_segments":[],"categories_sizes":[],"default_left":[0,0,0,0,0,0,0,0,0,0,0,0,0,0,0],"id":65,"left_children":[1,3,5,7,9,11,13,-1,-1,-1,-1,-1,-1,-1,-1],"loss_changes":[1.9358896E1,2.316569E1,2.6986704E1,2.0185808E1,1.5353142E1,1.9449295E1,2.3663399E1,0E0,0E0,0E0,0E0,0E0,0E0,0E0,0E0],"parents":[2147483647,0,0,1,1,2,2,3,3,4,4,5,5,6,6],"right_children":[2,4,6,8,10,12,14,-1,-1,-1,-1,-1,-1,-1,-1],"split_conditions":[1.664E1,4.174247E0,6.087814E-1,1.3334649E0,-4.0308735E1,-1.6486507E1,-1.0023098E1,-2.2866526E-3,9.974743E-3,1.559935E-2,-8.658357E-3,8.782527E-3,-2.9956358E-2,1.3508052E-2,1.0909049E-3],"split_indices":[29,17,17,33,18,18,18,0,0,0,0,0,0,0,0],"split_type":[0,0,0,0,0,0,0,0,0,0,0,0,0,0,0],"sum_hessian":[1.6111179E3,9.726182E2,6.384997E2,5.208529E2,4.5176535E2,4.08494E1,5.9765027E2,3.4427213E2,1.7658078E2,1.865053E1,4.331148E2,1.1890492E1,2.8958908E1,2.2905875E2,3.6859152E2],"tree_param":{"num_deleted":"0","num_feature":"39","num_nodes":"15","size_leaf_vector":"1"}},{"base_weights":[-1.475921E-2,1.2513174E-1,-1.4474106E-1,-2.8535025E-2,3.7126282E-1,-4.632523E-1,-3.1731397E-2,1.1854105E-2,-6.8729953E-3,-1.2953844E-2,1.3030981E-2,2.2304222E-2,-1.814567E-2,-6.221431E-3,5.264112E-3],"categories":[],"categories_nodes":[],"categories_segments":[],"categories_sizes":[],"default_left":[0,0,0,0,0,0,0,0,0,0,0,0,0,0,0],"id":66,"left_children":[1,3,5,7,9,11,13,-1,-1,-1,-1,-1,-1,-1,-1],"loss_changes":[2.951692E1,3.0000729E1,2.9441502E1,4.056368E1,1.628405E1,3.904148E1,2.3376183E1,0E0,0E0,0E0,0E0,0E0,0E0,0E0,0E0],"parents":[2147483647,0,0,1,1,2,2,3,3,4,4,5,5,6,6],"right_children":[2,4,6,8,10,12,14,-1,-1,-1,-1,-1,-1,-1,-1],"split_conditions":[-6.918142E0,5.9880316E-4,2.174561E1,-7.537234E-4,-3.1263895E1,-4.0870585E-2,5.9880316E-4,1.1854105E-2,-6.8729953E-3,-1.2953844E-2,1.3030981E-2,2.2304222E-2,-1.814567E-2,-6.221431E-3,5.264112E-3],"split_indices":[18,37,19,37,18,37,37,0,0,0,0,0,0,0,0],"split_type":[0,0,0,0,0,0,0,0,0,0,0,0,0,0,0],"sum_hessian":[1.6111627E3,7.686813E2,8.4248145E2,4.7094885E2,2.9773242E2,2.1194182E2,6.305396E2,1.4655165E2,3.243972E2,1.725363E1,2.804788E2,1.8543175E1,1.9339865E2,3.4647394E2,2.840657E2],"tree_param":{"num_deleted":"0","num_feature":"39","num_nodes":"15","size_leaf_vector":"1"}},{"base_weights":[-6.6754823E-3,-1.1707664E-1,1.5515555E-1,2.2768077E-2,-2.770965E-1,5.178435E-1,-2.1923969E-2,1.4088567E-2,-2.146526E-3,-1.4715157E-2,-2.8917848E-3,2.2922924E-2,4.2142277E-3,-1.1361125E-2,3.0170819E-3],"categories":[],"categories_nodes":[],"categories_segments":[],"categories_sizes":[],"default_left":[0,0,0,0,0,0,0,0,0,0,0,0,0,0,0],"id":67,"left_children":[1,3,5,7,9,11,13,-1,-1,-1,-1,-1,-1,-1,-1],"loss_changes":[2.9183226E1,2.2486473E1,4.3237007E1,2.2935007E1,1.6499306E1,1.8043789E1,2.0084368E1,0E0,0E0,0E0,0E0,0E0,0E0,0E0,0E0],"parents":[2147483647,0,0,1,1,2,2,3,3,4,4,5,5,6,6],"right_children":[2,4,6,8,10,12,14,-1,-1,-1,-1,-1,-1,-1,-1],"split_conditions":[1.664E1,4.3092155E0,2.0531914E-4,-4.5897406E-2,1.305851E-4,4.1171844E1,5.9880316E-4,1.4088567E-2,-2.146526E-3,-1.4715157E-2,-2.8917848E-3,2.2922924E-2,4.2142277E-3,-1.1361125E-2,3.0170819E-3],"split_indices":[29,17,37,37,37,19,37,0,0,0,0,0,0,0,0],"split_type":[0,0,0,0,0,0,0,0,0,0,0,0,0,0,0],"sum_hessian":[1.6275989E3,9.7571045E2,6.518885E2,5.162974E2,4.59413E2,2.1441139E2,4.3747708E2,9.021222E1,4.260852E2,2.0163947E2,2.5777356E2,1.234377E2,9.0973694E1,1.1331105E2,3.2416605E2],"tree_param":{"num_deleted":"0","num_feature":"39","num_nodes":"15","size_leaf_vector":"1"}},{"base_weights":[-1.6799692E-2,-5.391995E-2,2.8872904E-1,-2.974921E-1,4.103258E-2,8.942209E-1,-2.6416802E-1,2.0907316E-3,-1.6000152E-2,2.4177737E-3,-1.5553343E-2,-0E0,2.8674196E-2,-2.6318936E-2,6.9498704E-3],"categories":[],"categories_nodes":[],"categories_segments":[],"categories_sizes":[],"default_left":[0,0,0,0,0,0,0,0,0,0,0,0,0,0,0],"id":68,"left_children":[1,3,5,7,9,11,13,-1,-1,-1,-1,-1,-1,-1,-1],"loss_changes":[1.8018036E1,3.4281578E1,5.962146E1,3.7078793E1,2.2509363E1,3.090065E0,3.0097406E1,0E0,0E0,0E0,0E0,0E0,0E0,0E0,0E0],"parents":[2147483647,0,0,1,1,2,2,3,3,4,4,5,5,6,6],"right_children":[2,4,6,8,10,12,14,-1,-1,-1,-1,-1,-1,-1,-1],"split_conditions":[1.3488032E-3,1.0503415E0,4.1536705E1,-6.3202534E0,1.0731383E-3,-1.3427292E2,5.5206673E1,2.0907316E-3,-1.6000152E-2,2.4177737E-3,-1.5553343E-2,-0E0,2.8674196E-2,-2.6318936E-2,6.9498704E-3],"split_indices":[37,33,19,18,37,25,26,0,0,0,0,0,0,0,0],"split_type":[0,0,0,0,0,0,0,0,0,0,0,0,0,0,0],"sum_hessian":[1.6182535E3,1.4524513E3,1.6580215E2,4.1031348E2,1.0421378E3,7.939035E1,8.64118E1,1.5853572E2,2.5177774E2,9.8065186E2,6.1486042E1,7.1423025E0,7.224805E1,3.8719383E1,4.7692413E1],"tree_param":{"num_deleted":"0","num_feature":"39","num_nodes":"15","size_leaf_vector":"1"}},{"base_weights":[-1.2558423E-2,1.9594077E-2,-4.556591E-1,-8.572872E-3,4.3626285E-1,-1.7692829E-2,-6.409309E-1,-1.7189842E-2,4.5134829E-4,2.1261314E-2,-1.5375149E-2,1.6193703E-2,-1.6757092E-2,-2.7488412E-2,-3.972827E-3],"categories":[],"categories_nodes":[],"categories_segments":[],"categories_sizes":[],"default_left":[0,0,0,0,0,0,0,0,0,0,0,0,0,0,0],"id":69,"left_children":[1,3,5,7,9,11,13,-1,-1,-1,-1,-1,-1,-1,-1],"loss_changes":[2.3791862E1,1.8450226E1,7.798502E0,1.986384E1,2.7907434E1,1.4195776E1,7.949129E0,0E0,0E0,0E0,0E0,0E0,0E0,0E0,0E0],"parents":[2147483647,0,0,1,1,2,2,3,3,4,4,5,5,6,6],"right_children":[2,4,6,8,10,12,14,-1,-1,-1,-1,-1,-1,-1,-1],"split_conditions":[6.1623577E1,2.19E1,2.34291E0,-2.8888724E0,-6.386202E0,1.461E1,8.770096E0,-1.7189842E-2,4.5134829E-4,2.1261314E-2,-1.5375149E-2,1.6193703E-2,-1.6757092E-2,-2.7488412E-2,-3.972827E-3],"split_indices":[24,29,17,14,18,29,13,0,0,0,0,0,0,0,0],"split_type":[0,0,0,0,0,0,0,0,0,0,0,0,0,0,0],"sum_hessian":[1.6006307E3,1.4925898E3,1.08040825E2,1.3981703E3,9.441963E1,3.6954964E1,7.108586E1,5.4885487E1,1.3432848E3,7.597562E1,1.8444017E1,1.6382174E1,2.057279E1,4.096242E1,3.0123444E1],"tree_param":{"num_deleted":"0","num_feature":"39","num_nodes":"15","size_leaf_vector":"1"}},{"base_weights":[8.833005E-3,-4.228428E-2,1.7070518E-1,-2.2343978E-2,-3.0550722E-2,-0E0,5.052957E-1,-2.6573304E-3,8.729604E-3,1.2357051E-2,-6.1606932E-3,2.0225199E-2,-3.30652E-3],"categories":[],"categories_nodes":[],"categories_segments":[],"categories_sizes":[],"default_left":[0,0,0,0,0,0,0,0,0,0,0,0,0],"id":70,"left_children":[1,3,5,7,-1,9,11,-1,-1,-1,-1,-1,-1],"loss_changes":[1.3748654E1,2.1754501E1,2.2725365E1,2.4897432E1,0E0,2.3404932E1,1.5504555E1,0E0,0E0,0E0,0E0,0E0,0E0],"parents":[2147483647,0,0,1,1,2,2,3,3,5,5,6,6],"right_children":[2,4,6,8,-1,10,12,-1,-1,-1,-1,-1,-1],"split_conditions":[1.4845365E-1,1.3922267E2,1.794E1,5.834875E1,-3.0550722E-2,-7.537234E-4,1.0731383E-3,-2.6573304E-3,8.729604E-3,1.2357051E-2,-6.1606932E-3,2.0225199E-2,-3.30652E-3],"split_indices":[16,19,29,19,0,37,37,0,0,0,0,0,0],"split_type":[0,0,0,0,0,0,0,0,0,0,0,0,0],"sum_hessian":[1.621174E3,1.2255109E3,3.9566312E2,1.2079961E3,1.7514795E1,2.659291E2,1.2973402E2,1.0054316E3,2.0256448E2,8.730915E1,1.7861995E2,1.03978386E2,2.575563E1],"tree_param":{"num_deleted":"0","num_feature":"39","num_nodes":"13","size_leaf_vector":"1"}},{"base_weights":[-6.368538E-3,-1.0053483E-1,1.01146504E-1,1.2523974E-1,-3.187433E-1,3.8699433E-1,-5.206007E-2,9.838488E-3,-4.2481213E-3,2.8217878E-2,-1.1763852E-2,2.0773761E-2,-4.1945046E-3,-1.3619251E-2,6.2064053E-3],"categories":[],"categories_nodes":[],"categories_segments":[],"categories_sizes":[],"default_left":[0,0,0,0,0,0,0,0,0,0,0,0,0,0,0],"id":71,"left_children":[1,3,5,7,9,11,13,-1,-1,-1,-1,-1,-1,-1,-1],"loss_changes":[1.6332212E1,4.343725E1,3.3330704E1,2.3678589E1,4.217006E1,4.4166992E1,5.132437E1,0E0,0E0,0E0,0E0,0E0,0E0,0E0,0E0],"parents":[2147483647,0,0,1,1,2,2,3,3,4,4,5,5,6,6],"right_children":[2,4,6,8,10,12,14,-1,-1,-1,-1,-1,-1,-1,-1],"split_conditions":[5.9880316E-4,-7.537234E-4,-7.437233E0,2.8580687E0,-4.0308735E1,5.9166594E0,2.3174093E1,9.838488E-3,-4.2481213E-3,2.8217878E-2,-1.1763852E-2,2.0773761E-2,-4.1945046E-3,-1.3619251E-2,6.2064053E-3],"split_indices":[37,37,18,13,18,17,19,0,0,0,0,0,0,0,0],"split_type":[0,0,0,0,0,0,0,0,0,0,0,0,0,0,0],"sum_hessian":[1.6032698E3,8.6478265E2,7.3848706E2,4.2156506E2,4.432176E2,2.5958545E2,4.7890164E2,2.4318091E2,1.7838414E2,1.9651121E1,4.2356647E2,1.657195E2,9.386596E1,1.8919687E2,2.8970477E2],"tree_param":{"num_deleted":"0","num_feature":"39","num_nodes":"15","size_leaf_vector":"1"}},{"base_weights":[-1.29329255E-2,2.3779146E-1,-7.256579E-2,5.8352476E-1,3.4129888E-2,-5.6360576E-2,-2.815404E-2,1.9230217E-2,-0E0,-2.1701911E-3,2.4439644E-2,-3.0248344E-3,8.718776E-3],"categories":[],"categories_nodes":[],"categories_segments":[],"categories_sizes":[],"default_left":[0,0,0,0,0,0,0,0,0,0,0,0,0],"id":72,"left_children":[1,3,5,7,9,11,-1,-1,-1,-1,-1,-1,-1],"loss_changes":[2.4061907E1,2.0287807E1,1.6318604E1,4.5738754E0,1.8582506E1,1.9931107E1,0E0,0E0,0E0,0E0,0E0,0E0,0E0],"parents":[2147483647,0,0,1,1,2,2,3,3,4,4,5,5],"right_children":[2,4,6,8,10,12,-1,-1,-1,-1,-1,-1,-1],"split_conditions":[-7.285975E-1,4.8921432E0,2.0415432E1,-6.4494E0,2.484E1,2.8134072E0,-2.815404E-2,1.9230217E-2,-0E0,-2.1701911E-3,2.4439644E-2,-3.0248344E-3,8.718776E-3],"split_indices":[13,17,17,18,29,23,0,0,0,0,0,0,0],"split_type":[0,0,0,0,0,0,0,0,0,0,0,0,0],"sum_hessian":[1.6206713E3,3.0208566E2,1.3185856E3,1.0488618E2,1.9719948E2,1.3018568E3,1.6728851E1,9.719334E1,7.6928377E0,1.7526605E2,2.1933416E1,1.1622255E3,1.3963129E2],"tree_param":{"num_deleted":"0","num_feature":"39","num_nodes":"13","size_leaf_vector":"1"}},{"base_weights":[2.4316939E-2,4.8325785E-2,-3.1546882E-1,1.8714055E-2,3.8333237E-1,9.620599E-3,-4.7015053E-1,5.0429334E-3,-2.1267652E-3,-1.5697507E-2,1.5592362E-2,-2.4738282E-2,-1.7640146E-4],"categories":[],"categories_nodes":[],"categories_segments":[],"categories_sizes":[],"default_left":[0,0,0,0,0,0,0,0,0,0,0,0,0],"id":73,"left_children":[1,3,5,7,9,-1,11,-1,-1,-1,-1,-1,-1],"loss_changes":[1.25920315E1,1.4079461E1,1.0965701E1,1.8894354E1,1.5747782E1,0E0,1.2400211E1,0E0,0E0,0E0,0E0,0E0,0E0],"parents":[2147483647,0,0,1,1,2,2,3,3,4,4,6,6],"right_children":[2,4,6,8,10,-1,12,-1,-1,-1,-1,-1,-1],"split_conditions":[6.273193E1,2.73782E0,9.957637E-1,-9.322131E0,-1.6984688E1,9.620599E-3,3.868324E1,5.0429334E-3,-2.1267652E-3,-1.5697507E-2,1.5592362E-2,-2.4738282E-2,-1.7640146E-4],"split_indices":[24,23,17,18,18,0,19,0,0,0,0,0,0],"split_type":[0,0,0,0,0,0,0,0,0,0,0,0,0],"sum_hessian":[1.5946946E3,1.4989552E3,9.5739395E1,1.3875564E3,1.1139883E2,1.5147376E1,8.0592026E1,5.2697296E2,8.6058344E2,1.0797809E1,1.0060102E2,4.105728E1,3.953474E1],"tree_param":{"num_deleted":"0","num_feature":"39","num_nodes":"13","size_leaf_vector":"1"}},{"base_weights":[1.764269E-2,-7.351017E-2,1.300949E-1,-9.266411E-3,-5.637262E-1,4.007386E-1,-6.3311257E-3,-5.419247E-3,5.0415867E-3,-0E0,-2.0785436E-2,-1.5332092E-3,1.73066E-2,-3.2853433E-3,1.7054517E-2],"categories":[],"categories_nodes":[],"categories_segments":[],"categories_sizes":[],"default_left":[0,0,0,0,0,0,0,0,0,0,0,0,0,0,0],"id":74,"left_children":[1,3,5,7,9,11,13,-1,-1,-1,-1,-1,-1,-1,-1],"loss_changes":[1.6630802E1,2.6566994E1,2.7790806E1,2.4105448E1,7.4812317E0,2.109433E1,2.8217627E1,0E0,0E0,0E0,0E0,0E0,0E0,0E0,0E0],"parents":[2147483647,0,0,1,1,2,2,3,3,4,4,5,5,6,6],"right_children":[2,4,6,8,10,12,14,-1,-1,-1,-1,-1,-1,-1,-1],"split_conditions":[1.615E1,1.577E1,2.0531914E-4,4.462766E-4,-3.6096096E-1,-9.0261537E-1,6.2927883E1,-5.419247E-3,5.0415867E-3,-0E0,-2.0785436E-2,-1.5332092E-3,1.73066E-2,-3.2853433E-3,1.7054517E-2],"split_indices":[29,29,37,37,13,14,19,0,0,0,0,0,0,0,0],"split_type":[0,0,0,0,0,0,0,0,0,0,0,0,0,0,0],"sum_hessian":[1.6017579E3,8.7579315E2,7.259648E2,7.824287E2,9.3364456E1,2.4496767E2,4.8099713E2,4.0357138E2,3.7885733E2,1.7662146E1,7.570231E1,6.652262E1,1.7844505E2,4.141782E2,6.681892E1],"tree_param":{"num_deleted":"0","num_feature":"39","num_nodes":"15","size_leaf_vector":"1"}},{"base_weights":[4.6199183E-3,1.698441E-1,-5.3864986E-2,4.8067513E-1,-4.769074E-2,-3.2137606E-1,1.0174979E-1,-5.3566876E-3,2.3519462E-2,-1.1145224E-2,1.730211E-2,-1.0906963E-2,2.561358E-2,1.0206052E-2,-2.4195332E-3],"categories":[],"categories_nodes":[],"categories_segments":[],"categories_sizes":[],"default_left":[0,0,0,0,0,0,0,0,0,0,0,0,0,0,0],"id":75,"left_children":[1,3,5,7,9,11,13,-1,-1,-1,-1,-1,-1,-1,-1],"loss_changes":[1.5967641E1,3.0368828E1,5.0309975E1,3.8537426E1,5.2515327E1,2.26381E1,3.3450123E1,0E0,0E0,0E0,0E0,0E0,0E0,0E0,0E0],"parents":[2147483647,0,0,1,1,2,2,3,3,4,4,5,5,6,6],"right_children":[2,4,6,8,10,12,14,-1,-1,-1,-1,-1,-1,-1,-1],"split_conditions":[-7.537234E-4,4.174247E0,5.9880316E-4,1.1530366E0,-4.0870585E-2,5.2290244E0,7.7726063E-4,-5.3566876E-3,2.3519462E-2,-1.1145224E-2,1.730211E-2,-1.0906963E-2,2.561358E-2,1.0206052E-2,-2.4195332E-3],"split_indices":[37,17,37,33,37,33,37,0,0,0,0,0,0,0,0],"split_type":[0,0,0,0,0,0,0,0,0,0,0,0,0,0,0],"sum_hessian":[1.6186927E3,4.2963068E2,1.189062E3,1.7817947E2,2.5145122E2,4.400743E2,7.4898773E2,5.4716606E1,1.2346286E2,1.6902574E2,8.242548E1,4.2979916E2,1.0275163E1,3.274946E2,4.214931E2],"tree_param":{"num_deleted":"0","num_feature":"39","num_nodes":"15","size_leaf_vector":"1"}},{"base_weights":[-1.4863036E-2,-1.1859324E-1,1.0070949E-1,8.970184E-2,-3.218186E-1,3.305631E-1,-7.541056E-2,1.16930595E-2,-3.4088204E-3,-2.2981206E-2,-6.109594E-3,-0E0,1.983421E-2,2.3662956E-2,-6.067924E-3],"categories":[],"categories_nodes":[],"categories_segments":[],"categories_sizes":[],"default_left":[0,0,0,0,0,0,0,0,0,0,0,0,0,0,0],"id":76,"left_children":[1,3,5,7,9,11,13,-1,-1,-1,-1,-1,-1,-1,-1],"loss_changes":[1.9439127E1,3.7087124E1,3.1271032E1,2.6680561E1,2.0488842E1,3.7670925E1,4.6502132E1,0E0,0E0,0E0,0E0,0E0,0E0,0E0,0E0],"parents":[2147483647,0,0,1,1,2,2,3,3,4,4,5,5,6,6],"right_children":[2,4,6,8,10,12,14,-1,-1,-1,-1,-1,-1,-1,-1],"split_conditions":[5.9880316E-4,-7.537234E-4,7.7726063E-4,4.174247E0,1.305851E-4,1.3870515E0,1.3870515E0,1.16930595E-2,-3.4088204E-3,-2.2981206E-2,-6.109594E-3,-0E0,1.983421E-2,2.3662956E-2,-6.067924E-3],"split_indices":[37,37,37,17,37,17,17,0,0,0,0,0,0,0,0],"split_type":[0,0,0,0,0,0,0,0,0,0,0,0,0,0,0],"sum_hessian":[1.608535E3,8.5674884E2,7.517862E2,4.1961636E2,4.3713248E2,3.2916525E2,4.2262097E2,1.7161052E2,2.4800583E2,8.253138E1,3.546011E2,1.64445E2,1.6472023E2,4.873864E1,3.7388232E2],"tree_param":{"num_deleted":"0","num_feature":"39","num_nodes":"15","size_leaf_vector":"1"}},{"base_weights":[-0E0,2.6447209E-2,-4.164672E-1,-1.0143167E-2,3.0003208E-1,-5.861553E-1,-0E0,-2.9485035E-3,3.3129056E-3,1.477916E-2,-4.6405722E-3,-0E0,-2.6115011E-2,1.2365288E-2,-1.4399602E-2],"categories":[],"categories_nodes":[],"categories_segments":[],"categories_sizes":[],"default_left":[0,0,0,0,0,0,0,0,0,0,0,0,0,0,0],"id":77,"left_children":[1,3,5,7,9,11,13,-1,-1,-1,-1,-1,-1,-1,-1],"loss_changes":[1.8349556E1,1.5639E1,7.7859726E0,1.4099744E1,1.7162605E1,1.2060755E1,7.180295E0,0E0,0E0,0E0,0E0,0E0,0E0,0E0,0E0],"parents":[2147483647,0,0,1,1,2,2,3,3,4,4,5,5,6,6],"right_children":[2,4,6,8,10,12,14,-1,-1,-1,-1,-1,-1,-1,-1],"split_conditions":[6.3496742E1,2.009E1,8.770096E0,6.136968E-4,-6.519953E0,9.61454E-1,1.5353208E0,-2.9485035E-3,3.3129056E-3,1.477916E-2,-4.6405722E-3,-0E0,-2.6115011E-2,1.2365288E-2,-1.4399602E-2],"split_indices":[24,29,13,37,18,13,32,0,0,0,0,0,0,0,0],"split_type":[0,0,0,0,0,0,0,0,0,0,0,0,0,0,0],"sum_hessian":[1.5925459E3,1.4978115E3,9.473429E1,1.3189182E3,1.7889331E2,6.800926E1,2.6725027E1,7.720523E2,5.468659E2,1.2846167E2,5.0431644E1,2.3990314E1,4.401895E1,1.6169037E1,1.055599E1],"tree_param":{"num_deleted":"0","num_feature":"39","num_nodes":"15","size_leaf_vector":"1"}},{"base_weights":[-3.718256E-3,1.0283813E-1,-1.0256731E-1,-1.696697E-2,3.4526864E-1,-0E0,-3.5618454E-1,9.249507E-3,-4.5291455E-3,1.8035013E-2,-9.782948E-3,-1.2364916E-2,3.6889457E-3,2.2976309E-2,-1.967692E-2],"categories":[],"categories_nodes":[],"categories_segments":[],"categories_sizes":[],"default_left":[0,0,0,0,0,0,0,0,0,0,0,0,0,0,0],"id":78,"left_children":[1,3,5,7,9,11,13,-1,-1,-1,-1,-1,-1,-1,-1],"loss_changes":[1.6994585E1,2.2958168E1,2.1524258E1,2.2255844E1,4.609177E1,3.1666653E1,8.295801E1,0E0,0E0,0E0,0E0,0E0,0E0,0E0,0E0],"parents":[2147483647,0,0,1,1,2,2,3,3,4,4,5,5,6,6],"right_children":[2,4,6,8,10,12,14,-1,-1,-1,-1,-1,-1,-1,-1],"split_conditions":[-6.918142E0,6.136968E-4,7.7726063E-4,-1.935748E-2,8.272143E0,9.482899E-1,1.3870515E0,9.249507E-3,-4.5291455E-3,1.8035013E-2,-9.782948E-3,-1.2364916E-2,3.6889457E-3,2.2976309E-2,-1.967692E-2],"split_indices":[18,37,37,37,17,33,17,0,0,0,0,0,0,0,0],"split_type":[0,0,0,0,0,0,0,0,0,0,0,0,0,0,0],"sum_hessian":[1.6035057E3,7.6183514E2,8.416706E2,5.074581E2,2.5437703E2,6.0680383E2,2.3486676E2,1.418066E2,3.656515E2,1.8671172E2,6.766531E1,1.393561E2,4.6744775E2,4.6464302E1,1.8840247E2],"tree_param":{"num_deleted":"0","num_feature":"39","num_nodes":"15","size_leaf_vector":"1"}},{"base_weights":[-2.3131205E-2,-5.8028303E-2,3.6083484E-1,9.796115E-2,-1.5633766E-1,-1.3533005E-2,4.5886552E-1,-2.2786628E-3,1.30769815E-2,5.4971664E-3,-6.2230173E-3,-1.1873823E-2,1.6979966E-2],"categories":[],"categories_nodes":[],"categories_segments":[],"categories_sizes":[],"default_left":[0,0,0,0,0,0,0,0,0,0,0,0,0],"id":79,"left_children":[1,3,5,7,9,-1,11,-1,-1,-1,-1,-1,-1],"loss_changes":[2.0926643E1,2.281287E1,1.1330111E1,3.4117577E1,1.6107294E1,0E0,1.2440037E1,0E0,0E0,0E0,0E0,0E0,0E0],"parents":[2147483647,0,0,1,1,2,2,3,3,4,4,6,6],"right_children":[2,4,6,8,10,-1,12,-1,-1,-1,-1,-1,-1],"split_conditions":[2.8647163E0,-9.050438E0,-4.9790043E-1,5.9880316E-4,8.667705E-1,-1.3533005E-2,-1.6486507E1,-2.2786628E-3,1.30769815E-2,5.4971664E-3,-6.2230173E-3,-1.1873823E-2,