{"learner":{"attributes":{"scikit_learn":"{\"_estimator_type\": \"classifier\"}"},"feature_names":["avg_overall_sentiment","avg_ticker_sentiment","sentiment_std","sentiment_range","pct_negative","article_count","sentiment_rolling_3d","sentiment_rolling_5d","daily_return","intraday_range","gap_pct","rsi_14","macd","macd_signal","macd_histogram","bb_pct_b","bb_width","atr_14","distance_52w_high","distance_52w_low","volume_zscore","stoch_d","obv_slope","ema_cross","adx_14","cci_20","mfi_14","roc_10","vwap_distance","VIX_close","return_lag3","return_lag10","volatility_5d","volatility_10d","avg_return_5d","avg_return_10d","sentiment_momentum","sentiment_relative","sentiment_surprise"],"feature_types":["float","float","float","float","float","float","float","float","float","float","float","float","float","float","float","float","float","float","float","float","float","float","float","float","float","float","float","float","float","float","float","float","float","float","float","float","float","float","float"],"gradient_booster":{"model":{"cats":{"enc":[],"feature_segments":[],"sorted_idx":[]},"gbtree_model_param":{"num_parallel_tree":"1","num_trees":"473"},"iteration_indptr":[0,1,2,3,4,5,6,7,8,9,10,11,12,13,14,15,16,17,18,19,20,21,22,23,24,25,26,27,28,29,30,31,32,33,34,35,36,37,38,39,40,41,42,43,44,45,46,47,48,49,50,51,52,53,54,55,56,57,58,59,60,61,62,63,64,65,66,67,68,69,70,71,72,73,74,75,76,77,78,79,80,81,82,83,84,85,86,87,88,89,90,91,92,93,94,95,96,97,98,99,100,101,102,103,104,105,106,107,108,109,110,111,112,113,114,115,116,117,118,119,120,121,122,123,124,125,126,127,128,129,130,131,132,133,134,135,136,137,138,139,140,141,142,143,144,145,146,147,148,149,150,151,152,153,154,155,156,157,158,159,160,161,162,163,164,165,166,167,168,169,170,171,172,173,174,175,176,177,178,179,180,181,182,183,184,185,186,187,188,189,190,191,192,193,194,195,196,197,198,199,200,201,202,203,204,205,206,207,208,209,210,211,212,213,214,215,216,217,218,219,220,221,222,223,224,225,226,227,228,229,230,231,232,233,234,235,236,237,238,239,240,241,242,243,244,245,246,247,248,249,250,251,252,253,254,255,256,257,258,259,260,261,262,263,264,265,266,267,268,269,270,271,272,273,274,275,276,277,278,279,280,281,282,283,284,285,286,287,288,289,290,291,292,293,294,295,296,297,298,299,300,301,302,303,304,305,306,307,308,309,310,311,312,313,314,315,316,317,318,319,320,321,322,323,324,325,326,327,328,329,330,331,332,333,334,335,336,337,338,339,340,341,342,343,344,345,346,347,348,349,350,351,352,353,354,355,356,357,358,359,360,361,362,363,364,365,366,367,368,369,370,371,372,373,374,375,376,377,378,379,380,381,382,383,384,385,386,387,388,389,390,391,392,393,394,395,396,397,398,399,400,401,402,403,404,405,406,407,408,409,410,411,412,413,414,415,416,417,418,419,420,421,422,423,424,425,426,427,428,429,430,431,432,433,434,435,436,437,438,439,440,441,442,443,444,445,446,447,448,449,450,451,452,453,454,455,456,457,458,459,460,461,462,463,464,465,466,467,468,469,470,471,472,473],"tree_info":[0,0,0,0,0,0,0,0,0,0,0,0,0,0,0,0,0,0,0,0,0,0,0,0,0,0,0,0,0,0,0,0,0,0,0,0,0,0,0,0,0,0,0,0,0,0,0,0,0,0,0,0,0,0,0,0,0,0,0,0,0,0,0,0,0,0,0,0,0,0,0,0,0,0,0,0,0,0,0,0,0,0,0,0,0,0,0,0,0,0,0,0,0,0,0,0,0,0,0,0,0,0,0,0,0,0,0,0,0,0,0,0,0,0,0,0,0,0,0,0,0,0,0,0,0,0,0,0,0,0,0,0,0,0,0,0,0,0,0,0,0,0,0,0,0,0,0,0,0,0,0,0,0,0,0,0,0,0,0,0,0,0,0,0,0,0,0,0,0,0,0,0,0,0,0,0,0,0,0,0,0,0,0,0,0,0,0,0,0,0,0,0,0,0,0,0,0,0,0,0,0,0,0,0,0,0,0,0,0,0,0,0,0,0,0,0,0,0,0,0,0,0,0,0,0,0,0,0,0,0,0,0,0,0,0,0,0,0,0,0,0,0,0,0,0,0,0,0,0,0,0,0,0,0,0,0,0,0,0,0,0,0,0,0,0,0,0,0,0,0,0,0,0,0,0,0,0,0,0,0,0,0,0,0,0,0,0,0,0,0,0,0,0,0,0,0,0,0,0,0,0,0,0,0,0,0,0,0,0,0,0,0,0,0,0,0,0,0,0,0,0,0,0,0,0,0,0,0,0,0,0,0,0,0,0,0,0,0,0,0,0,0,0,0,0,0,0,0,0,0,0,0,0,0,0,0,0,0,0,0,0,0,0,0,0,0,0,0,0,0,0,0,0,0,0,0,0,0,0,0,0,0,0,0,0,0,0,0,0,0,0,0,0,0,0,0,0,0,0,0,0,0,0,0,0,0,0,0,0,0,0,0,0,0,0,0,0,0,0,0,0,0,0,0,0,0,0,0,0,0,0,0,0,0,0,0,0,0,0,0,0,0,0,0,0,0,0,0,0,0,0,0,0,0,0,0,0,0,0,0,0,0,0,0,0,0,0,0,0,0,0,0,0],"trees":[{"base_weights":[3.186121E-2,-3.0786567E-3,1.985786E-1,-1.4525767E-1,5.5785306E-2,2.5448477E-1,-4.7603023E-1,-1.9122295E-1,3.3289555E-1,7.761483E-2,-3.5302153E-1,1.821818E-1,6.006584E-1,-7.933334E-1,6.8283165E-1,-2.6619926E-1,1.7193148E-1,7.373819E-1,-1.9836813E-1,9.905548E-2,-4.0699032E-1,-1.616969E-2,-7.807994E-1,-7.959359E-1,2.1520649E-1,8.949125E-1,7.987745E-2,1.5716699E-1,-1.1618898E0,2.5731653E-1,-9.321179E-2,1.4083314E-1,-6.39289E-2,4.701623E-2,-3.942044E-1,8.635877E-2,2.350597E-1,-4.3436953E-1,6.792747E-3,3.8197094E-3,3.8100544E-2,-6.271728E-2,-4.084725E-1,2.4613509E-2,-4.3436953E-1,-3.327987E-1,-5.1690664E-2,-3.562703E-1,1.8287225E-2,-1.448266E-1,5.124056E-2,-0E0,2.1486646E-1,-4.6350665E-2,1.9002712E-1,-5.3308886E-1,-1.6062948E-1],"categories":[],"categories_nodes":[],"categories_segments":[],"categories_sizes":[],"default_left":[0,0,0,0,0,0,0,0,0,0,0,0,0,0,0,0,0,0,0,0,0,0,0,0,0,0,0,0,0,0,0,0,0,0,0,0,0,0,0,0,0,0,0,0,0,0,0,0,0,0,0,0,0,0,0,0,0],"id":0,"left_children":[1,3,5,7,9,11,13,15,17,19,21,23,25,27,29,31,33,35,37,39,41,43,45,47,49,51,53,-1,55,-1,-1,-1,-1,-1,-1,-1,-1,-1,-1,-1,-1,-1,-1,-1,-1,-1,-1,-1,-1,-1,-1,-1,-1,-1,-1,-1,-1],"loss_changes":[1.6031153E1,1.9039284E1,1.8079468E1,1.4692814E1,1.4346373E1,1.0851538E1,1.4046621E1,1.6627586E1,1.2793739E1,1.587732E1,1.1643069E1,1.1952636E1,1.140526E1,1.745691E1,5.5241385E0,1.605949E1,1.0564304E1,3.4847584E0,1.1292706E1,9.453466E0,1.0215038E1,1.28773365E1,1.4467201E1,9.644609E0,8.188217E0,4.813919E0,7.145675E0,0E0,1.0957397E1,0E0,0E0,0E0,0E0,0E0,0E0,0E0,0E0,0E0,0E0,0E0,0E0,0E0,0E0,0E0,0E0,0E0,0E0,0E0,0E0,0E0,0E0,0E0,0E0,0E0,0E0,0E0,0E0],"parents":[2147483647,0,0,1,1,2,2,3,3,4,4,5,5,6,6,7,7,8,8,9,9,10,10,11,11,12,12,13,13,14,14,15,15,16,16,17,17,18,18,19,19,20,20,21,21,22,22,23,23,24,24,25,25,26,26,28,28],"right_children":[2,4,6,8,10,12,14,16,18,20,22,24,26,28,30,32,34,36,38,40,42,44,46,48,50,52,54,-1,56,-1,-1,-1,-1,-1,-1,-1,-1,-1,-1,-1,-1,-1,-1,-1,-1,-1,-1,-1,-1,-1,-1,-1,-1,-1,-1,-1,-1],"split_conditions":[1.928E1,-4.9371606E-1,4.14085E0,2.084332E0,1.979463E2,1.5713925E0,2.3009853E0,1.5503988E0,-7.430553E-1,1.1952886E1,-1.186701E0,-3.527323E1,6.5571976E1,3.029296E1,3.2146416E1,-3.2066796E0,1.5977091E0,-2.8617122E0,1.3230268E0,5.5278224E-1,-3.7751088E-1,2.1933334E-1,7.7117795E-1,3.3030298E0,-4.0193305E0,3.3338783E1,2.7913523E0,1.5716699E-1,-1.0321258E1,2.5731653E-1,-9.321179E-2,1.4083314E-1,-6.39289E-2,4.701623E-2,-3.942044E-1,8.635877E-2,2.350597E-1,-4.3436953E-1,6.792747E-3,3.8197094E-3,3.8100544E-2,-6.271728E-2,-4.084725E-1,2.4613509E-2,-4.3436953E-1,-3.327987E-1,-5.1690664E-2,-3.562703E-1,1.8287225E-2,-1.448266E-1,5.124056E-2,-0E0,2.1486646E-1,-4.6350665E-2,1.9002712E-1,-5.3308886E-1,-1.6062948E-1],"split_indices":[29,8,32,20,25,31,10,30,10,13,18,18,25,26,24,31,20,8,9,8,18,1,30,9,8,26,9,0,13,0,0,0,0,0,0,0,0,0,0,0,0,0,0,0,0,0,0,0,0,0,0,0,0,0,0,0,0],"split_type":[0,0,0,0,0,0,0,0,0,0,0,0,0,0,0,0,0,0,0,0,0,0,0,0,0,0,0,0,0,0,0,0,0,0,0,0,0,0,0,0,0,0,0,0,0,0,0,0,0,0,0,0,0,0,0,0,0],"sum_hessian":[2.7476287E3,2.2718801E3,4.757485E2,6.652582E2,1.6066221E3,4.4005154E2,3.5696957E1,6.0765314E2,5.760501E1,1.5261816E3,8.044049E1,3.6552246E2,7.45291E1,2.8339224E1,7.3577332E0,5.0411642E2,1.03536736E2,3.2591324E1,2.5013685E1,1.4624783E3,6.3703278E1,4.5714428E1,3.4726067E1,1.108484E1,3.5443762E2,4.7039948E1,2.7489151E1,5.2508054E0,2.3088419E1,5.0169916E0,2.3407414E0,1.7039694E1,4.8707672E2,1.0201564E2,1.5210907E0,1.8343485E1,1.424784E1,1.955688E0,2.3057997E1,7.2655115E2,7.359272E2,6.0460316E1,3.2429655E0,4.375874E1,1.955688E0,1.3307371E1,2.1418695E1,5.165624E0,5.919216E0,8.944882E0,3.4549274E2,5.5011334E0,4.1538815E1,2.0566015E1,6.9231358E0,4.128675E0,1.8959743E1],"tree_param":{"num_deleted":"0","num_feature":"39","num_nodes":"57","size_leaf_vector":"1"}},{"base_weights":[3.0892132E-2,-7.6028826E-3,1.5204786E-1,1.2453129E-1,-5.743707E-2,1.6832635E-1,-1.2222654E0,-1.1969088E0,1.3777298E-1,-1.3185394E-1,8.1469215E-2,-2.6254767E-1,2.0825273E-1,-5.007349E-1,4.372214E-2,-4.434624E-2,-4.2985865E-1,6.791452E-1,1.1507926E-1,-4.941521E-1,-9.48963E-2,1.14601746E-1,-1.2308494E0,7.682487E-1,-5.4326564E-1,2.6978183E-1,-8.071006E-2,1.967308E-1,-1.639878E-1,8.696071E-3,6.5931685E-2,-1.8201718E-1,5.5762015E-2,1.7376868E-1,-2.3754902E-2,4.006488E-2,-7.05701E-2,9.0065666E-2,-3.1580973E-1,-1.3540567E-1,2.0575984E-1,9.537239E-2,-2.199508E-1,1.00446016E-1,3.3807207E-2,1.2305151E-2,-2.8699178E-1],"categories":[],"categories_nodes":[],"categories_segments":[],"categories_sizes":[],"default_left":[0,0,0,0,0,0,0,0,0,0,0,0,0,0,0,0,0,0,0,0,0,0,0,0,0,0,0,0,0,0,0,0,0,0,0,0,0,0,0,0,0,0,0,0,0,0,0],"id":1,"left_children":[1,3,5,7,9,11,13,15,17,19,21,23,25,-1,-1,-1,-1,27,29,31,33,35,37,39,41,43,45,-1,-1,-1,-1,-1,-1,-1,-1,-1,-1,-1,-1,-1,-1,-1,-1,-1,-1,-1,-1],"loss_changes":[1.2950338E1,1.3861359E1,1.50758E1,1.0142121E1,1.5828711E1,1.1446499E1,1.3401013E1,4.0220385E0,6.863682E0,1.3243059E1,2.3239048E1,1.6718988E1,1.0834555E1,0E0,0E0,0E0,0E0,8.736584E0,7.8921747E0,2.529133E1,1.3743624E1,1.7143776E1,6.2115707E0,4.0935206E0,2.2345238E1,1.1091232E1,1.8986097E1,0E0,0E0,0E0,0E0,0E0,0E0,0E0,0E0,0E0,0E0,0E0,0E0,0E0,0E0,0E0,0E0,0E0,0E0,0E0,0E0],"parents":[2147483647,0,0,1,1,2,2,3,3,4,4,5,5,6,6,7,7,8,8,9,9,10,10,11,11,12,12,17,17,18,18,19,19,20,20,21,21,22,22,23,23,24,24,25,25,26,26],"right_children":[2,4,6,8,10,12,14,16,18,20,22,24,26,-1,-1,-1,-1,28,30,32,34,36,38,40,42,44,46,-1,-1,-1,-1,-1,-1,-1,-1,-1,-1,-1,-1,-1,-1,-1,-1,-1,-1,-1,-1],"split_conditions":[1.837E1,1.384E1,2.1522532E0,-1.2042575E0,3.1280842E-1,-6.64E-3,8.9811534E-1,-1.1241509E0,-2.290302E0,1.423E1,1.149936E0,-5.687362E-2,9.72974E-1,-5.007349E-1,4.372214E-2,-4.434624E-2,-4.2985865E-1,9.2263544E-1,4.0049987E0,6.491558E1,1.855824E1,7.254262E1,1.0802819E-1,-1.0382476E0,1.4314463E0,4.2018974E1,1.6275E1,1.967308E-1,-1.639878E-1,8.696071E-3,6.5931685E-2,-1.8201718E-1,5.5762015E-2,1.7376868E-1,-2.3754902E-2,4.006488E-2,-7.05701E-2,9.0065666E-2,-3.1580973E-1,-1.3540567E-1,2.0575984E-1,9.537239E-2,-2.199508E-1,1.00446016E-1,3.3807207E-2,1.2305151E-2,-2.8699178E-1],"split_indices":[29,29,34,22,10,38,10,8,31,29,15,36,20,0,0,0,0,34,28,26,26,26,14,20,32,11,17,0,0,0,0,0,0,0,0,0,0,0,0,0,0,0,0,0,0,0,0],"split_type":[0,0,0,0,0,0,0,0,0,0,0,0,0,0,0,0,0,0,0,0,0,0,0,0,0,0,0,0,0,0,0,0,0,0,0,0,0,0,0,0,0,0,0,0,0,0,0],"sum_hessian":[2.7723784E3,2.103987E3,6.683915E2,5.752417E2,1.5287454E3,6.6150635E2,6.8851395E0,4.7453275E0,5.7049634E2,9.959509E2,5.3279443E2,5.541399E1,6.060924E2,3.5230644E0,3.362075E0,2.7770884E0,1.9682392E0,2.1611353E1,5.48885E2,9.079591E1,9.05155E2,5.2063855E2,1.2155857E1,1.1412891E1,4.40011E1,5.0003247E2,1.060599E2,1.886087E1,2.7504828E0,3.9846036E2,1.5042464E2,6.148533E1,2.9310585E1,1.5261586E1,8.8989343E2,4.4765775E2,7.29808E1,1.464239E0,1.0691618E1,1.0732646E0,1.0339627E1,1.4505838E1,2.949526E1,1.7603612E2,3.2399637E2,9.639662E1,9.663278E0],"tree_param":{"num_deleted":"0","num_feature":"39","num_nodes":"47","size_leaf_vector":"1"}},{"base_weights":[1.2131986E-2,-8.601261E-2,8.095616E-2,-1.4168517E-1,1.0638929E-1,1.0802984E-1,-1.7706166E-1,-8.6467755E-1,-1.2160141E-1,-6.0262974E-2,6.614014E-1,-8.02472E-1,1.1551398E-1,-1.2337918E-1,-1.6921712E0,4.2223856E-3,-1.7130408E0,-1.4825995E-1,3.36184E-1,-5.4412156E-1,8.705374E-2,-2.51628E-1,7.3249614E-1,1.0834751E-1,-1.2717475E0,1.07365504E-1,1.8954764E-1,-6.021414E-2,-9.776642E-1,-0E0,-4.749856E-1,1.5460412E-1,-2.7125782E-1,-4.644179E-1,2.517468E-2,-2.6950005E-2,-1.6968352E-1,-2.9564288E-1,1.1012508E-1,1.3540892E-1,-1.8158746E-1,-2.622081E-1,3.2224674E-2,8.863932E-2,-2.3979846E-1,2.0513074E-1,7.014147E-2,-3.6097756E-1,1.6232081E-1,-2.2063357E-1,2.3902783E-2,6.1449513E-2,-6.273438E-2,-4.258246E-1,-1.4573402E-2],"categories":[],"categories_nodes":[],"categories_segments":[],"categories_sizes":[],"default_left":[0,0,0,0,0,0,0,0,0,0,0,0,0,0,0,0,0,0,0,0,0,0,0,0,0,0,0,0,0,0,0,0,0,0,0,0,0,0,0,0,0,0,0,0,0,0,0,0,0,0,0,0,0,0,0],"id":2,"left_children":[1,3,5,7,9,11,13,15,17,19,21,23,25,27,29,31,33,35,37,39,41,43,45,-1,47,49,-1,51,53,-1,-1,-1,-1,-1,-1,-1,-1,-1,-1,-1,-1,-1,-1,-1,-1,-1,-1,-1,-1,-1,-1,-1,-1,-1,-1],"loss_changes":[1.868282E1,1.2225291E1,1.1373073E1,1.2642054E1,2.3770355E1,1.006064E1,1.2173802E1,1.7583994E1,1.0551549E1,1.4177608E1,4.0829163E0,8.122007E0,9.029041E0,7.949325E0,4.468441E0,1.2491341E1,1.0740299E1,1.12991295E1,1.545253E1,1.7452396E1,1.2962885E1,3.4162555E0,4.7028008E0,0E0,9.296943E0,8.058619E0,0E0,1.1618991E1,9.107418E0,0E0,0E0,0E0,0E0,0E0,0E0,0E0,0E0,0E0,0E0,0E0,0E0,0E0,0E0,0E0,0E0,0E0,0E0,0E0,0E0,0E0,0E0,0E0,0E0,0E0,0E0],"parents":[2147483647,0,0,1,1,2,2,3,3,4,4,5,5,6,6,7,7,8,8,9,9,10,10,11,11,12,12,13,13,14,14,15,15,16,16,17,17,18,18,19,19,20,20,21,21,22,22,24,24,25,25,27,27,28,28],"right_children":[2,4,6,8,10,12,14,16,18,20,22,24,26,28,30,32,34,36,38,40,42,44,46,-1,48,50,-1,52,54,-1,-1,-1,-1,-1,-1,-1,-1,-1,-1,-1,-1,-1,-1,-1,-1,-1,-1,-1,-1,-1,-1,-1,-1,-1,-1],"split_conditions":[-3.971966E-2,3.7594721E0,7.785029E0,-1.0192752E-1,1.834E1,-5.9739847E-2,4.220831E0,3.630206E1,5.9894E1,-3.0608305E-1,6.2030688E-2,2.2234861E1,2.8596133E-1,1.979435E-1,1.8568572E-1,-1.578012E1,5.035926E1,1.0944886E2,1.311E1,1.8340145E1,-2.0332205E0,7.164985E1,1.6617276E-1,1.0834751E-1,1.6275E1,2.748081E-2,1.8954764E-1,6.437812E1,4.4177563E1,-0E0,-4.749856E-1,1.5460412E-1,-2.7125782E-1,-4.644179E-1,2.517468E-2,-2.6950005E-2,-1.6968352E-1,-2.9564288E-1,1.1012508E-1,1.3540892E-1,-1.8158746E-1,-2.622081E-1,3.2224674E-2,8.863932E-2,-2.3979846E-1,2.0513074E-1,7.014147E-2,-3.6097756E-1,1.6232081E-1,-2.2063357E-1,2.3902783E-2,6.1449513E-2,-6.273438E-2,-4.258246E-1,-1.4573402E-2],"split_indices":[10,13,13,15,29,37,31,26,24,27,16,24,6,6,16,18,19,19,29,21,30,19,16,0,17,16,0,19,24,0,0,0,0,0,0,0,0,0,0,0,0,0,0,0,0,0,0,0,0,0,0,0,0,0,0],"split_type":[0,0,0,0,0,0,0,0,0,0,0,0,0,0,0,0,0,0,0,0,0,0,0,0,0,0,0,0,0,0,0,0,0,0,0,0,0,0,0,0,0,0,0,0,0,0,0,0,0,0,0,0,0,0,0],"sum_hessian":[2.7639348E3,1.1385862E3,1.6253486E3,8.8367365E2,2.5491257E2,1.4718744E3,1.534742E2,2.2612627E1,8.6106104E2,1.965932E2,5.8319366E1,1.102492E1,1.4608495E3,1.4933063E2,4.1435623E0,1.1604432E1,1.1008196E1,8.145229E2,4.65381E1,4.5414738E1,1.5117847E2,3.9280279E0,5.439134E1,2.8276043E0,8.197316E0,1.4468922E3,1.3957247E1,1.4015523E2,9.1754055E0,1.28322E0,2.8603423E0,7.74214E0,3.862292E0,8.661706E0,2.3464894E0,7.8941064E2,2.51123E1,3.7315037E0,4.28066E1,9.123938E0,3.62908E1,6.108806E0,1.4506966E2,2.4591196E0,1.4689083E0,3.3562584E1,2.0828754E1,6.964722E0,1.2325941E0,5.1325154E0,1.4417598E3,5.6063103E1,8.4092125E1,3.7046373E0,5.470768E0],"tree_param":{"num_deleted":"0","num_feature":"39","num_nodes":"55","size_leaf_vector":"1"}},{"base_weights":[1.3896205E-2,2.3872629E-1,-6.1956313E-3,2.8991997E-1,-1.2683089E0,3.403004E-1,-1.7744934E-2,-2.5503883E-1,3.1337553E-1,-4.741215E-1,9.318191E-2,6.416443E-1,-2.4036583E-1,-1.3307838E-1,1.4410556E-2,4.3238032E-1,-3.5624333E-2,-2.2374025E-1,7.1315175E-1,3.846169E-1,-8.1755245E-1,-1.7414293E-1,4.782631E-1,2.0507548E-2,-8.6360353E-1,7.0760645E-2,1.8998678E-1,2.3926929E-2,-3.2470018E-1,-0E0,1.9916676E-1,-1.9397038E-1,1.4777562E-1,4.047739E-2,-2.8560787E-1,1.3077419E-1,-4.2537574E-2,2.1203086E-1,2.5653316E-2,-8.16759E-3,2.3397312E-2,1.9296898E-1,-2.594015E-1],"categories":[],"categories_nodes":[],"categories_segments":[],"categories_sizes":[],"default_left":[0,0,0,0,0,0,0,0,0,0,0,0,0,0,0,0,0,0,0,0,0,0,0,0,0,0,0,0,0,0,0,0,0,0,0,0,0,0,0,0,0,0,0],"id":3,"left_children":[1,3,5,7,9,11,13,-1,15,-1,-1,17,19,21,23,25,27,-1,29,31,33,35,37,39,41,-1,-1,-1,-1,-1,-1,-1,-1,-1,-1,-1,-1,-1,-1,-1,-1,-1,-1],"loss_changes":[1.2361307E1,1.7587637E1,1.000837E1,7.890753E0,1.3397956E1,1.4307279E1,9.017797E0,0E0,9.00308E0,0E0,0E0,7.186735E0,1.05196E1,1.3360735E1,1.0097991E1,6.9908295E0,1.2536483E1,0E0,8.17201E0,6.2653112E0,8.304809E0,1.0106805E1,5.964376E0,9.931745E0,9.286376E0,0E0,0E0,0E0,0E0,0E0,0E0,0E0,0E0,0E0,0E0,0E0,0E0,0E0,0E0,0E0,0E0,0E0,0E0],"parents":[2147483647,0,0,1,1,2,2,3,3,4,4,5,5,6,6,8,8,11,11,12,12,13,13,14,14,15,15,16,16,18,18,19,19,20,20,21,21,22,22,23,23,24,24],"right_children":[2,4,6,8,10,12,14,-1,16,-1,-1,18,20,22,24,26,28,-1,30,32,34,36,38,40,42,-1,-1,-1,-1,-1,-1,-1,-1,-1,-1,-1,-1,-1,-1,-1,-1,-1,-1],"split_conditions":[-2.0826569E0,5.13492E-1,3.0843844E0,-1.4806855E0,5.102751E-1,3.075813E-1,-8.601189E-1,-2.5503883E-1,1.2978853E0,-4.741215E-1,9.318191E-2,-1.8724656E0,8.980351E-2,8.900913E1,2.2360382E2,6.9323957E-1,2.771E1,-2.2374025E-1,8.768796E-1,-1.6654022E0,-2.2307992E0,-1.0426716E1,1.4675985E-1,2.771548E-1,-1.1657046E0,7.0760645E-2,1.8998678E-1,2.3926929E-2,-3.2470018E-1,-0E0,1.9916676E-1,-1.9397038E-1,1.4777562E-1,4.047739E-2,-2.8560787E-1,1.3077419E-1,-4.2537574E-2,2.1203086E-1,2.5653316E-2,-8.16759E-3,2.3397312E-2,1.9296898E-1,-2.594015E-1],"split_indices":[31,3,19,20,22,31,8,0,8,0,0,31,16,21,19,8,29,0,19,8,8,28,16,10,20,0,0,0,0,0,0,0,0,0,0,0,0,0,0,0,0,0,0],"split_type":[0,0,0,0,0,0,0,0,0,0,0,0,0,0,0,0,0,0,0,0,0,0,0,0,0,0,0,0,0,0,0,0,0,0,0,0,0,0,0,0,0,0,0],"sum_hessian":[2.729993E3,2.2346689E2,2.5065261E3,2.1697043E2,6.496462E0,7.965437E1,2.4268716E3,2.5254204E0,2.14445E2,4.0029383E0,2.4935234E0,5.2484234E1,2.717014E1,5.2909955E2,1.8977722E3,1.5995119E2,5.4493824E1,1.5162928E0,5.096794E1,1.3121954E1,1.4048185E1,4.9661972E2,3.247982E1,1.8857678E3,1.2004366E1,1.3291998E2,2.7031202E1,5.0347607E1,4.1462145E0,1.2392245E1,3.8575695E1,2.0912948E0,1.1030659E1,4.95463E0,9.093555E0,1.4756822E1,4.8186288E2,1.2439221E1,2.00406E1,1.1365225E3,7.492453E2,1.6954286E0,1.0308937E1],"tree_param":{"num_deleted":"0","num_feature":"39","num_nodes":"43","size_leaf_vector":"1"}},{"base_weights":[3.4298033E-2,6.037016E-2,-1.6868447E-1,-8.2743E-1,6.574208E-2,-1.5956076E0,-1.038747E-1,9.675272E-2,-1.321693E0,3.7400704E-2,2.3743702E-1,-5.669285E-1,-5.567208E-1,4.318746E-2,-4.105014E-1,-5.2745314E-3,-3.3693352E-1,7.0619535E-1,2.7323008E-2,8.080561E-2,5.55374E-1,-1.380646E0,1.6028477E-1,-1.845312E-1,2.6796758E-1,3.8048796E-2,-6.8483734E-1,5.2220628E-2,2.2872216E-1,3.375609E-3,1.09508686E-1,-4.408323E-2,7.058473E-2,1.6922191E-1,5.756964E-2,5.1912073E-2,-3.9815688E-1,5.2720584E-2,-1.18385255E-1,1.5862264E-1,1.2460539E-2,-1.260519E-1,1.0320879E-1,-3.5709292E-1,-1.0329435E-1],"categories":[],"categories_nodes":[],"categories_segments":[],"categories_sizes":[],"default_left":[0,0,0,0,0,0,0,0,0,0,0,0,0,0,0,0,0,0,0,0,0,0,0,0,0,0,0,0,0,0,0,0,0,0,0,0,0,0,0,0,0,0,0,0,0],"id":4,"left_children":[1,3,5,7,9,11,13,-1,15,17,19,21,-1,23,25,-1,-1,27,29,31,33,35,-1,37,39,41,43,-1,-1,-1,-1,-1,-1,-1,-1,-1,-1,-1,-1,-1,-1,-1,-1,-1,-1],"loss_changes":[1.4491548E1,1.1557292E1,2.8473858E1,9.91313E0,1.1711906E1,1.2231827E1,1.3543132E1,0E0,3.4517899E0,1.3885559E1,1.6891726E1,9.680437E0,0E0,1.0441069E1,1.2061068E1,0E0,0E0,4.7909317E0,1.1358766E1,1.6672256E1,7.3330383E0,4.8581047E0,0E0,1.6391449E1,1.0133191E1,1.0885467E1,1.0973331E1,0E0,0E0,0E0,0E0,0E0,0E0,0E0,0E0,0E0,0E0,0E0,0E0,0E0,0E0,0E0,0E0,0E0,0E0],"parents":[2147483647,0,0,1,1,2,2,3,3,4,4,5,5,6,6,8,8,9,9,10,10,11,11,13,13,14,14,17,17,18,18,19,19,20,20,21,21,23,23,24,24,25,25,26,26],"right_children":[2,4,6,8,10,12,14,-1,16,18,20,22,-1,24,26,-1,-1,28,30,32,34,36,-1,38,40,42,44,-1,-1,-1,-1,-1,-1,-1,-1,-1,-1,-1,-1,-1,-1,-1,-1,-1,-1],"split_conditions":[9.578028E-1,-3.4E-2,-1.1842648E0,-2.17941E-1,2.009E1,1.1435177E-1,-2.0223672E0,9.675272E-2,6.589842E-2,-4.060334E0,7.3802745E-1,1.5662224E0,-5.567208E-1,-5.625796E-2,1.0078272E-1,-5.2745314E-3,-3.3693352E-1,3.691237E1,8.417194E1,2.5712765E1,5.2464733E1,1.5375918E1,1.6028477E-1,9.856595E-1,2.870527E-1,2.0259774E-1,1.3969255E2,5.2220628E-2,2.2872216E-1,3.375609E-3,1.09508686E-1,-4.408323E-2,7.058473E-2,1.6922191E-1,5.756964E-2,5.1912073E-2,-3.9815688E-1,5.2720584E-2,-1.18385255E-1,1.5862264E-1,1.2460539E-2,-1.260519E-1,1.0320879E-1,-3.5709292E-1,-1.0329435E-1],"split_indices":[34,1,20,38,29,8,18,0,16,31,31,14,0,20,10,0,0,24,26,19,26,24,0,14,20,31,25,0,0,0,0,0,0,0,0,0,0,0,0,0,0,0,0,0,0],"split_type":[0,0,0,0,0,0,0,0,0,0,0,0,0,0,0,0,0,0,0,0,0,0,0,0,0,0,0,0,0,0,0,0,0,0,0,0,0,0,0,0,0,0,0,0,0],"sum_hessian":[2.7374138E3,2.4268872E3,3.1052673E2,1.3564008E1,2.4133232E3,1.2397911E1,2.9812885E2,3.7412548E0,9.822753E0,2.0729458E3,3.4037723E2,6.990189E0,5.4077215E0,2.0185133E2,9.6277504E1,1.8883702E0,7.9343824E0,2.9599676E1,2.0433462E3,2.290866E2,1.1129064E2,4.3418856E0,2.6483035E0,1.0013821E2,1.0171313E2,3.672593E1,5.955157E1,1.3991681E1,1.5607995E1,1.9974984E3,4.584777E1,1.0652548E2,1.2256111E2,5.936584E1,5.1924797E1,1.0726526E0,3.2692332E0,4.6310516E1,5.382769E1,3.0122604E1,7.159052E1,1.5007151E1,2.171878E1,8.666917E0,5.0884655E1],"tree_param":{"num_deleted":"0","num_feature":"39","num_nodes":"45","size_leaf_vector":"1"}},{"base_weights":[2.2208069E-2,1.575691E-2,6.1112607E-1,2.3739751E-2,-6.547949E-1,2.3948406E-1,-2.2153674E-1,-1.0054371E0,2.7340483E-2,-1.1039214E0,3.1791636E-1,-3.3192822E-1,3.165137E-1,-1.5019995E0,1.7821486E-1,1.7591361E-2,3.7050837E-1,-5.980833E-1,-1.8764049E0,-3.4992686E-1,7.1049035E-1,-2.1387723E-1,1.6310886E-1,-4.2370662E-1,1.4494333E-1,5.5111083E-3,-1.381665E-1,-2.7860088E-2,1.2786154E-1,-5.0707567E-2,-4.043534E-1,-7.8225136E-2,-5.046464E-1,2.209626E-1,-1.477334E-1],"categories":[],"categories_nodes":[],"categories_segments":[],"categories_sizes":[],"default_left":[0,0,0,0,0,0,0,0,0,0,0,0,0,0,0,0,0,0,0,0,0,0,0,0,0,0,0,0,0,0,0,0,0,0,0],"id":5,"left_children":[1,3,5,7,9,-1,11,13,15,17,19,-1,21,23,-1,25,27,29,31,-1,33,-1,-1,-1,-1,-1,-1,-1,-1,-1,-1,-1,-1,-1,-1],"loss_changes":[1.0351884E1,1.4486923E1,1.2961073E1,9.877565E0,1.4336035E1,0E0,9.265837E0,9.819937E0,8.90789E0,7.254566E0,9.357302E0,0E0,6.293088E0,9.690651E0,0E0,1.43214035E1,8.602719E0,6.3018126E0,4.9456882E0,0E0,5.209029E0,0E0,0E0,0E0,0E0,0E0,0E0,0E0,0E0,0E0,0E0,0E0,0E0,0E0,0E0],"parents":[2147483647,0,0,1,1,2,2,3,3,4,4,6,6,7,7,8,8,9,9,10,10,12,12,13,13,15,15,16,16,17,17,18,18,20,20],"right_children":[2,4,6,8,10,-1,12,14,16,18,20,-1,22,24,-1,26,28,30,32,-1,34,-1,-1,-1,-1,-1,-1,-1,-1,-1,-1,-1,-1,-1,-1],"split_conditions":[3.382E1,2.786E1,1.2530922E0,-2.8485811E1,2.8441626E-1,2.3948406E-1,1.355944E-1,2.4486667E-2,2.379E1,4.055532E1,1.8435996E0,-3.3192822E-1,-7.911409E0,1.801796E0,1.7821486E-1,2.278E1,-8.1979537E-1,2.72E-3,2.0509335E1,-3.4992686E-1,5.4904034E1,-2.1387723E-1,1.6310886E-1,-4.2370662E-1,1.4494333E-1,5.5111083E-3,-1.381665E-1,-2.7860088E-2,1.2786154E-1,-5.0707567E-2,-4.043534E-1,-7.8225136E-2,-5.046464E-1,2.209626E-1,-1.477334E-1],"split_indices":[29,29,20,12,35,0,16,36,29,11,32,0,12,31,0,29,8,38,24,0,19,0,0,0,0,0,0,0,0,0,0,0,0,0,0],"split_type":[0,0,0,0,0,0,0,0,0,0,0,0,0,0,0,0,0,0,0,0,0,0,0,0,0,0,0,0,0,0,0,0,0,0,0],"sum_hessian":[2.742786E3,2.7142498E3,2.853603E1,2.6834177E3,3.0832052E1,1.7512188E1,1.1023842E1,8.288744E0,2.6751292E3,2.1070951E1,9.761101E0,2.6727748E0,8.351067E0,6.7170296E0,1.5717144E0,2.602536E3,7.259327E1,1.3883461E1,7.1874895E0,1.0545352E0,8.706566E0,1.7497723E0,6.6012945E0,5.6009903E0,1.1160392E0,2.5716782E3,3.0857676E1,2.281465E1,4.9778618E1,1.1859763E1,2.0236983E0,2.2489116E0,4.9385777E0,7.3319454E0,1.3746198E0],"tree_param":{"num_deleted":"0","num_feature":"39","num_nodes":"35","size_leaf_vector":"1"}},{"base_weights":[-8.333641E-3,-1.02562256E-1,4.8283335E-2,-3.341149E-1,-4.963013E-2,6.4998016E-2,-3.475896E-1,-1.5501523E-1,-8.5183114E-1,1.0247373E-1,-1.6010529E-1,-1.0319025E-1,1.0752324E-1,-6.868276E-1,1.7205046E-1,-2.3391943E-1,1.5352881E-1,-1.8846161E0,-4.8640043E-1,-3.2704225E-1,1.9730456E-1,-8.662108E-2,-5.7882285E-1,-3.4312376E-1,6.3086584E-2,2.5111598E-1,5.808265E-2,-9.837299E-1,4.6340427E-1,8.6715156E-1,-3.2293934E-1,-2.1226105E-1,-3.428171E-2,-5.0952715E-1,1.1914064E-1,6.786084E-2,-2.3139453E-1,-1.6401033E-1,3.4569923E-2,-3.4244218E-1,4.6527654E-2,1.6286303E-1,-2.5046354E-2,2.3892826E-1,-1.4692801E-1,-1.2162191E-1,-8.413595E-3,5.540043E-2,-3.9223135E-2,-1.9154243E-1,6.044726E-2,1.005417E-3,6.5056354E-2,-4.1440282E-2,-3.2938617E-1,1.7804964E-1,-1.1151659E-1,2.4707684E-1,-1.6776834E-1,-1.8522269E-1,7.689747E-2],"categories":[],"categories_nodes":[],"categories_segments":[],"categories_sizes":[],"default_left":[0,0,0,0,0,0,0,0,0,0,0,0,0,0,0,0,0,0,0,0,0,0,0,0,0,0,0,0,0,0,0,0,0,0,0,0,0,0,0,0,0,0,0,0,0,0,0,0,0,0,0,0,0,0,0,0,0,0,0,0,0],"id":6,"left_children":[1,3,5,7,9,11,13,15,17,19,21,23,25,27,29,31,-1,33,35,37,39,41,43,45,47,49,51,53,55,57,59,-1,-1,-1,-1,-1,-1,-1,-1,-1,-1,-1,-1,-1,-1,-1,-1,-1,-1,-1,-1,-1,-1,-1,-1,-1,-1,-1,-1,-1,-1],"loss_changes":[1.4384485E1,1.2351749E1,1.1131121E1,1.7182116E1,1.389249E1,1.1569441E1,1.2174428E1,9.857393E0,1.6927113E1,1.4206274E1,1.46192255E1,1.3062175E1,9.118414E0,1.4686823E1,9.8242855E0,6.965137E0,0E0,1.6531841E1,1.8198936E1,1.3849194E1,1.1103054E1,1.0801335E1,1.4153227E1,9.181451E0,9.46829E0,1.258964E1,1.2665321E1,1.4352005E1,3.8251262E0,6.6820917E0,6.628949E0,0E0,0E0,0E0,0E0,0E0,0E0,0E0,0E0,0E0,0E0,0E0,0E0,0E0,0E0,0E0,0E0,0E0,0E0,0E0,0E0,0E0,0E0,0E0,0E0,0E0,0E0,0E0,0E0,0E0,0E0],"parents":[2147483647,0,0,1,1,2,2,3,3,4,4,5,5,6,6,7,7,8,8,9,9,10,10,11,11,12,12,13,13,14,14,15,15,17,17,18,18,19,19,20,20,21,21,22,22,23,23,24,24,25,25,26,26,27,27,28,28,29,29,30,30],"right_children":[2,4,6,8,10,12,14,16,18,20,22,24,26,28,30,32,-1,34,36,38,40,42,44,46,48,50,52,54,56,58,60,-1,-1,-1,-1,-1,-1,-1,-1,-1,-1,-1,-1,-1,-1,-1,-1,-1,-1,-1,-1,-1,-1,-1,-1,-1,-1,-1,-1,-1,-1],"split_conditions":[1.0669937E0,2.531622E1,1.7951542E0,-1.507646E-1,6.350273E-1,-1.0151033E0,8.0532724E-1,2.729431E0,-1.4744227E0,-1.2978567E1,9.680998E-1,-1.0063856E0,-1.5533547E-1,1.3769015E1,1.4574876E0,-2.895122E0,1.5352881E-1,2.2696001E1,-1.8686811E0,5.1054398E1,2.1868353E-1,-1.5271248E-1,4.354911E1,3.2188195E-1,2.4267875E-1,0E0,2.4086912E0,-1.9819078E-1,9.521828E1,7.4E-3,1.635E1,-2.1226105E-1,-3.428171E-2,-5.0952715E-1,1.1914064E-1,6.786084E-2,-2.3139453E-1,-1.6401033E-1,3.4569923E-2,-3.4244218E-1,4.6527654E-2,1.6286303E-1,-2.5046354E-2,2.3892826E-1,-1.4692801E-1,-1.2162191E-1,-8.413595E-3,5.540043E-2,-3.9223135E-2,-1.9154243E-1,6.044726E-2,1.005417E-3,6.5056354E-2,-4.1440282E-2,-3.2938617E-1,1.7804964E-1,-1.1151659E-1,2.4707684E-1,-1.6776834E-1,-1.8522269E-1,7.689747E-2],"split_indices":[32,21,34,34,23,14,10,9,23,18,32,30,14,28,10,13,0,21,28,26,32,35,26,31,15,6,32,8,21,6,29,0,0,0,0,0,0,0,0,0,0,0,0,0,0,0,0,0,0,0,0,0,0,0,0,0,0,0,0,0,0],"split_type":[0,0,0,0,0,0,0,0,0,0,0,0,0,0,0,0,0,0,0,0,0,0,0,0,0,0,0,0,0,0,0,0,0,0,0,0,0,0,0,0,0,0,0,0,0,0,0,0,0,0,0,0,0,0,0,0,0,0,0,0,0],"sum_hessian":[2.6933333E3,1.0112489E3,1.6820845E3,1.8681622E2,8.244327E2,1.6149844E3,6.7100006E1,1.3990857E2,4.6907646E1,3.465141E2,4.779186E2,3.251662E2,1.2898182E3,4.0518753E1,2.6581259E1,1.2912262E2,1.0785959E1,1.1101513E1,3.5806133E1,6.203529E1,2.844788E2,4.077967E2,7.012191E1,1.329133E2,1.922529E2,3.2879138E2,9.6102686E2,3.238985E1,8.1289E0,1.0827148E1,1.575411E1,1.0051456E1,1.1907116E2,9.243965E0,1.8575472E0,1.5419408E1,2.0386726E1,3.2367027E1,2.9668262E1,2.3688774E0,2.8210992E2,1.3369668E1,3.9442703E2,3.6827314E0,6.643918E1,7.5237305E1,5.7676E1,1.0719008E2,8.506281E1,8.263668E0,3.205277E2,7.916582E2,1.6936865E2,1.41157465E1,1.8274105E1,6.0861487E0,2.0427506E0,9.504647E0,1.3225008E0,8.686381E0,7.0677295E0],"tree_param":{"num_deleted":"0","num_feature":"39","num_nodes":"61","size_leaf_vector":"1"}},{"base_weights":[9.729308E-3,-5.287747E-1,1.5712699E-2,-7.6761866E-1,2.1660766E-1,9.151788E-3,7.507065E-1,-1.0461031E0,5.724455E-1,1.71955E-2,-6.5411115E-1,2.3516534E-1,-2.540631E-1,-1.2109363E0,1.8885995E-1,-1.4209211E-1,2.2932754E-1,8.561706E-3,4.0759543E-1,-4.2988053E-1,-2.5913954E-1,-3.6578894E-1,1.2405693E-1,-3.796008E-2,-3.0595246E-1,-3.0294731E-2,7.5513935E-3,-3.5521626E-1,1.0174856E-1,9.238307E-2,-2.4635717E-1],"categories":[],"categories_nodes":[],"categories_segments":[],"categories_sizes":[],"default_left":[0,0,0,0,0,0,0,0,0,0,0,0,0,0,0,0,0,0,0,0,0,0,0,0,0,0,0,0,0,0,0],"id":7,"left_children":[1,3,5,7,-1,9,11,13,15,17,19,-1,21,23,-1,-1,-1,25,27,-1,29,-1,-1,-1,-1,-1,-1,-1,-1,-1,-1],"loss_changes":[8.781334E0,1.1809409E1,1.2984255E1,1.0557886E1,0E0,1.4282631E1,8.825251E0,8.244083E0,3.980595E0,8.906845E0,1.652914E1,0E0,9.606683E0,4.4988976E0,0E0,0E0,0E0,1.0535741E1,8.997483E0,0E0,1.6787897E1,0E0,0E0,0E0,0E0,0E0,0E0,0E0,0E0,0E0,0E0],"parents":[2147483647,0,0,1,1,2,2,3,3,5,5,6,6,7,7,8,8,9,9,10,10,12,12,13,13,17,17,18,18,20,20],"right_children":[2,4,6,8,-1,10,12,14,16,18,20,-1,22,24,-1,-1,-1,26,28,-1,30,-1,-1,-1,-1,-1,-1,-1,-1,-1,-1],"split_conditions":[-2.2381966E2,3.5603683E1,3.382E1,4.4684803E1,2.1660766E-1,2.786E1,4.383826E1,3.698669E1,6.946459E-2,2.466E1,2.1085863E0,2.3516534E-1,-1.5104246E1,6.113874E0,1.8885995E-1,-1.4209211E-1,2.2932754E-1,-9.796073E-1,1.6685093E1,-4.2988053E-1,4.14085E0,-3.6578894E-1,1.2405693E-1,-3.796008E-2,-3.0595246E-1,-3.0294731E-2,7.5513935E-3,-3.5521626E-1,1.0174856E-1,9.238307E-2,-2.4635717E-1],"split_indices":[25,11,29,19,0,29,11,21,16,29,32,0,18,21,0,0,0,14,26,0,32,0,0,0,0,0,0,0,0,0,0],"split_type":[0,0,0,0,0,0,0,0,0,0,0,0,0,0,0,0,0,0,0,0,0,0,0,0,0,0,0,0,0,0,0],"sum_hessian":[2.7377068E3,2.8940945E1,2.7087659E3,2.5559555E1,3.381389E0,2.6859385E3,2.2827478E1,2.140523E1,4.1543255E0,2.6548665E3,3.1072014E1,1.6888762E1,5.938717E0,2.0114967E1,1.2902628E0,1.05047E0,3.1038556E0,2.598674E3,5.619227E1,5.9970675E0,2.5074945E1,1.8205702E0,4.1181464E0,4.0048313E0,1.6110136E1,3.9207947E2,2.2065947E3,1.044733E0,5.5147533E1,1.4379205E1,1.0695742E1],"tree_param":{"num_deleted":"0","num_feature":"39","num_nodes":"31","size_leaf_vector":"1"}},{"base_weights":[2.4487665E-2,1.55745465E-2,4.560479E-1,3.0868365E-3,2.443559E-1,-3.2358694E-1,6.41881E-1,-8.731881E-3,3.300124E-1,5.711112E-1,-7.2810926E-2,-1.2001593E0,1.0787605E-1,7.352382E-1,-3.279189E-1,1.0540314E-3,-4.111323E-1,9.649719E-1,1.23655766E-1,-3.1509113E-2,7.312644E-1,-9.1041535E-1,9.837254E-2,-3.8560778E-1,4.138427E-2,1.8810731E-1,-5.339378E-1,1.7158574E-1,-1.5663241E-1,1.8015116E-1,-2.7690855E-1,-9.36324E-3,1.9440332E-2,2.0803224E-1,-1.1466684E-1,2.3618186E-1,-8.097279E-2,1.4870134E-1,-1.0444584E-2,5.2425556E-2,-3.6976913E-1,6.313098E-2,2.0479241E-1,-2.6207536E-1,1.1809371E-1,-3.365973E-2,1.3010018E-1,-2.8082547E-1,7.502673E-2],"categories":[],"categories_nodes":[],"categories_segments":[],"categories_sizes":[],"default_left":[0,0,0,0,0,0,0,0,0,0,0,0,0,0,0,0,0,0,0,0,0,0,0,0,0,0,0,0,0,0,0,0,0,0,0,0,0,0,0,0,0,0,0,0,0,0,0,0,0],"id":8,"left_children":[1,3,5,7,9,11,13,15,17,19,21,23,25,27,29,31,33,35,37,39,41,43,45,-1,-1,-1,47,-1,-1,-1,-1,-1,-1,-1,-1,-1,-1,-1,-1,-1,-1,-1,-1,-1,-1,-1,-1,-1,-1],"loss_changes":[1.0431324E1,7.6085005E0,8.193343E0,9.830621E0,1.43802395E1,4.44745E0,4.335249E0,9.679053E0,1.1403649E1,6.6731186E0,1.0307406E1,3.7719646E0,4.635562E0,4.86483E0,6.312292E0,9.714472E0,1.0783347E1,4.6565723E0,6.8714905E0,7.742285E0,4.998823E0,6.465063E0,7.9595976E0,0E0,0E0,0E0,4.101408E0,0E0,0E0,0E0,0E0,0E0,0E0,0E0,0E0,0E0,0E0,0E0,0E0,0E0,0E0,0E0,0E0,0E0,0E0,0E0,0E0,0E0,0E0],"parents":[2147483647,0,0,1,1,2,2,3,3,4,4,5,5,6,6,7,7,8,8,9,9,10,10,11,11,12,12,13,13,14,14,15,15,16,16,17,17,18,18,19,19,20,20,21,21,22,22,26,26],"right_children":[2,4,6,8,10,12,14,16,18,20,22,24,26,28,30,32,34,36,38,40,42,44,46,-1,-1,-1,48,-1,-1,-1,-1,-1,-1,-1,-1,-1,-1,-1,-1,-1,-1,-1,-1,-1,-1,-1,-1,-1,-1],"split_conditions":[2.3175341E-1,6.423428E1,9.274813E-1,1.2972479E1,3.3812106E0,2.513199E-2,2.577831E-1,4.436702E0,1.4469648E1,-1.0309249E-1,9.397876E-1,2.1689428E-2,2.3381555E-1,1.7044239E1,4.112853E0,2.9106182E-1,2.813836E1,3.7579546E0,-5.764442E-1,1.542495E-1,1.38E1,2.429354E0,9.848208E-1,-3.8560778E-1,4.138427E-2,1.8810731E-1,1.664E1,1.7158574E-1,-1.5663241E-1,1.8015116E-1,-2.7690855E-1,-9.36324E-3,1.9440332E-2,2.0803224E-1,-1.1466684E-1,2.3618186E-1,-8.097279E-2,1.4870134E-1,-1.0444584E-2,5.2425556E-2,-3.6976913E-1,6.313098E-2,2.0479241E-1,-2.6207536E-1,1.1809371E-1,-3.365973E-2,1.3010018E-1,-2.8082547E-1,7.502673E-2],"split_indices":[37,24,32,13,17,2,2,32,13,22,32,10,6,27,17,10,26,9,10,14,29,9,31,0,0,0,29,0,0,0,0,0,0,0,0,0,0,0,0,0,0,0,0,0,0,0,0,0,0],"split_type":[0,0,0,0,0,0,0,0,0,0,0,0,0,0,0,0,0,0,0,0,0,0,0,0,0,0,0,0,0,0,0,0,0,0,0,0,0,0,0,0,0,0,0,0,0,0,0,0,0],"sum_hessian":[2.7249739E3,2.6710754E3,5.3898563E1,2.5342002E3,1.3687518E2,1.012813E1,4.3770435E1,2.4464268E3,8.77736E1,6.717943E1,6.9695755E1,2.8295996E0,7.29853E0,4.0241585E1,3.5288508E0,2.389076E3,5.7350693E1,2.0508402E1,6.726519E1,1.4142654E1,5.3036774E1,1.1193164E1,5.8502586E1,1.8106965E0,1.0189031E0,3.205894E0,4.092636E0,3.890142E1,1.3401653E0,1.6109512E0,1.9178996E0,1.5934348E3,7.956411E2,4.188789E0,5.3161903E1,1.8752773E1,1.7556288E0,1.4977544E1,5.2287647E1,1.2846992E1,1.295663E0,1.9299688E1,3.3737087E1,9.37383E0,1.8193341E0,3.932317E1,1.9179417E1,1.9719915E0,2.1206443E0],"tree_param":{"num_deleted":"0","num_feature":"39","num_nodes":"49","size_leaf_vector":"1"}},{"base_weights":[2.647341E-2,1.33078E-1,-1.731132E-2,1.0620211E-1,6.8885165E-1,-3.64162E-2,2.3747225E-1,1.5512097E-1,-2.1669716E-1,-7.8410316E-1,8.351759E-1,-7.01423E-3,-2.1571289E-1,5.152777E-1,-4.4028085E-2,4.850667E-2,3.3570358E-1,-8.975423E-1,-6.536452E-2,1.6116202E-1,-4.0213743E-1,-8.4023155E-2,1.0283489E0,-6.9066477E-1,2.4795667E-3,-1.556932E-1,-1.1459632E0,1.7209722E-1,8.627447E-1,-1.4148706E0,1.2552978E-1,-1.3760448E-1,1.7024893E-2,3.8526777E-2,1.2559831E-1,7.1528996E-3,-3.231493E-1,-1.0634932E-1,4.363523E-2,-2.1247734E-1,2.1567997E-1,2.394126E-1,-1.4608128E-1,-2.1122405E-1,1.3856219E-1,-8.655729E-2,3.384267E-3,-2.819983E-1,-2.5518028E-2,-3.666094E-1,-6.316998E-2,-8.965216E-2,1.21432535E-1,1.4488513E-2,2.2925071E-1,9.86644E-2,-4.1169176E-1,9.595104E-2,-6.378598E-2],"categories":[],"categories_nodes":[],"categories_segments":[],"categories_sizes":[],"default_left":[0,0,0,0,0,0,0,0,0,0,0,0,0,0,0,0,0,0,0,0,0,0,0,0,0,0,0,0,0,0,0,0,0,0,0,0,0,0,0,0,0,0,0,0,0,0,0,0,0,0,0,0,0,0,0,0,0,0,0],"id":9,"left_children":[1,3,5,7,9,11,13,15,17,19,21,23,25,27,29,31,33,35,37,-1,-1,39,41,43,45,47,49,51,53,55,57,-1,-1,-1,-1,-1,-1,-1,-1,-1,-1,-1,-1,-1,-1,-1,-1,-1,-1,-1,-1,-1,-1,-1,-1,-1,-1,-1,-1],"loss_changes":[1.2739265E1,1.1715004E1,9.3965225E0,1.202007E1,8.482578E0,9.460937E0,1.0594821E1,1.2655692E1,1.0152254E1,7.8918676E0,6.14011E0,1.0112699E1,1.3815061E1,7.8560886E0,1.6017292E1,9.087517E0,9.432344E0,1.0579827E1,9.869286E0,0E0,0E0,7.6831675E0,5.389122E0,9.293963E0,8.338246E0,9.713202E0,6.652376E0,8.657799E0,5.4795475E0,8.422088E0,8.574762E0,0E0,0E0,0E0,0E0,0E0,0E0,0E0,0E0,0E0,0E0,0E0,0E0,0E0,0E0,0E0,0E0,0E0,0E0,0E0,0E0,0E0,0E0,0E0,0E0,0E0,0E0,0E0,0E0],"parents":[2147483647,0,0,1,1,2,2,3,3,4,4,5,5,6,6,7,7,8,8,9,9,10,10,11,11,12,12,13,13,14,14,15,15,16,16,17,17,18,18,21,21,22,22,23,23,24,24,25,25,26,26,27,27,28,28,29,29,30,30],"right_children":[2,4,6,8,10,12,14,16,18,20,22,24,26,28,30,32,34,36,38,-1,-1,40,42,44,46,48,50,52,54,56,58,-1,-1,-1,-1,-1,-1,-1,-1,-1,-1,-1,-1,-1,-1,-1,-1,-1,-1,-1,-1,-1,-1,-1,-1,-1,-1,-1,-1],"split_conditions":[1.4115771E0,1.7638351E2,4.697735E0,8.7436897E-1,-8.641173E-1,7.25262E1,-8.490128E-1,9.4298124E-2,1.311E1,2.7810142E0,9.0810025E-1,-2.2381966E2,3.5737243E0,-2.6668108E-1,1.6881395E1,2.0283692E-2,1.654E1,3.199737E-1,2.7551234E-1,1.6116202E-1,-4.0213743E-1,3.4769234E1,2.064E1,-3.6679583E0,1.2584519E1,2.5634766E0,9.435685E-1,3.278044E0,5.124625E0,-3.527323E1,1.587E1,-1.3760448E-1,1.7024893E-2,3.8526777E-2,1.2559831E-1,7.1528996E-3,-3.231493E-1,-1.0634932E-1,4.363523E-2,-2.1247734E-1,2.1567997E-1,2.394126E-1,-1.4608128E-1,-2.1122405E-1,1.3856219E-1,-8.655729E-2,3.384267E-3,-2.819983E-1,-2.5518028E-2,-3.666094E-1,-6.316998E-2,-8.965216E-2,1.21432535E-1,1.4488513E-2,2.2925071E-1,9.86644E-2,-4.1169176E-1,9.595104E-2,-6.378598E-2],"split_indices":[9,25,9,15,20,11,28,16,29,28,9,25,9,10,25,15,29,8,30,0,0,24,29,28,24,28,10,33,9,18,29,0,0,0,0,0,0,0,0,0,0,0,0,0,0,0,0,0,0,0,0,0,0,0,0,0,0,0,0],"split_type":[0,0,0,0,0,0,0,0,0,0,0,0,0,0,0,0,0,0,0,0,0,0,0,0,0,0,0,0,0,0,0,0,0,0,0,0,0,0,0,0,0,0,0,0,0,0,0,0,0,0,0,0,0,0,0,0,0,0,0],"sum_hessian":[2.7252922E3,7.9351984E2,1.9317725E3,7.582249E2,3.5294918E1,1.7981855E3,1.3358691E2,6.59188E2,9.903692E1,2.7337623E0,3.2561157E1,1.5462247E3,2.5196083E2,6.699552E1,6.6591385E1,4.1562762E2,2.4356033E2,1.6993135E1,8.2043785E1,1.2345709E0,1.4991915E0,5.662752E0,2.6898403E1,2.0339735E1,1.525885E3,2.3788722E2,1.4073602E1,3.4602745E1,3.2392776E1,6.586457E0,6.000493E1,1.700565E1,3.9862198E2,1.5262093E2,9.093941E1,7.103045E0,9.89009E0,3.1301718E1,5.0742065E1,3.1882854E0,2.4744666E0,2.5858107E1,1.0402976E0,1.6885395E1,3.45434E0,4.7287464E1,1.4785975E3,5.9377065E0,2.3194952E2,7.7089825E0,6.3646193E0,1.3773145E1,2.0829601E1,7.2391496E0,2.5153627E1,1.4049132E0,5.181544E0,3.410448E1,2.5900448E1],"tree_param":{"num_deleted":"0","num_feature":"39","num_nodes":"59","size_leaf_vector":"1"}},{"base_weights":[1.2686906E-2,1.4911446E-2,-1.3853369E0,-3.1567472E-1,2.367326E-2,-4.2759973E-1,4.8042208E-2,-4.504587E-1,-2.1724556E-1,-2.5380556E-2,8.436395E-2,-4.3309617E-1,-1.2988262E-1,-6.5459358E-3,-8.298996E-1,3.6577946E-1,1.8908689E-2,-1.4922714E-1,2.7305866E-2,-6.5320767E-3,7.429886E-2,-3.0822438E-1,-1.1109006E-2,8.5103944E-2,-1.6683301E-1,-4.840722E-2,2.0258568E-2],"categories":[],"categories_nodes":[],"categories_segments":[],"categories_sizes":[],"default_left":[0,0,0,0,0,0,0,0,0,0,0,0,0,0,0,0,0,0,0,0,0,0,0,0,0,0,0],"id":10,"left_children":[1,3,5,7,9,-1,-1,-1,11,13,15,-1,17,19,21,23,25,-1,-1,-1,-1,-1,-1,-1,-1,-1,-1],"loss_changes":[8.26666E0,7.7766895E0,4.8620796E0,1.1577829E1,7.8200855E0,0E0,0E0,0E0,1.0127859E1,2.1897614E1,2.1580574E1,0E0,9.708316E0,1.2141756E1,1.5644632E1,8.857697E0,1.7901302E1,0E0,0E0,0E0,0E0,0E0,0E0,0E0,0E0,0E0,0E0],"parents":[2147483647,0,0,1,1,2,2,3,3,4,4,8,8,9,9,10,10,12,12,13,13,14,14,15,15,16,16],"right_children":[2,4,6,8,10,-1,-1,-1,12,14,16,-1,18,20,22,24,26,-1,-1,-1,-1,-1,-1,-1,-1,-1,-1],"split_conditions":[1.234367E0,-1.3425021E0,-3.1128225E-1,4.161976E-2,1.654E1,-4.2759973E-1,4.8042208E-2,-4.504587E-1,-2.5521808E0,1.643E1,1.712E1,-4.3309617E-1,1.9238945E1,2.3180886E-1,1.65E1,2.1050293E0,2.1540654E0,-1.4922714E-1,2.7305866E-2,-6.5320767E-3,7.429886E-2,-3.0822438E-1,-1.1109006E-2,8.5103944E-2,-1.6683301E-1,-4.840722E-2,2.0258568E-2],"split_indices":[3,20,14,16,29,0,0,0,14,29,29,0,19,16,29,10,17,0,0,0,0,0,0,0,0,0,0],"split_type":[0,0,0,0,0,0,0,0,0,0,0,0,0,0,0,0,0,0,0,0,0,0,0,0,0,0,0],"sum_hessian":[2.6945483E3,2.6913267E3,3.2215838E0,6.8289764E1,2.6230369E3,2.191156E0,1.0304278E0,2.4269292E0,6.586283E1,1.4499973E3,1.1730397E3,1.9480691E0,6.3914764E1,1.4179344E3,3.206287E1,2.2020102E2,9.528386E2,1.9489235E1,4.4425526E1,1.3289265E3,8.90079E1,1.732545E1,1.473742E1,2.1463237E2,5.5686474E0,2.2445041E2,7.2838824E2],"tree_param":{"num_deleted":"0","num_feature":"39","num_nodes":"27","size_leaf_vector":"1"}},{"base_weights":[-9.7376965E-3,-1.6359694E-2,6.091955E-1,-1.2873882E-2,-8.3846945E-1,1.023908E0,1.3917944E-1,-2.0158367E-2,3.495073E-1,-4.5519698E-1,-2.27281E-1,-4.4531215E-2,2.6209468E-1,-2.8353018E-1,2.2542344E-1,-9.493067E-2,1.5253193E-2,4.8147165E-3,1.8864217E-1,-7.75832E-1,1.2880284E-1,1.1189147E-1,-8.139909E-1,-4.2911816E-2,6.516694E-3,4.5341138E-2,-3.5833202E-3,2.3404399E-1,-5.6121495E-2,-3.7656307E-1,-0E0,-2.8970212E-1,1.3941989E-2],"categories":[],"categories_nodes":[],"categories_segments":[],"categories_sizes":[],"default_left":[0,0,0,0,0,0,0,0,0,0,0,0,0,0,0,0,0,0,0,0,0,0,0,0,0,0,0,0,0,0,0,0,0],"id":11,"left_children":[1,3,5,7,9,11,13,15,17,-1,19,-1,-1,21,-1,23,25,27,-1,29,-1,-1,31,-1,-1,-1,-1,-1,-1,-1,-1,-1,-1],"loss_changes":[1.1055506E1,7.5896096E0,5.305771E0,7.026763E0,8.156643E0,4.1535416E0,6.070322E0,6.947378E0,9.596158E0,0E0,4.4924426E0,0E0,0E0,5.0690804E0,0E0,1.1298582E1,1.1294224E1,1.0068493E1,0E0,4.491517E0,0E0,0E0,3.560948E0,0E0,0E0,0E0,0E0,0E0,0E0,0E0,0E0,0E0,0E0],"parents":[2147483647,0,0,1,1,2,2,3,3,4,4,5,5,6,6,7,7,8,8,10,10,13,13,15,15,16,16,17,17,19,19,22,22],"right_children":[2,4,6,8,10,12,14,16,18,-1,20,-1,-1,22,-1,24,26,28,-1,30,-1,-1,32,-1,-1,-1,-1,-1,-1,-1,-1,-1,-1],"split_conditions":[3.382E1,2.6425385E1,4.4208515E1,4.4133344E0,-1.1241509E0,1.09127074E-1,4.0756173E-2,1.476E1,9.2526937E-1,-4.5519698E-1,2.3597562E0,-4.4531215E-2,2.6209468E-1,-5.5168223E-1,2.2542344E-1,2.8271094E-1,1.541E1,-9.216657E-1,1.8864217E-1,2.790685E-2,1.2880284E-1,1.1189147E-1,1.5106741E0,-4.2911816E-2,6.516694E-3,4.5341138E-2,-3.5833202E-3,2.3404399E-1,-5.6121495E-2,-3.7656307E-1,-0E0,-2.8970212E-1,1.3941989E-2],"split_indices":[29,12,26,23,8,16,10,29,15,0,32,0,0,31,0,31,29,20,0,10,0,0,31,0,0,0,0,0,0,0,0,0,0],"split_type":[0,0,0,0,0,0,0,0,0,0,0,0,0,0,0,0,0,0,0,0,0,0,0,0,0,0,0,0,0,0,0,0,0],"sum_hessian":[2.7084363E3,2.6808884E3,2.7547825E1,2.670702E3,1.018669E1,1.3895817E1,1.3652007E1,2.6192703E3,5.143152E1,2.4086895E0,7.778001E0,1.922924E0,1.1972893E1,9.750532E0,3.9014752E0,8.421644E2,1.7771058E3,3.2032627E1,1.939889E1,4.8005624E0,2.9774382E0,3.7910933E0,5.959439E0,4.5564825E2,3.865162E2,2.4781926E2,1.5292866E3,5.7724733E0,2.6260155E1,1.554159E0,3.2464035E0,3.409433E0,2.550006E0],"tree_param":{"num_deleted":"0","num_feature":"39","num_nodes":"33","size_leaf_vector":"1"}},{"base_weights":[7.73358E-3,-3.0383882E-1,1.6295064E-2,-9.040093E-2,-1.55277E0,3.1095764E-1,8.11077E-3,-3.557361E-1,4.3034602E-2,-4.7538027E-1,-4.9576068E-1,5.4778576E-1,-2.5808224E-1,-5.943981E-2,3.8856395E-2,1.8978254E-1,-1.202813E0,-2.4339874E-1,1.18257396E-1,6.3142055E-1,-1.9334754E-1,1.8208158E-1,-6.4923346E-1,-4.95611E-2,-3.2551932E-1,-1.8917218E-1,6.0688026E-2,-2.6238522E-1,5.775879E-2,-3.8260806E-1,1.548081E-1,-8.813993E-2,1.572933E-1,1.10902965E-1,-3.3023196E-1,-6.590624E-2,4.829653E-4,-6.3633304E-3,-2.7760842E-1,5.6508373E-2,8.064566E-3],"categories":[],"categories_nodes":[],"categories_segments":[],"categories_sizes":[],"default_left":[0,0,0,0,0,0,0,0,0,0,0,0,0,0,0,0,0,0,0,0,0,0,0,0,0,0,0,0,0,0,0,0,0,0,0,0,0,0,0,0,0],"id":12,"left_children":[1,3,5,7,9,11,13,-1,15,17,-1,19,21,23,25,27,29,-1,-1,31,-1,-1,33,35,-1,37,39,-1,-1,-1,-1,-1,-1,-1,-1,-1,-1,-1,-1,-1,-1],"loss_changes":[7.200525E0,1.8932705E1,6.3251853E0,1.3464632E1,7.296465E0,9.726381E0,5.3319864E0,0E0,1.0875603E1,4.587272E0,0E0,6.6947966E0,9.847879E0,1.1408674E1,8.789322E0,6.431656E0,8.580968E0,0E0,0E0,5.7560997E0,0E0,0E0,1.8269026E1,1.0780205E1,0E0,2.718341E1,7.491655E0,0E0,0E0,0E0,0E0,0E0,0E0,0E0,0E0,0E0,0E0,0E0,0E0,0E0,0E0],"parents":[2147483647,0,0,1,1,2,2,3,3,4,4,5,5,6,6,8,8,9,9,11,11,12,12,13,13,14,14,15,15,16,16,19,19,22,22,23,23,25,25,26,26],"right_children":[2,4,6,8,10,12,14,-1,16,18,-1,20,22,24,26,28,30,-1,-1,32,-1,-1,34,36,-1,38,40,-1,-1,-1,-1,-1,-1,-1,-1,-1,-1,-1,-1,-1,-1],"split_conditions":[-1.3425021E0,6.084994E-1,-1.1657046E0,4.9104236E-2,1.4909744E-1,3.0932066E-1,7.585762E-2,-3.557361E-1,8.7708247E-1,9.0172184E-1,-4.9576068E-1,2.5670516E0,6.7806387E-1,1.1814473E0,-5.8108147E-2,-7.726808E-1,9.970667E0,-2.4339874E-1,1.18257396E-1,-5.2491003E-1,-1.9334754E-1,1.8208158E-1,-1.203951E1,-2.2945564E0,-3.2551932E-1,9.146699E1,9.0182346E-1,-2.6238522E-1,5.775879E-2,-3.8260806E-1,1.548081E-1,-8.813993E-2,1.572933E-1,1.10902965E-1,-3.3023196E-1,-6.590624E-2,4.829653E-4,-6.3633304E-3,-2.7760842E-1,5.6508373E-2,8.064566E-3],"split_indices":[20,22,20,16,8,22,16,0,34,22,0,30,32,15,37,34,17,0,0,22,0,0,18,27,0,21,33,0,0,0,0,0,0,0,0,0,0,0,0,0,0],"split_type":[0,0,0,0,0,0,0,0,0,0,0,0,0,0,0,0,0,0,0,0,0,0,0,0,0,0,0,0,0,0,0,0,0,0,0,0,0,0,0,0,0],"sum_hessian":[2.7072544E3,7.116659E1,2.636088E3,6.176382E1,9.402766E0,6.990907E1,2.566179E3,3.9720821E0,5.779174E1,4.662118E0,4.7406483E0,4.951469E1,2.0394384E1,8.013542E2,1.7648246E3,5.253195E1,5.2597857E0,2.8226037E0,1.8395141E0,4.742455E1,2.0901406E0,4.929002E0,1.5465382E1,7.970951E2,4.259128E0,1.5313226E2,1.6116924E3,2.0125225E0,5.0519432E1,4.115078E0,1.1447078E0,4.052729E0,4.337182E1,6.864677E0,8.600705E0,1.3203876E2,6.6505634E2,1.3495367E2,1.8178585E1,1.6024907E2,1.4514434E3],"tree_param":{"num_deleted":"0","num_feature":"39","num_nodes":"41","size_leaf_vector":"1"}},{"base_weights":[2.3486337E-2,-1.7820208E-1,3.9220616E-2,-1.1971742E0,-1.2213255E-1,4.717795E-2,-3.511401E-1,-1.5155616E0,1.4504306E-1,1.301669E-1,-2.885602E-1,2.8063315E-1,3.2175414E-2,-7.102929E-1,1.5739301E-1,-0E0,-4.5270205E-1,3.8637117E-1,-4.9949706E-1,-7.05896E-1,-2.1103613E-2,-9.314986E-1,3.5458988E-1,4.560384E-2,-3.2329577E-1,-3.157313E-1,-1.892385E0,2.144008E-1,-3.812231E-1,1.7826416E-1,-1.8862136E-1,-2.756466E-1,9.934959E-2,-3.2398736E-1,1.6801538E-2,-4.856679E-2,-3.492975E-1,1.00706406E-1,-4.708181E-2,-3.0551016E-4,-3.1805146E-1,-1.8662576E-1,8.511549E-2,7.0250025E-3,1.02517694E-1,-3.2727875E-2,-2.2411847E-1,-1.8735525E-1,1.03262335E-1,-5.29175E-1,-9.0532675E-2,-2.9374257E-1,6.1610277E-4],"categories":[],"categories_nodes":[],"categories_segments":[],"categories_sizes":[],"default_left":[0,0,0,0,0,0,0,0,0,0,0,0,0,0,0,0,0,0,0,0,0,0,0,0,0,0,0,0,0,0,0,0,0,0,0,0,0,0,0,0,0,0,0,0,0,0,0,0,0,0,0,0,0],"id":13,"left_children":[1,3,5,7,9,11,13,15,-1,17,19,21,23,25,27,29,-1,31,33,35,37,39,41,43,45,47,49,-1,51,-1,-1,-1,-1,-1,-1,-1,-1,-1,-1,-1,-1,-1,-1,-1,-1,-1,-1,-1,-1,-1,-1,-1,-1],"loss_changes":[8.614621E0,1.0938677E1,7.818425E0,7.114914E0,7.917815E0,8.618464E0,9.3428955E0,8.087093E0,0E0,1.2263527E1,1.2570223E1,1.3607128E1,1.1082684E1,1.3053163E1,1.027935E1,3.413803E0,0E0,7.773692E0,1.3252998E1,1.9129234E1,7.020248E0,4.420443E0,8.113775E0,1.2257521E1,1.0162371E1,1.1101681E1,4.8894176E0,0E0,5.4340825E0,0E0,0E0,0E0,0E0,0E0,0E0,0E0,0E0,0E0,0E0,0E0,0E0,0E0,0E0,0E0,0E0,0E0,0E0,0E0,0E0,0E0,0E0,0E0,0E0],"parents":[2147483647,0,0,1,1,2,2,3,3,4,4,5,5,6,6,7,7,9,9,10,10,11,11,12,12,13,13,14,14,15,15,17,17,18,18,19,19,20,20,21,21,22,22,23,23,24,24,25,25,26,26,28,28],"right_children":[2,4,6,8,10,12,14,16,-1,18,20,22,24,26,28,30,-1,32,34,36,38,40,42,44,46,48,50,-1,52,-1,-1,-1,-1,-1,-1,-1,-1,-1,-1,-1,-1,-1,-1,-1,-1,-1,-1,-1,-1,-1,-1,-1,-1],"split_conditions":[-2.5560976E1,1.4551091E1,2.1050293E0,2.8589234E0,-4.5045587E-1,-1.867671E1,7.2952753E-1,1.2181038E0,1.4504306E-1,5.7888138E1,1.5687023E-1,-4.0193305E0,2.278E1,2.0322995E-1,9.100191E0,5.3963184E-1,-4.5270205E-1,1.991412E1,7.371999E1,2.9299953E0,2.6197367E1,-1.3267164E0,-5.8108147E-2,2.166E1,5.3120605E1,1.788E1,2.9507887E-1,2.144008E-1,2.567301E0,1.7826416E-1,-1.8862136E-1,-2.756466E-1,9.934959E-2,-3.2398736E-1,1.6801538E-2,-4.856679E-2,-3.492975E-1,1.00706406E-1,-4.708181E-2,-3.0551016E-4,-3.1805146E-1,-1.8662576E-1,8.511549E-2,7.0250025E-3,1.02517694E-1,-3.2727875E-2,-2.2411847E-1,-1.8735525E-1,1.03262335E-1,-5.29175E-1,-9.0532675E-2,-2.9374257E-1,6.1610277E-4],"split_indices":[18,24,10,31,20,18,35,33,0,26,20,30,29,16,27,15,0,11,21,33,11,35,37,29,24,29,31,0,9,0,0,0,0,0,0,0,0,0,0,0,0,0,0,0,0,0,0,0,0,0,0,0,0],"split_type":[0,0,0,0,0,0,0,0,0,0,0,0,0,0,0,0,0,0,0,0,0,0,0,0,0,0,0,0,0,0,0,0,0,0,0,0,0,0,0,0,0,0,0,0,0,0,0,0,0,0,0,0,0],"sum_hessian":[2.7157927E3,1.9532724E2,2.5204656E3,9.032954E0,1.862943E2,2.471226E3,4.9239567E1,7.9342084E0,1.0987463E0,7.389248E1,1.1240181E2,1.4774757E2,2.3234785E3,2.8741034E1,2.0498531E1,2.600958E0,5.33325E0,5.2909363E1,2.0983116E1,4.311404E1,6.928777E1,7.7517095E0,1.3999586E2,2.2400117E3,8.34666E1,2.2561943E1,6.1790905E0,7.690504E0,1.2808028E1,1.3190372E0,1.2819209E0,1.6596018E0,5.124976E1,7.05865E0,1.3924465E1,2.9414978E1,1.3699063E1,1.9428616E1,4.9859154E1,3.3633156E0,4.3883944E0,4.209597E0,1.3578627E2,2.1782124E3,6.179952E1,6.880178E1,1.4664818E1,1.3253034E1,9.30891E0,3.8603575E0,2.318733E0,2.9123783E0,9.89565E0],"tree_param":{"num_deleted":"0","num_feature":"39","num_nodes":"53","size_leaf_vector":"1"}},{"base_weights":[1.1561453E-2,-2.6954877E-1,2.202631E-2,-3.6971655E-1,1.6329448E-1,1.6098464E-2,4.412251E-1,-8.074353E-2,-1.0965399E0,3.060099E-2,-1.4577767E-1,1.8618497E-1,6.790217E-2,-1.4399788E0,6.9822736E-2,1.4217912E-1,-1.3486046E0,1.7311944E-2,2.5864297E-1,-1.2293738E0,-1.0035512E-1,1.6529866E-1,-3.4895432E-1,3.3536293E-2,-4.6466193E-1,4.346799E-2,-2.9595852E-1,2.0623235E-1,-2.3630017E-1,-3.38395E-1,4.456429E-2,4.44385E-3,-1.834454E-1,1.474948E-1,1.3298839E-2,-7.6040186E-2,-4.247825E-1,1.5436125E-1,-3.0165596E-2,-1.6326123E-1,1.0656556E-1],"categories":[],"categories_nodes":[],"categories_segments":[],"categories_sizes":[],"default_left":[0,0,0,0,0,0,0,0,0,0,0,0,0,0,0,0,0,0,0,0,0,0,0,0,0,0,0,0,0,0,0,0,0,0,0,0,0,0,0,0,0],"id":14,"left_children":[1,3,5,7,-1,9,11,13,15,17,19,-1,21,23,25,27,29,31,33,35,37,-1,39,-1,-1,-1,-1,-1,-1,-1,-1,-1,-1,-1,-1,-1,-1,-1,-1,-1,-1],"loss_changes":[7.8996186E0,1.0243187E1,6.399021E0,1.840487E1,0E0,6.0062275E0,5.652925E0,1.3454343E1,8.127691E0,7.09626E0,1.0090542E1,0E0,6.365178E0,8.308023E0,1.172944E1,6.3013425E0,8.310364E0,6.8732524E0,1.0865066E1,4.578102E0,6.953953E0,0E0,5.198947E0,0E0,0E0,0E0,0E0,0E0,0E0,0E0,0E0,0E0,0E0,0E0,0E0,0E0,0E0,0E0,0E0,0E0,0E0],"parents":[2147483647,0,0,1,1,2,2,3,3,5,5,6,6,7,7,8,8,9,9,10,10,12,12,13,13,14,14,15,15,16,16,17,17,18,18,19,19,20,20,22,22],"right_children":[2,4,6,8,-1,10,12,14,16,18,20,-1,22,24,26,28,30,32,34,36,38,-1,40,-1,-1,-1,-1,-1,-1,-1,-1,-1,-1,-1,-1,-1,-1,-1,-1,-1,-1],"split_conditions":[-1.2726077E0,5.587227E1,1.2695323E0,4.00927E1,1.6329448E-1,6.541724E0,1.1877893E0,8.7881905E-1,2.489134E1,2.619341E0,9.0386313E-1,1.8618497E-1,1.1046803E0,-1.6815826E0,1.40663595E1,1.2884032E0,1.4785349E0,2.578098E0,-2.0726654E-1,3.7780567E1,1.0611651E0,1.6529866E-1,1.041954E1,3.3536293E-2,-4.6466193E-1,4.346799E-2,-2.9595852E-1,2.0623235E-1,-2.3630017E-1,-3.38395E-1,4.456429E-2,4.44385E-3,-1.834454E-1,1.474948E-1,1.3298839E-2,-7.6040186E-2,-4.247825E-1,1.5436125E-1,-3.0165596E-2,-1.6326123E-1,1.0656556E-1],"split_indices":[20,24,22,24,0,28,13,9,21,23,17,0,33,20,17,9,14,23,22,24,9,0,12,0,0,0,0,0,0,0,0,0,0,0,0,0,0,0,0,0,0],"split_type":[0,0,0,0,0,0,0,0,0,0,0,0,0,0,0,0,0,0,0,0,0,0,0,0,0,0,0,0,0,0,0,0,0,0,0,0,0,0,0,0,0],"sum_hessian":[2.6907168E3,9.53404E1,2.5953765E3,8.761082E1,7.7295794E0,2.5604465E3,3.4930058E1,6.3580807E1,2.4030012E1,2.351228E3,2.0921841E2,1.542957E1,1.9500488E1,5.5528564E0,5.802795E1,4.069675E0,1.9960337E1,2.2231873E3,1.2804082E2,7.280025E0,2.0193839E2,6.9952717E0,1.2505216E1,1.967418E0,3.5854387E0,5.39897E1,4.0382524E0,2.636108E0,1.433567E0,1.7333181E1,2.627156E0,2.2153228E3,7.864436E0,3.892885E1,8.911197E1,4.147391E0,3.132634E0,8.715036E0,1.9322336E2,8.527824E0,3.9773917E0],"tree_param":{"num_deleted":"0","num_feature":"39","num_nodes":"41","size_leaf_vector":"1"}},{"base_weights":[-1.7022464E-2,-8.338503E-2,3.1639706E-2,-2.0816992E-1,3.560168E-3,-6.625714E-4,2.758914E-1,-2.3428236E-1,8.43336E-1,4.2055964E-1,-4.1878313E-2,2.9645756E-1,-3.454722E-2,-4.6631387E-3,5.256671E-1,-1.9415021E-1,-7.3978466E-1,-1.4199686E-1,2.6253918E-1,6.987658E-1,9.195584E-3,1.9634992E-1,-1.1762044E-1,3.775795E-1,-3.619897E-1,-4.5703226E-1,-1.1562622E-2,3.3953878E-1,-2.4367005E-1,6.002372E-1,-8.6218536E-1,-2.7057875E-2,-1.1561281E-1,-2.4060374E-1,7.417603E-2,2.050066E-1,5.2369118E-2,-7.666854E-2,1.7014734E-1,5.9663914E-2,-1.4937635E-1,5.013327E-4,-6.281636E-2,-1.4167719E-1,9.266342E-2,-2.5691196E-1,4.9674053E-2,-7.297629E-2,-3.9562976E-1,6.9019024E-4,-1.2618598E-1,9.923295E-2,-1.8936966E-1,6.994897E-2,-9.518018E-2,-6.6782E-2,1.4146726E-1,1.19472444E-1,-4.195337E-1],"categories":[],"categories_nodes":[],"categories_segments":[],"categories_sizes":[],"default_left":[0,0,0,0,0,0,0,0,0,0,0,0,0,0,0,0,0,0,0,0,0,0,0,0,0,0,0,0,0,0,0,0,0,0,0,0,0,0,0,0,0,0,0,0,0,0,0,0,0,0,0,0,0,0,0,0,0,0,0],"id":15,"left_children":[1,3,5,7,9,11,13,15,17,19,21,23,25,27,29,31,33,-1,-1,35,37,39,41,43,45,47,49,51,53,55,57,-1,-1,-1,-1,-1,-1,-1,-1,-1,-1,-1,-1,-1,-1,-1,-1,-1,-1,-1,-1,-1,-1,-1,-1,-1,-1,-1,-1],"loss_changes":[8.6904545E0,1.2374469E1,1.2265395E1,1.2988071E1,1.2780061E1,1.37822695E1,1.2775546E1,9.045908E0,7.6175632E0,7.509638E0,1.0954628E1,7.6217165E0,1.1905804E1,7.1728354E0,1.0450518E1,9.819769E0,1.4517143E1,0E0,0E0,4.3468723E0,8.464979E0,1.1155344E1,9.834658E0,7.7772865E0,8.2885895E0,9.284217E0,1.0113615E1,5.9000254E0,6.1665154E0,5.616501E0,9.518076E0,0E0,0E0,0E0,0E0,0E0,0E0,0E0,0E0,0E0,0E0,0E0,0E0,0E0,0E0,0E0,0E0,0E0,0E0,0E0,0E0,0E0,0E0,0E0,0E0,0E0,0E0,0E0,0E0],"parents":[2147483647,0,0,1,1,2,2,3,3,4,4,5,5,6,6,7,7,8,8,9,9,10,10,11,11,12,12,13,13,14,14,15,15,16,16,19,19,20,20,21,21,22,22,23,23,24,24,25,25,26,26,27,27,28,28,29,29,30,30],"right_children":[2,4,6,8,10,12,14,16,18,20,22,24,26,28,30,32,34,-1,-1,36,38,40,42,44,46,48,50,52,54,56,58,-1,-1,-1,-1,-1,-1,-1,-1,-1,-1,-1,-1,-1,-1,-1,-1,-1,-1,-1,-1,-1,-1,-1,-1,-1,-1,-1,-1],"split_conditions":[2.6015013E1,-4.6210382E-2,2.049E1,3.3558803E0,-7.073024E-1,-1.7798238E0,-2.8009463E-2,6.7661685E-1,-1.078928E1,2.390437E0,1.384E1,8.0003395E0,-1.843363E1,-3.5860816E-1,9.3640656E1,-1.4303206E-1,9.854855E-1,-1.4199686E-1,2.6253918E-1,1.7241069E0,1.1356391E0,-1.7583249E0,2.8015175E-1,1.1210567E1,2.1741362E0,1.612011E-1,2.8101942E-1,-3.0980442E0,5.6040462E-2,-2.39489E0,-7.1925335E-2,-2.7057875E-2,-1.1561281E-1,-2.4060374E-1,7.417603E-2,2.050066E-1,5.2369118E-2,-7.666854E-2,1.7014734E-1,5.9663914E-2,-1.4937635E-1,5.013327E-4,-6.281636E-2,-1.4167719E-1,9.266342E-2,-2.5691196E-1,4.9674053E-2,-7.297629E-2,-3.9562976E-1,6.9019024E-4,-1.2618598E-1,9.923295E-2,-1.8936966E-1,6.994897E-2,-9.518018E-2,-6.6782E-2,1.4146726E-1,1.19472444E-1,-4.195337E-1],"split_indices":[19,10,29,20,34,31,31,22,27,9,29,13,18,20,21,10,22,0,0,33,10,18,34,21,23,2,1,18,15,10,8,0,0,0,0,0,0,0,0,0,0,0,0,0,0,0,0,0,0,0,0,0,0,0,0,0,0,0,0],"split_type":[0,0,0,0,0,0,0,0,0,0,0,0,0,0,0,0,0,0,0,0,0,0,0,0,0,0,0,0,0,0,0,0,0,0,0,0,0,0,0,0,0,0,0,0,0,0,0,0,0,0,0,0,0,0,0,0,0,0,0],"sum_hessian":[2.6876682E3,1.1376079E3,1.5500602E3,4.6704895E2,6.705589E2,1.3695281E3,1.8053217E2,4.5658276E2,1.0466194E1,6.5293205E1,6.052657E2,1.3910193E2,1.2304261E3,8.530093E1,9.523125E1,4.2446603E2,3.211673E1,1.9463022E0,8.519892E0,3.838895E1,2.6904257E1,1.453115E2,4.5995422E2,1.24359085E2,1.474284E1,6.228663E1,1.1681395E3,3.4613636E1,5.068729E1,9.098228E1,4.24897E0,3.5732578E2,6.714024E1,2.3684824E1,8.431905E0,2.341146E1,1.4977488E1,1.8617973E1,8.286283E0,1.3364043E2,1.1671066E1,2.7457266E2,1.8538153E2,5.8516994E0,1.1850739E2,5.7413955E0,9.001445E0,5.8798473E1,3.488155E0,1.1399116E3,2.822787E1,3.2022755E1,2.5908828E0,1.2994055E1,3.7693233E1,5.5914545E0,8.539082E1,2.0359652E0,2.2130048E0],"tree_param":{"num_deleted":"0","num_feature":"39","num_nodes":"59","size_leaf_vector":"1"}},{"base_weights":[1.696719E-2,-3.8025045E-1,3.3170395E-2,-6.2402815E-1,2.7186224E-1,7.092924E-2,-9.9956624E-2,-8.730079E-1,1.6859397E-1,2.3636767E-1,-1.8630387E-2,2.096822E-3,1.7813155E-1,-3.281414E-1,-3.23195E-2,5.0288004E-1,-1.0559391E0,5.8849084E-1,-2.1648103E-1,-2.770818E-1,1.797534E-1,-3.4279384E-2,2.4994682E-1,1.3503039E-1,4.3715352E-1,1.5636848E-1,-5.1507515E-1,3.36275E-1,-7.3073246E-2,2.1718596E-1,-1.2056601E-1,-4.3076366E-1,-1.6269496E-1,1.8422571E-1,-7.925688E-2,1.9976512E-1,-3.8629502E-2,-2.722442E-4,-6.510658E-2,-2.9018633E-2,1.00874014E-1,1.3521107E-1,2.4717357E-2,5.2498646E-2,1.679665E-1,8.030331E-2,-1.692539E-1,-2.572913E-1,-7.074327E-2,-1.2641791E-2,1.9863136E-1,-4.590609E-2,1.681306E-2],"categories":[],"categories_nodes":[],"categories_segments":[],"categories_sizes":[],"default_left":[0,0,0,0,0,0,0,0,0,0,0,0,0,0,0,0,0,0,0,0,0,0,0,0,0,0,0,0,0,0,0,0,0,0,0,0,0,0,0,0,0,0,0,0,0,0,0,0,0,0,0,0,0],"id":16,"left_children":[1,3,5,7,9,11,13,15,17,-1,19,21,23,25,27,29,31,33,-1,-1,35,37,39,41,43,45,47,49,51,-1,-1,-1,-1,-1,-1,-1,-1,-1,-1,-1,-1,-1,-1,-1,-1,-1,-1,-1,-1,-1,-1,-1,-1],"loss_changes":[1.7075275E1,1.67302E1,1.2839859E1,1.5232006E1,7.1566305E0,1.466905E1,8.658715E0,1.5222992E1,9.973087E0,0E0,6.026831E0,1.0972896E1,8.566269E0,1.1756374E1,6.5556307E0,4.7309766E0,1.2776157E1,4.266721E0,0E0,0E0,5.762531E0,9.45263E0,1.3554918E1,6.1948776E0,7.0846615E0,7.8951674E0,1.124836E1,1.0379273E1,8.56499E0,0E0,0E0,0E0,0E0,0E0,0E0,0E0,0E0,0E0,0E0,0E0,0E0,0E0,0E0,0E0,0E0,0E0,0E0,0E0,0E0,0E0,0E0,0E0,0E0],"parents":[2147483647,0,0,1,1,2,2,3,3,4,4,5,5,6,6,7,7,8,8,10,10,11,11,12,12,13,13,14,14,15,15,16,16,17,17,20,20,21,21,22,22,23,23,24,24,25,25,26,26,27,27,28,28],"right_children":[2,4,6,8,10,12,14,16,18,-1,20,22,24,26,28,30,32,34,-1,-1,36,38,40,42,44,46,48,50,52,-1,-1,-1,-1,-1,-1,-1,-1,-1,-1,-1,-1,-1,-1,-1,-1,-1,-1,-1,-1,-1,-1,-1,-1],"split_conditions":[-2.7150879E-2,5.2927756E-1,5.9819332E1,4.524078E-1,1.58E1,3.0264791E1,6.749667E1,1.497E1,2.099183E-1,2.3636767E-1,-5.6780547E-1,1.1838994E0,1.6995847E0,2.1918941E1,2.3172432E1,3.7409134E1,1.635E1,3.3768108E0,-2.1648103E-1,-2.770818E-1,4.5326984E1,2.4655184E1,7.142165E-2,-2.7636123E0,-2.7766235E0,-1.0282184E0,6.782685E-1,-4.6349218E-1,7.730781E-1,2.1718596E-1,-1.2056601E-1,-4.3076366E-1,-1.6269496E-1,1.8422571E-1,-7.925688E-2,1.9976512E-1,-3.8629502E-2,-2.722442E-4,-6.510658E-2,-2.9018633E-2,1.00874014E-1,1.3521107E-1,2.4717357E-2,5.2498646E-2,1.679665E-1,8.030331E-2,-1.692539E-1,-2.572913E-1,-7.074327E-2,-1.2641791E-2,1.9863136E-1,-4.590609E-2,1.681306E-2],"split_indices":[38,10,19,22,29,19,19,29,7,0,22,20,30,24,21,24,29,30,0,0,21,19,16,31,18,18,12,30,15,0,0,0,0,0,0,0,0,0,0,0,0,0,0,0,0,0,0,0,0,0,0,0,0],"split_type":[0,0,0,0,0,0,0,0,0,0,0,0,0,0,0,0,0,0,0,0,0,0,0,0,0,0,0,0,0,0,0,0,0,0,0,0,0,0,0,0,0,0,0,0,0,0,0,0,0,0,0,0,0],"sum_hessian":[2.6554392E3,1.0295217E2,2.552487E3,7.508118E1,2.7870998E1,1.9894401E3,5.6304694E2,5.7152946E1,1.7928228E1,6.538029E0,2.133297E1,1.212726E3,7.767142E2,1.2751717E2,4.355298E2,6.4376345E0,5.0715313E1,1.3671363E1,4.256865E0,2.1812985E0,1.915167E1,1.0579169E3,1.5480908E2,6.6754266E2,1.0917149E2,3.53981E1,9.211907E1,4.239409E1,3.931357E2,4.4337583E0,2.0038757E0,1.0317005E1,4.0398308E1,1.0774582E1,2.8967812E0,5.7532353E0,1.3398436E1,9.4444305E2,1.1347382E2,5.675225E1,9.805682E1,2.3052471E1,6.444902E2,7.2058525E1,3.711297E1,2.9307148E1,6.0909534E0,1.7958103E1,7.416097E1,2.5925278E1,1.6468811E1,2.0307333E2,1.9006238E2],"tree_param":{"num_deleted":"0","num_feature":"39","num_nodes":"53","size_leaf_vector":"1"}},{"base_weights":[-2.6125752E-3,6.203474E-3,-2.4772897E-1,2.3578195E-1,-5.4064877E-3,-7.489254E-1,-4.561698E-2,3.4089234E-1,-7.338781E-1,-6.530354E-1,1.7960721E-3,-1.58722E0,-1.1326623E-1,1.8423697E-1,-1.4506634E-1,5.030651E-1,-5.6316525E-2,-1.3204902E0,-0E0,1.455933E-1,-9.8323596E-1,-1.7710801E-2,1.2600398E-1,-4.453794E-1,3.003633E-2,3.447987E-1,-3.2522866E-1,-7.50479E-1,9.848673E-2,-1.881083E-2,1.4881158E-1,1.5650485E-1,-9.244946E-2,-4.0682805E-1,1.5683196E-1,1.2636974E-1,-2.9213983E-1,-1.9105172E-1,-2.8885484E-3,3.8508503E-3,7.921003E-2,-9.7531885E-2,1.5138005E-1,8.035448E-2,-2.619016E-1,5.652992E-2,-3.4603497E-1],"categories":[],"categories_nodes":[],"categories_segments":[],"categories_sizes":[],"default_left":[0,0,0,0,0,0,0,0,0,0,0,0,0,0,0,0,0,0,0,0,0,0,0,0,0,0,0,0,0,0,0,0,0,0,0,0,0,0,0,0,0,0,0,0,0,0,0],"id":17,"left_children":[1,3,5,7,9,11,13,15,17,19,21,23,25,-1,27,29,31,33,-1,-1,35,37,39,-1,-1,41,-1,43,45,-1,-1,-1,-1,-1,-1,-1,-1,-1,-1,-1,-1,-1,-1,-1,-1,-1,-1],"loss_changes":[5.765876E0,6.8601904E0,9.270657E0,1.2838058E1,1.1456206E1,1.3726099E1,6.1411586E0,7.323141E0,5.275295E0,1.2623831E1,5.8662515E0,1.0281929E1,1.1114082E1,0E0,9.216342E0,9.398886E0,1.025423E1,9.813381E0,0E0,0E0,1.4440086E1,7.514969E0,8.6771555E0,0E0,0E0,4.161194E0,0E0,1.0217615E1,1.3141391E1,0E0,0E0,0E0,0E0,0E0,0E0,0E0,0E0,0E0,0E0,0E0,0E0,0E0,0E0,0E0,0E0,0E0,0E0],"parents":[2147483647,0,0,1,1,2,2,3,3,4,4,5,5,6,6,7,7,8,8,9,9,10,10,11,11,12,12,14,14,15,15,16,16,17,17,20,20,21,21,22,22,25,25,27,27,28,28],"right_children":[2,4,6,8,10,12,14,16,18,20,22,24,26,-1,28,30,32,34,-1,-1,36,38,40,-1,-1,42,-1,44,46,-1,-1,-1,-1,-1,-1,-1,-1,-1,-1,-1,-1,-1,-1,-1,-1,-1,-1],"split_conditions":[4.14085E0,-5.6338296E0,-1.867429E-1,3.1852126E-1,-4.9057617E0,-2.0767072E-2,1.123786E-1,4.0379247E-1,3.6140575E0,-6.369529E-1,1.6651249E0,1.3921269E0,7.622024E1,1.8423697E-1,3.7594097E0,1.8440413E0,1.1430273E-1,1.3854901E0,-0E0,1.455933E-1,8.542853E-1,9.190533E0,3.9703986E-1,-4.453794E-1,3.003633E-2,4.118221E1,-3.2522866E-1,3.4954426E1,7.4757E-2,-1.881083E-2,1.4881158E-1,1.5650485E-1,-9.244946E-2,-4.0682805E-1,1.5683196E-1,1.2636974E-1,-2.9213983E-1,-1.9105172E-1,-2.8885484E-3,3.8508503E-3,7.921003E-2,-9.7531885E-2,1.5138005E-1,8.035448E-2,-2.619016E-1,5.652992E-2,-3.4603497E-1],"split_indices":[32,13,20,16,13,22,16,22,9,22,31,14,21,0,33,9,16,31,0,0,32,24,10,0,0,19,0,26,6,0,0,0,0,0,0,0,0,0,0,0,0,0,0,0,0,0,0],"split_type":[0,0,0,0,0,0,0,0,0,0,0,0,0,0,0,0,0,0,0,0,0,0,0,0,0,0,0,0,0,0,0,0,0,0,0,0,0,0,0,0,0,0,0,0,0,0,0],"sum_hessian":[2.6553154E3,2.563675E3,9.1640434E1,1.2289145E2,2.4407837E3,2.541533E1,6.62251E1,1.1155098E2,1.134047E1,2.6012886E1,2.4147708E3,1.0247219E1,1.5168112E1,5.6637306E0,6.056137E1,7.920028E1,3.23507E1,5.836971E0,5.503499E0,4.8813705E0,2.1131516E1,2.0870513E3,3.2771945E2,7.816699E0,2.4305205E0,1.19735985E1,3.1945128E0,1.6894653E1,4.3666718E1,1.9692646E1,5.9507633E1,1.0063668E1,2.2287031E1,4.6299615E0,1.2070092E0,4.0210323E0,1.7110483E1,8.679581E0,2.0783716E3,2.2877873E2,9.8940735E1,3.5848157E0,8.388783E0,5.038587E0,1.1856066E1,4.063449E1,3.0322247E0],"tree_param":{"num_deleted":"0","num_feature":"39","num_nodes":"47","size_leaf_vector":"1"}},{"base_weights":[1.6910976E-2,3.1280227E-2,-1.8307361E-1,3.6882388E-3,1.8254477E-1,-4.763959E-1,8.6804435E-2,-3.4472708E-2,1.0275783E-1,-3.5176992E-1,2.511992E-1,-9.5080996E-1,-2.018521E-1,3.5774297E-1,-4.1095993E-1,-1.3686135E-2,-5.211238E-1,1.544388E-1,-2.6998714E-1,-2.7945165E-3,-9.947945E-1,2.6694265E-1,-2.8198904E-1,-4.904771E-1,-1.7184576E0,3.9509022E-1,-4.4674078E-1,-2.4195568E-1,4.8637894E-1,-8.123741E-1,3.2624956E-2,6.1201705E-3,-2.7445795E-2,-2.7579552E-1,-6.637642E-2,3.6825866E-2,-1.7847362E-1,-3.8775622E-3,-1.8759963E-1,-2.8433368E-1,5.2935082E-2,1.8009347E-1,-2.6230472E-1,4.3984402E-2,1.3353272E-1,-3.6343515E-1,-1.3766908E-2,8.155484E-2,-4.402324E-1,1.9286525E-1,-1.0519806E-1,-1.2603332E-1,2.44779E-1,-2.588184E-1,1.0046306E-1,2.6969545E-2,1.7162691E-1,8.5039206E-2,-2.3568387E-1,-2.816652E-1,6.5013185E-2],"categories":[],"categories_nodes":[],"categories_segments":[],"categories_sizes":[],"default_left":[0,0,0,0,0,0,0,0,0,0,0,0,0,0,0,0,0,0,0,0,0,0,0,0,0,0,0,0,0,0,0,0,0,0,0,0,0,0,0,0,0,0,0,0,0,0,0,0,0,0,0,0,0,0,0,0,0,0,0,0,0],"id":18,"left_children":[1,3,5,7,9,11,13,15,17,19,21,23,25,27,29,31,33,35,37,39,41,43,-1,45,47,49,51,53,55,57,59,-1,-1,-1,-1,-1,-1,-1,-1,-1,-1,-1,-1,-1,-1,-1,-1,-1,-1,-1,-1,-1,-1,-1,-1,-1,-1,-1,-1,-1,-1],"loss_changes":[7.724202E0,1.046569E1,1.4336295E1,8.048638E0,1.4273502E1,1.0975807E1,1.2880975E1,1.546679E1,1.1438757E1,9.840891E0,8.769526E0,1.0015129E1,8.408286E0,4.911978E0,6.0925074E0,7.2113094E0,9.591194E0,9.618331E0,1.1003431E1,1.0425729E1,7.824439E0,7.2099056E0,0E0,1.0626421E1,9.21114E0,8.102848E0,9.992532E0,8.599647E0,5.708415E0,6.8595686E0,6.5141907E0,0E0,0E0,0E0,0E0,0E0,0E0,0E0,0E0,0E0,0E0,0E0,0E0,0E0,0E0,0E0,0E0,0E0,0E0,0E0,0E0,0E0,0E0,0E0,0E0,0E0,0E0,0E0,0E0,0E0,0E0],"parents":[2147483647,0,0,1,1,2,2,3,3,4,4,5,5,6,6,7,7,8,8,9,9,10,10,11,11,12,12,13,13,14,14,15,15,16,16,17,17,18,18,19,19,20,20,21,21,23,23,24,24,25,25,26,26,27,27,28,28,29,29,30,30],"right_children":[2,4,6,8,10,12,14,16,18,20,22,24,26,28,30,32,34,36,38,40,42,44,-1,46,48,50,52,54,56,58,60,-1,-1,-1,-1,-1,-1,-1,-1,-1,-1,-1,-1,-1,-1,-1,-1,-1,-1,-1,-1,-1,-1,-1,-1,-1,-1,-1,-1,-1,-1],"split_conditions":[1.2202411E0,6.453175E-1,8.900913E1,6.2990623E1,-9.1136634E-1,2.3829923E0,9.4489685E1,8.2213E1,6.887116E-1,-4.100783E0,1.6577388E0,5.9880316E-4,2.77224E-1,2.551095E1,7.824644E-1,5.4625465E1,-8.82193E-1,8.57734E0,6.246011E-4,-5.2358025E-1,-2.128E-2,2.4086912E0,-2.8198904E-1,2.3955618E-1,4.0746693E1,1.657E1,-6.5876013E-1,9.164285E1,2.2506648E-4,9.0609735E-1,6.414619E1,6.1201705E-3,-2.7445795E-2,-2.7579552E-1,-6.637642E-2,3.6825866E-2,-1.7847362E-1,-3.8775622E-3,-1.8759963E-1,-2.8433368E-1,5.2935082E-2,1.8009347E-1,-2.6230472E-1,4.3984402E-2,1.3353272E-1,-3.6343515E-1,-1.3766908E-2,8.155484E-2,-4.402324E-1,1.9286525E-1,-1.0519806E-1,-1.2603332E-1,2.44779E-1,-2.588184E-1,1.0046306E-1,2.6969545E-2,1.7162691E-1,8.5039206E-2,-2.3568387E-1,-2.816652E-1,6.5013185E-2],"split_indices":[34,34,21,11,20,33,21,21,10,18,35,37,14,24,31,21,20,28,37,10,38,32,0,14,26,29,18,21,37,32,26,0,0,0,0,0,0,0,0,0,0,0,0,0,0,0,0,0,0,0,0,0,0,0,0,0,0,0,0,0,0],"split_type":[0,0,0,0,0,0,0,0,0,0,0,0,0,0,0,0,0,0,0,0,0,0,0,0,0,0,0,0,0,0,0,0,0,0,0,0,0,0,0,0,0,0,0,0,0,0,0,0,0,0,0,0,0,0,0,0,0,0,0,0,0],"sum_hessian":[2.6902507E3,2.5111628E3,1.7908789E2,2.125194E3,3.859687E2,8.562739E1,9.346051E1,1.533964E3,5.912301E2,4.3311234E1,3.4265744E2,3.035178E1,5.5275608E1,6.083148E1,3.2629032E1,1.4723102E3,6.1653915E1,5.199879E2,7.12422E1,2.8826618E1,1.4484613E1,3.4015155E2,2.5058982E0,2.0079796E1,1.0271984E1,1.5782466E1,3.949314E1,1.0450961E1,5.0380516E1,1.6810616E1,1.5818414E1,1.0759062E3,3.9640387E2,1.193161E1,4.9722305E1,5.114049E2,8.583012E0,5.1291264E1,1.995094E1,3.9541008E0,2.4872519E1,1.3093188E0,1.3175295E1,2.9283316E2,4.731839E1,4.3678594E0,1.5711937E1,1.4058154E0,8.866169E0,1.0085887E1,5.6965785E0,3.6838837E1,2.6543067E0,4.183415E0,6.267546E0,2.449646E1,2.5884054E1,3.147462E0,1.3663155E1,1.9429547E0,1.387546E1],"tree_param":{"num_deleted":"0","num_feature":"39","num_nodes":"61","size_leaf_vector":"1"}},{"base_weights":[-4.1719372E-3,1.5743546E-1,-2.3073679E-2,7.3295623E-1,6.716676E-2,-1.05223E0,-1.956863E-2,8.491007E-1,-1.1731883E-1,-8.387644E-1,1.2662885E-1,1.3175372E-2,-3.2305577E-1,-5.6331415E-2,7.1366645E-2,2.4019952E-1,2.2291353E-1,1.2409469E-1,-2.692776E-1,-1.2200705E0,1.1673562E-1,-2.05488E-1,3.0655563E-1,-9.47874E-2,1.08954675E-1,9.908415E-2,-3.8677007E-1,1.3388486E-1,-2.308106E-1,-0E0,-3.641608E-1,8.596756E-2,-8.7811E-2,1.3278791E-1,2.2020172E-2,-5.449822E-3,-4.0620014E-2,2.7289862E-2,-2.618796E-1,1.4273967E-2,9.832979E-2,-2.567425E-1,-1.8362602E-2],"categories":[],"categories_nodes":[],"categories_segments":[],"categories_sizes":[],"default_left":[0,0,0,0,0,0,0,0,0,0,0,0,0,0,0,0,0,0,0,0,0,0,0,0,0,0,0,0,0,0,0,0,0,0,0,0,0,0,0,0,0,0,0],"id":19,"left_children":[1,3,5,7,9,11,13,15,17,19,21,-1,-1,23,25,27,-1,-1,-1,29,-1,31,33,35,37,39,41,-1,-1,-1,-1,-1,-1,-1,-1,-1,-1,-1,-1,-1,-1,-1,-1],"loss_changes":[8.137817E0,1.4358655E1,8.491381E0,3.8819237E0,1.3088131E1,4.375971E0,7.9669847E0,3.6197548E0,5.050363E0,8.642847E0,1.3719258E1,0E0,0E0,1.0801055E1,8.714632E0,5.5550165E0,0E0,0E0,0E0,7.3140144E0,0E0,1.0324146E1,9.436851E0,9.122965E0,8.267959E0,7.4439406E0,9.388615E0,0E0,0E0,0E0,0E0,0E0,0E0,0E0,0E0,0E0,0E0,0E0,0E0,0E0,0E0,0E0,0E0],"parents":[2147483647,0,0,1,1,2,2,3,3,4,4,5,5,6,6,7,7,8,8,9,9,10,10,13,13,14,14,15,15,19,19,21,21,22,22,23,23,24,24,25,25,26,26],"right_children":[2,4,6,8,10,12,14,16,18,20,22,-1,-1,24,26,28,-1,-1,-1,30,-1,32,34,36,38,40,42,-1,-1,-1,-1,-1,-1,-1,-1,-1,-1,-1,-1,-1,-1,-1,-1],"split_conditions":[1.0611651E0,-8.716967E-1,1.199E1,1.2757388E0,-2.1484327E0,1.3457712E0,8.8400614E-1,1.396E1,1.194862E0,1.694E1,4.566421E-1,1.3175372E-2,-3.2305577E-1,5.284191E-1,9.237686E0,1.36E1,2.2291353E-1,1.2409469E-1,-2.692776E-1,-1.5432769E0,1.1673562E-1,-1.8263313E0,-1.3392476E-2,8.7821156E-1,3.687345E0,1.525762E2,1.6535149E0,1.3388486E-1,-2.308106E-1,-0E0,-3.641608E-1,8.596756E-2,-8.7811E-2,1.3278791E-1,2.2020172E-2,-5.449822E-3,-4.0620014E-2,2.7289862E-2,-2.618796E-1,1.4273967E-2,9.832979E-2,-2.567425E-1,-1.8362602E-2],"split_indices":[9,30,29,31,13,9,31,29,33,29,27,0,0,22,28,29,0,0,0,28,0,28,10,13,20,25,13,0,0,0,0,0,0,0,0,0,0,0,0,0,0,0,0],"split_type":[0,0,0,0,0,0,0,0,0,0,0,0,0,0,0,0,0,0,0,0,0,0,0,0,0,0,0,0,0,0,0,0,0,0,0,0,0,0,0,0,0,0,0],"sum_hessian":[2.6662751E3,2.778735E2,2.3884016E3,3.6558994E1,2.4131451E2,6.994295E0,2.3814072E3,3.2270016E1,4.2889786E0,1.3952614E1,2.2736191E2,2.2496626E0,4.7446327E0,1.696882E3,6.845253E2,8.568424E0,2.370159E1,2.914905E0,1.3740735E0,1.109452E1,2.8580942E0,7.9647385E1,1.4771452E2,1.377435E3,3.194468E2,6.464187E2,3.8106647E1,7.089349E0,1.4790752E0,3.4329836E0,7.661536E0,1.9821829E1,5.9825558E1,5.671063E1,9.100389E1,8.0149097E2,5.7594415E2,3.15902E2,3.5448065E0,5.952282E2,5.1190495E1,9.336117E0,2.877053E1],"tree_param":{"num_deleted":"0","num_feature":"39","num_nodes":"43","size_leaf_vector":"1"}},{"base_weights":[5.3167655E-3,6.3167214E-2,-4.3847874E-2,8.888047E-2,-1.8674198E-1,2.4616739E-1,-7.327877E-2,-4.987047E-1,9.7638674E-2,-1.0753137E0,-3.341749E-2,3.2415533E-1,-9.280834E-1,3.9933988E-1,-8.807276E-2,1.616481E-1,-9.1470075E-1,3.2246095E-1,7.0262514E-2,1.8621791E-2,-1.7612724E0,1.9701779E-1,-5.099001E-1,3.5594872E-1,-2.6051003E-1,1.7034958E-1,-2.0106566E0,5.413143E-1,-2.1081014E-1,-7.625368E-2,-7.281764E-1,-2.9434395E-1,1.532898E-1,1.4571067E-2,1.5112258E-1,-1.7861795E-2,3.0823452E-2,1.825867E-1,-1.9282302E-1,1.5166946E-1,-4.6214694E-1,-2.884874E-1,5.249203E-2,-3.94995E-1,-5.977313E-2,-7.960545E-2,8.915742E-2,-5.197319E-1,-3.1397793E-2,1.4426501E-1,-2.4456778E-1,-2.5146617E-2,3.58664E-2,7.8212105E-2,-2.3933221E-1],"categories":[],"categories_nodes":[],"categories_segments":[],"categories_sizes":[],"default_left":[0,0,0,0,0,0,0,0,0,0,0,0,0,0,0,0,0,0,0,0,0,0,0,0,0,0,0,0,0,0,0,0,0,0,0,0,0,0,0,0,0,0,0,0,0,0,0,0,0,0,0,0,0,0,0],"id":20,"left_children":[1,3,5,7,9,11,13,15,17,19,21,23,25,27,29,-1,31,33,35,37,39,41,43,45,-1,-1,47,49,-1,51,53,-1,-1,-1,-1,-1,-1,-1,-1,-1,-1,-1,-1,-1,-1,-1,-1,-1,-1,-1,-1,-1,-1,-1,-1],"loss_changes":[7.558165E0,7.855769E0,1.2251662E1,5.713298E0,1.5372252E1,1.2342627E1,9.122567E0,9.225019E0,6.6668034E0,1.2689739E1,1.0922192E1,6.4848623E0,1.7458906E1,8.292426E0,9.438792E0,0E0,1.0791676E1,1.1476047E1,1.1219852E1,6.4613547E0,1.2086094E1,5.346527E0,9.27097E0,5.785262E0,0E0,0E0,3.7741508E0,9.140102E0,0E0,1.2736817E1,1.0309888E1,0E0,0E0,0E0,0E0,0E0,0E0,0E0,0E0,0E0,0E0,0E0,0E0,0E0,0E0,0E0,0E0,0E0,0E0,0E0,0E0,0E0,0E0,0E0,0E0],"parents":[2147483647,0,0,1,1,2,2,3,3,4,4,5,5,6,6,7,7,8,8,9,9,10,10,11,11,12,12,13,13,14,14,16,16,17,17,18,18,19,19,20,20,21,21,22,22,23,23,26,26,27,27,29,29,30,30],"right_children":[2,4,6,8,10,12,14,16,18,20,22,24,26,28,30,-1,32,34,36,38,40,42,44,46,-1,-1,48,50,-1,52,54,-1,-1,-1,-1,-1,-1,-1,-1,-1,-1,-1,-1,-1,-1,-1,-1,-1,-1,-1,-1,-1,-1,-1,-1],"split_conditions":[-4.0320553E-2,3.3631343E-1,-1.9203603E0,-4E-4,5.7703756E-2,6.981543E1,1.2584519E1,1.194862E0,-1.8747432E0,4.4992104E-2,1.3184118E-1,7.24064E-1,1.401E1,2.513199E-2,4.5421133E0,1.616481E-1,2.2815557E1,8.2171625E-1,-3.3783543E-1,7.28786E-2,4.318915E1,3.069036E1,1.4351496E-1,-2.5521808E0,-2.6051003E-1,1.7034958E-1,1.0012828E0,-1.277984E0,-2.1081014E-1,7.3809905E0,5.7965765E0,-2.9434395E-1,1.532898E-1,1.4571067E-2,1.5112258E-1,-1.7861795E-2,3.0823452E-2,1.825867E-1,-1.9282302E-1,1.5166946E-1,-4.6214694E-1,-2.884874E-1,5.249203E-2,-3.94995E-1,-5.977313E-2,-7.960545E-2,8.915742E-2,-5.197319E-1,-3.1397793E-2,1.4426501E-1,-2.4456778E-1,-2.5146617E-2,3.58664E-2,7.8212105E-2,-2.3933221E-1],"split_indices":[30,22,31,0,16,26,24,33,8,16,16,3,29,2,31,0,17,12,8,13,11,26,16,14,0,0,22,18,0,27,27,0,0,0,0,0,0,0,0,0,0,0,0,0,0,0,0,0,0,0,0,0,0,0,0],"split_type":[0,0,0,0,0,0,0,0,0,0,0,0,0,0,0,0,0,0,0,0,0,0,0,0,0,0,0,0,0,0,0,0,0,0,0,0,0,0,0,0,0,0,0,0,0,0,0,0,0,0,0,0,0,0,0],"sum_hessian":[2.654746E3,1.2204414E3,1.4343048E3,1.1075315E3,1.12909874E2,1.311524E2,1.3031523E3,1.5276493E1,1.092255E3,1.5634819E1,9.7275055E1,1.2374311E2,7.4093E0,3.8559277E1,1.2645931E3,3.5325067E0,1.1743987E1,1.16997795E2,9.752572E2,6.3442965E0,9.290523E0,6.582E1,3.1455055E1,1.220693E2,1.6738129E0,2.919108E0,4.490192E0,3.5602657E1,2.956622E0,1.2429188E3,2.1674294E1,9.3009205E0,2.443066E0,7.149991E1,4.5497887E1,3.1717767E2,6.580795E2,3.4202454E0,2.9240508E0,1.1766772E0,8.113845E0,1.1544471E0,6.466556E1,3.486248E0,2.7968807E1,9.130452E0,1.1293884E2,3.3539987E0,1.1361935E0,3.3559795E1,2.042859E0,1.0623113E3,1.8060754E2,5.701119E0,1.5973175E1],"tree_param":{"num_deleted":"0","num_feature":"39","num_nodes":"55","size_leaf_vector":"1"}},{"base_weights":[-1.1531857E-3,5.643825E-2,-5.492584E-2,4.0401686E-2,4.811167E-1,-8.827465E-2,1.5725768E-1,6.486756E-2,-4.655328E-1,5.806045E-1,-2.912952E-1,-1.1131276E-1,3.147447E-1,1.8069991E-1,-3.174763E-1,6.941108E-2,-3.9748952E-1,6.5987265E-1,-6.4424324E-1,7.054692E-1,-1.05268545E-1,-2.8479132E-1,-7.4244715E-2,-3.3259946E-1,4.640766E-1,2.579177E-1,-2.3348486E-1,1.6713165E-2,-1.6816022E-1,-1.5199675E-1,2.054545E-1,-5.1691536E-2,-2.3944002E-1,-3.576591E-2,1.7048648E-1,-2.1812992E-1,-4.5954283E-2,6.823041E-2,-2.037296E-2,9.8376065E-2,-1.7328273E-1,-4.5289103E-2,1.23821676E-1,1.7596437E-2,1.1466465E-1,6.385679E-2,-1.3324481E-1],"categories":[],"categories_nodes":[],"categories_segments":[],"categories_sizes":[],"default_left":[0,0,0,0,0,0,0,0,0,0,0,0,0,0,0,0,0,0,0,0,0,0,0,0,0,0,0,0,0,0,0,0,0,0,0,0,0,0,0,0,0,0,0,0,0,0,0],"id":21,"left_children":[1,3,5,7,9,11,13,15,17,19,-1,21,23,25,-1,27,-1,29,31,33,-1,35,37,39,41,43,45,-1,-1,-1,-1,-1,-1,-1,-1,-1,-1,-1,-1,-1,-1,-1,-1,-1,-1,-1,-1],"loss_changes":[8.27233E0,8.706604E0,9.788362E0,1.5380606E1,9.283009E0,1.1115754E1,7.388744E0,1.0364748E1,1.1945104E1,6.4033985E0,0E0,7.2219E0,6.4197536E0,6.012064E0,0E0,9.208771E0,0E0,4.1734185E0,9.22934E0,3.5784397E0,0E0,9.785009E0,7.899952E0,5.2176037E0,4.3731794E0,7.634288E0,6.399132E0,0E0,0E0,0E0,0E0,0E0,0E0,0E0,0E0,0E0,0E0,0E0,0E0,0E0,0E0,0E0,0E0,0E0,0E0,0E0,0E0],"parents":[2147483647,0,0,1,1,2,2,3,3,4,4,5,5,6,6,7,7,8,8,9,9,11,11,12,12,13,13,15,15,17,17,18,18,19,19,21,21,22,22,23,23,24,24,25,25,26,26],"right_children":[2,4,6,8,10,12,14,16,18,20,-1,22,24,26,-1,28,-1,30,32,34,-1,36,38,40,42,44,46,-1,-1,-1,-1,-1,-1,-1,-1,-1,-1,-1,-1,-1,-1,-1,-1,-1,-1,-1,-1],"split_conditions":[9.531238E-2,2.167108E0,2.4071196E-1,2.0762434E0,1.4785349E0,1.810139E-1,9.776642E1,1.3691192E0,1.5546246E1,2.881831E0,-2.912952E-1,-5.946303E-1,1.0217023E0,1.4168258E1,-3.174763E-1,2.0752262E-1,-3.9748952E-1,1.0846074E1,3.7534595E-1,-2.1483147E0,-1.05268545E-1,9.397876E-1,1.8817711E-1,6.8952156E1,9.640907E-2,9.7680736E-1,8.023665E1,1.6713165E-2,-1.6816022E-1,-1.5199675E-1,2.054545E-1,-5.1691536E-2,-2.3944002E-1,-3.576591E-2,1.7048648E-1,-2.1812992E-1,-4.5954283E-2,6.823041E-2,-2.037296E-2,9.8376065E-2,-1.7328273E-1,-4.5289103E-2,1.23821676E-1,1.7596437E-2,1.1466465E-1,6.385679E-2,-1.3324481E-1],"split_indices":[16,33,16,32,14,7,21,22,24,33,0,34,32,12,0,2,0,24,20,31,0,32,15,21,37,13,21,0,0,0,0,0,0,0,0,0,0,0,0,0,0,0,0,0,0,0,0],"split_type":[0,0,0,0,0,0,0,0,0,0,0,0,0,0,0,0,0,0,0,0,0,0,0,0,0,0,0,0,0,0,0,0,0,0,0,0,0,0,0,0,0,0,0,0,0,0,0],"sum_hessian":[2.669261E3,1.2879429E3,1.3813181E3,1.2423599E3,4.5582962E1,1.194616E3,1.8670212E2,1.1860734E3,5.628646E1,4.395742E1,1.6255381E0,1.1309391E3,6.367683E1,1.850209E2,1.681223E0,1.1843027E3,1.7707186E0,7.2676163E0,4.9018845E1,3.977352E1,4.183902E0,1.9745738E2,9.3348175E2,1.1580258E1,5.2096573E1,1.5646867E2,2.8552227E1,1.1729624E3,1.1340302E1,1.0163202E0,6.251296E0,2.7620613E1,2.139823E1,3.7208645E0,3.6052654E1,1.5560496E1,1.8189688E2,4.7070644E1,8.8641113E2,4.303315E0,7.2769427E0,7.4472537E0,4.464932E1,9.729461E1,5.9174065E1,1.2089321E1,1.6462906E1],"tree_param":{"num_deleted":"0","num_feature":"39","num_nodes":"47","size_leaf_vector":"1"}},{"base_weights":[-4.045681E-3,-3.279846E-1,9.77309E-3,-5.8627516E-1,1.0262343E-1,1.06440715E-1,-2.9984262E-2,-4.269475E-1,-1.6094104E0,5.9854203E-1,-2.5574988E-1,1.9802709E-1,-1.351739E-1,-3.1616458E-1,-1.1891874E-2,-5.6274456E-1,1.4191268E-1,6.1561592E-2,-1.9340762E0,-5.234977E-1,1.9972809E-1,-6.456938E-1,5.630031E-1,1.6320021E-1,6.4934915E-1,-4.2224256E-4,-5.6690484E-1,-8.6461776E-1,-1.22966915E-1,1.0300307E-1,-6.029839E-2,-9.2380226E-2,-3.654995E-1,-4.7684345E-1,-2.0485532E-2,7.975303E-2,-3.462168E-1,-3.0991036E-1,-2.6509443E-2,-1.7368084E-1,2.0154126E-1,1.4083102E-2,7.10053E-2,-1.844926E-1,1.5522252E-1,-1.1372262E-1,3.6127143E-2,9.330642E-2,-1.7475861E-1,-2.6340988E-1,9.207053E-2,8.186016E-2,-9.519476E-2,1.0741475E-2,1.0322163E-1,-2.9049084E-2,8.215262E-3],"categories":[],"categories_nodes":[],"categories_segments":[],"categories_sizes":[],"default_left":[0,0,0,0,0,0,0,0,0,0,0,0,0,0,0,0,0,0,0,0,0,0,0,0,0,0,0,0,0,0,0,0,0,0,0,0,0,0,0,0,0,0,0,0,0,0,0,0,0,0,0,0,0,0,0,0,0],"id":22,"left_children":[1,3,5,7,9,11,13,15,17,19,21,23,25,27,29,31,-1,-1,33,35,-1,37,39,41,43,45,47,49,51,53,55,-1,-1,-1,-1,-1,-1,-1,-1,-1,-1,-1,-1,-1,-1,-1,-1,-1,-1,-1,-1,-1,-1,-1,-1,-1,-1],"loss_changes":[1.1900188E1,1.2206027E1,9.783497E0,1.0240141E1,7.560574E0,1.6452179E1,9.292723E0,9.350082E0,6.1195908E0,7.3135147E0,8.247117E0,8.280815E0,1.1825144E1,1.1108343E1,9.434831E0,7.1451244E0,0E0,0E0,3.834919E0,5.3934536E0,0E0,6.9406605E0,5.2264853E0,8.225603E0,5.1961956E0,1.4353644E1,1.2732509E1,1.3889923E1,1.3367545E1,1.0003581E1,9.000517E0,0E0,0E0,0E0,0E0,0E0,0E0,0E0,0E0,0E0,0E0,0E0,0E0,0E0,0E0,0E0,0E0,0E0,0E0,0E0,0E0,0E0,0E0,0E0,0E0,0E0,0E0],"parents":[2147483647,0,0,1,1,2,2,3,3,4,4,5,5,6,6,7,7,8,8,9,9,10,10,11,11,12,12,13,13,14,14,15,15,18,18,19,19,21,21,22,22,23,23,24,24,25,25,26,26,27,27,28,28,29,29,30,30],"right_children":[2,4,6,8,10,12,14,16,18,20,22,24,26,28,30,32,-1,-1,34,36,-1,38,40,42,44,46,48,50,52,54,56,-1,-1,-1,-1,-1,-1,-1,-1,-1,-1,-1,-1,-1,-1,-1,-1,-1,-1,-1,-1,-1,-1,-1,-1,-1,-1],"split_conditions":[5.5342287E-1,4.1001475E-1,1.4272152E0,3.3690014E0,8.027936E-1,7.0946735E-1,1.5068077E0,2.677075E0,4.0386146E-1,-4.969399E-1,1.769879E0,-4.5141828E-1,5.4064007E1,4.452048E1,4.360998E1,6.253654E-1,1.4191268E-1,6.1561592E-2,2.578098E0,1.2148348E0,1.9972809E-1,6.551956E-2,1.423E1,3.4730396E0,-4.531798E-1,-6.784221E-2,4.9739452E1,1.2977609E-1,5.078179E-2,6.7640585E-3,7.0911086E-1,-9.2380226E-2,-3.654995E-1,-4.7684345E-1,-2.0485532E-2,7.975303E-2,-3.462168E-1,-3.0991036E-1,-2.6509443E-2,-1.7368084E-1,2.0154126E-1,1.4083102E-2,7.10053E-2,-1.844926E-1,1.5522252E-1,-1.1372262E-1,3.6127143E-2,9.330642E-2,-1.7475861E-1,-2.6340988E-1,9.207053E-2,8.186016E-2,-9.519476E-2,1.0741475E-2,1.0322163E-1,-2.9049084E-2,8.215262E-3],"split_indices":[17,31,9,27,31,31,9,9,17,20,31,18,19,11,11,22,0,0,23,9,0,16,29,17,10,28,21,16,14,14,8,0,0,0,0,0,0,0,0,0,0,0,0,0,0,0,0,0,0,0,0,0,0,0,0,0,0],"split_type":[0,0,0,0,0,0,0,0,0,0,0,0,0,0,0,0,0,0,0,0,0,0,0,0,0,0,0,0,0,0,0,0,0,0,0,0,0,0,0,0,0,0,0,0,0,0,0,0,0,0,0,0,0,0,0,0,0],"sum_hessian":[2.6495813E3,1.0776894E2,2.5418123E3,6.728204E1,4.0486897E1,7.409863E2,1.8008259E3,5.952721E1,7.754836E0,1.6820074E1,2.366682E1,5.377436E2,2.0324269E2,1.05770805E2,1.6950552E3,5.3462807E1,6.064403E0,1.1035835E0,6.6512527E0,3.7094152E0,1.311066E1,1.6257458E1,7.4093623E0,5.0069037E2,3.7053265E1,1.5583588E2,4.7406815E1,2.6512815E1,7.925799E1,5.015088E2,1.1935464E3,4.939837E1,4.064437E0,5.4718304E0,1.1794223E0,2.3576841E0,1.3517311E0,5.591973E0,1.0665485E1,1.309637E0,6.0997252E0,3.200592E2,1.8063115E2,1.2885253E0,3.576474E1,3.7288776E1,1.1854709E2,9.325136E0,3.8081676E1,2.069838E1,5.814436E0,3.0695932E1,4.8562054E1,4.4200778E2,5.9501003E1,6.748538E2,5.1869257E2],"tree_param":{"num_deleted":"0","num_feature":"39","num_nodes":"57","size_leaf_vector":"1"}},{"base_weights":[1.8919028E-2,2.122105E-1,7.981172E-3,2.4299033E-1,-2.916227E-1,3.7653497E-1,-9.761742E-5,-7.411236E-2,4.3248194E-1,-3.285723E-1,5.1675576E-1,-7.7053714E-1,7.2273253E-3,3.6845338E-1,-6.946998E-1,4.8167464E-1,-1.7867763E-1,2.9163775E-1,-8.924045E-1,5.799679E-1,-1.8975167E-1,-1.1102295E0,2.7853402E-1,-1.8647249E-3,2.193061E-1,1.7287087E-1,-2.1409074E-2,1.4491536E-1,-2.3035799E-1,-1.2227884E-2,1.2899706E-1,-1.2762858E-1,2.0523724E-1,-3.6817262E-1,-0E0,9.332904E-3,1.7596288E-1,-3.120275E-1,-0E0,-1.6639946E-1,1.8397917E-1,4.3471563E-3,-3.8931835E-2,-2.7315345E-1,6.362198E-2],"categories":[],"categories_nodes":[],"categories_segments":[],"categories_sizes":[],"default_left":[0,0,0,0,0,0,0,0,0,0,0,0,0,0,0,0,0,0,0,0,0,0,0,0,0,0,0,0,0,0,0,0,0,0,0,0,0,0,0,0,0,0,0,0,0],"id":23,"left_children":[1,3,5,7,-1,9,11,13,15,17,19,21,23,25,27,29,-1,31,33,35,-1,37,39,41,43,-1,-1,-1,-1,-1,-1,-1,-1,-1,-1,-1,-1,-1,-1,-1,-1,-1,-1,-1,-1],"loss_changes":[5.6737E0,7.2191668E0,7.6363006E0,8.598253E0,0E0,5.6272097E0,1.4179366E1,1.5053232E1,5.947357E0,3.683507E0,4.613241E0,8.825417E0,4.795236E0,6.7902894E0,1.2912329E1,5.8755093E0,0E0,3.755667E0,4.083548E0,5.8247957E0,0E0,7.127178E0,4.7239842E0,9.586978E0,1.2471255E1,0E0,0E0,0E0,0E0,0E0,0E0,0E0,0E0,0E0,0E0,0E0,0E0,0E0,0E0,0E0,0E0,0E0,0E0,0E0,0E0],"parents":[2147483647,0,0,1,1,2,2,3,3,5,5,6,6,7,7,8,8,9,9,10,10,11,11,12,12,13,13,14,14,15,15,17,17,18,18,19,19,21,21,22,22,23,23,24,24],"right_children":[2,4,6,8,-1,10,12,14,16,18,20,22,24,26,28,30,-1,32,34,36,-1,38,40,42,44,-1,-1,-1,-1,-1,-1,-1,-1,-1,-1,-1,-1,-1,-1,-1,-1,-1,-1,-1,-1],"split_conditions":[-5.6338296E0,1.0727959E2,-3.6979327E0,9.120586E0,-2.916227E-1,-1.6986418E0,-6.082852E0,7.3798823E0,7.23092E1,4.350045E1,2.3535829E0,6.932996E-1,8.453885E1,1.2375677E1,-1.9709259E0,1.2863457E1,-1.7867763E-1,1.7291262E1,-2.2097902E1,-2.9424E-1,-1.8975167E-1,-4.232149E0,-3.0615127E-1,5.4101133E0,1.5819331E1,1.7287087E-1,-2.1409074E-2,1.4491536E-1,-2.3035799E-1,-1.2227884E-2,1.2899706E-1,-1.2762858E-1,2.0523724E-1,-3.6817262E-1,-0E0,9.332904E-3,1.7596288E-1,-3.120275E-1,-0E0,-1.6639946E-1,1.8397917E-1,4.3471563E-3,-3.8931835E-2,-2.7315345E-1,6.362198E-2],"split_indices":[13,19,30,17,0,31,12,17,11,19,20,31,11,19,8,21,0,19,18,20,0,28,10,28,19,0,0,0,0,0,0,0,0,0,0,0,0,0,0,0,0,0,0,0,0],"split_type":[0,0,0,0,0,0,0,0,0,0,0,0,0,0,0,0,0,0,0,0,0,0,0,0,0,0,0,0,0,0,0,0,0,0,0,0,0,0,0,0,0,0,0,0,0],"sum_hessian":[2.6938386E3,1.4279803E2,2.5510408E3,1.4096382E2,1.8342149E0,5.4007183E1,2.4970334E3,5.2757877E1,8.820594E1,8.617459E0,4.538972E1,2.2664207E1,2.4743694E3,3.0939106E1,2.181877E1,8.55938E1,2.6121347E0,4.249E0,4.368459E0,4.4069683E1,1.3200394E0,1.7148499E1,5.5157104E0,2.3731494E3,1.0121985E2,1.5641425E1,1.5297682E1,4.566678E0,1.7252092E1,1.5950296E1,6.964351E1,1.8094374E0,2.4395626E0,1.7977318E0,2.5707273E0,1.4364903E1,2.970478E1,1.2745294E1,4.403204E0,1.7823375E0,3.7333727E0,2.113297E3,2.5985233E2,4.258215E0,9.696163E1],"tree_param":{"num_deleted":"0","num_feature":"39","num_nodes":"45","size_leaf_vector":"1"}},{"base_weights":[1.4242123E-2,1.23736896E-1,-1.6000573E-2,1.4732176E-1,-7.881512E-1,7.253753E-2,-5.6299105E-2,1.782013E-2,3.0100098E-1,6.354416E-2,-1.4260318E0,-3.3602845E-2,2.8235796E-1,-4.5602858E-1,-3.9167464E-2,7.936907E-2,-5.104484E-1,-6.161576E-1,3.306044E-1,-2.6450983E-1,2.0517637E-1,2.067318E-2,-4.3255535E-1,3.548676E-1,-8.078878E-2,3.1695962E-1,-1.2052352E0,-6.907488E-2,-1.0488162E0,-4.9533844E-2,3.7527907E-1,-1.09466486E-1,2.9824536E-2,-2.140018E-1,3.519588E-2,-3.2853645E-1,4.6325225E-2,7.537424E-2,-1.6168512E-1,-6.694113E-2,1.275385E-1,-5.537098E-2,1.0421479E-2,4.3140322E-2,1.245517E-1,-3.8819665E-1,1.601588E-2,-1.3084413E-1,1.302453E-1,1.1453359E-1,-2.9724476E-1,-8.497545E-3,-1.2933385E-1,-2.5240597E-1,1.06656715E-1],"categories":[],"categories_nodes":[],"categories_segments":[],"categories_sizes":[],"default_left":[0,0,0,0,0,0,0,0,0,0,0,0,0,0,0,0,0,0,0,0,0,0,0,0,0,0,0,0,0,0,0,0,0,0,0,0,0,0,0,0,0,0,0,0,0,0,0,0,0,0,0,0,0,0,0],"id":24,"left_children":[1,3,5,7,9,11,13,15,17,19,21,23,25,27,29,31,33,35,37,-1,-1,-1,-1,39,41,43,45,47,49,51,53,-1,-1,-1,-1,-1,-1,-1,-1,-1,-1,-1,-1,-1,-1,-1,-1,-1,-1,-1,-1,-1,-1,-1,-1],"loss_changes":[8.836071E0,1.2472134E1,7.4524083E0,1.1185081E1,8.164343E0,1.4571754E1,9.768084E0,9.993357E0,7.1653366E0,9.562081E0,8.1860485E0,7.957742E0,1.16021595E1,1.3278463E1,5.9087276E0,9.980231E0,1.0952204E1,6.8721933E0,6.5701714E0,0E0,0E0,0E0,0E0,7.882331E0,9.053482E0,6.408167E0,4.3718066E0,1.3987315E1,1.3491638E1,7.146692E0,7.0866356E0,0E0,0E0,0E0,0E0,0E0,0E0,0E0,0E0,0E0,0E0,0E0,0E0,0E0,0E0,0E0,0E0,0E0,0E0,0E0,0E0,0E0,0E0,0E0,0E0],"parents":[2147483647,0,0,1,1,2,2,3,3,4,4,5,5,6,6,7,7,8,8,9,9,10,10,11,11,12,12,13,13,14,14,15,15,16,16,17,17,18,18,23,23,24,24,25,25,26,26,27,27,28,28,29,29,30,30],"right_children":[2,4,6,8,10,12,14,16,18,20,22,24,26,28,30,32,34,36,38,-1,-1,-1,-1,40,42,44,46,48,50,52,54,-1,-1,-1,-1,-1,-1,-1,-1,-1,-1,-1,-1,-1,-1,-1,-1,-1,-1,-1,-1,-1,-1,-1,-1],"split_conditions":[2.1269855E1,1.4490787E2,-1.883509E-1,2.7434927E1,4.5197304E1,6.198565E-1,-1.2771462E-1,7.091678E-1,-1.4578612E0,1.8125961E0,2.0856376E0,-4.70457E0,5.6818184E-2,1.4888526E0,2.3175341E-1,-2.5560976E1,6.454473E1,8.454753E-1,2.4393759E0,-2.6450983E-1,2.0517637E-1,2.067318E-2,-4.3255535E-1,-8.791758E0,1.604E1,4.4847317E1,6.555442E1,1.1974897E0,-9.653439E-1,2.26015E-1,5.837491E-1,-1.09466486E-1,2.9824536E-2,-2.140018E-1,3.519588E-2,-3.2853645E-1,4.6325225E-2,7.537424E-2,-1.6168512E-1,-6.694113E-2,1.275385E-1,-5.537098E-2,1.0421479E-2,4.3140322E-2,1.245517E-1,-3.8819665E-1,1.601588E-2,-1.3084413E-1,1.302453E-1,1.1453359E-1,-2.9724476E-1,-8.497545E-3,-1.2933385E-1,-2.5240597E-1,1.06656715E-1],"split_indices":[24,19,22,19,26,31,22,22,34,13,33,13,4,33,37,18,26,20,23,0,0,0,0,13,29,24,19,32,20,0,32,0,0,0,0,0,0,0,0,0,0,0,0,0,0,0,0,0,0,0,0,0,0,0,0],"split_type":[0,0,0,0,0,0,0,0,0,0,0,0,0,0,0,0,0,0,0,0,0,0,0,0,0,0,0,0,0,0,0,0,0,0,0,0,0,0,0,0,0,0,0,0,0,0,0,0,0,0,0,0,0,0,0],"sum_hessian":[2.663514E3,5.764978E2,2.087016E3,5.628875E2,1.3610287E1,6.5176685E2,1.4352493E3,3.064318E2,2.5645572E2,6.146766E0,7.4635205E0,4.3306073E2,2.187061E2,5.769134E1,1.3775579E3,2.753855E2,3.1046307E1,7.293717E0,2.49162E2,2.307513E0,3.839253E0,2.3127794E0,5.150741E0,4.5969006E1,3.870917E2,2.1456934E2,4.136764E0,3.5683475E1,2.2007866E1,1.3450367E3,3.2521084E1,2.4695328E1,2.5069017E2,1.7734703E1,1.3311603E1,3.1090195E0,4.1846976E0,2.4470451E2,4.4574943E0,1.2093187E1,3.387582E1,1.6246095E2,2.2463077E2,1.51826E2,6.2743332E1,2.558204E0,1.5785602E0,1.9947298E1,1.5736178E1,3.7962804E0,1.8211584E1,1.3234125E3,2.1624302E1,1.7324382E0,3.0788647E1],"tree_param":{"num_deleted":"0","num_feature":"39","num_nodes":"55","size_leaf_vector":"1"}},{"base_weights":[1.0324782E-2,-2.2712934E-1,2.200552E-2,-3.1897612E-2,-4.5978406E-1,-1.223743E-1,4.3841578E-2,-5.9156567E-1,2.5047135E-1,-5.474949E-1,1.7275888E-1,-1.7626771E-1,4.3596676E-1,5.1375035E-2,-5.2170587E-1,-1.2763503E-1,-1.384287E0,-2.0726506E-1,3.7578523E-1,-6.1940587E-1,1.8901736E-1,-2.2489045E-2,-3.7037423E-1,5.637316E-1,-2.782084E-1,6.0650773E-2,-2.5069705E-1,-1.3007399E0,-1.635202E-1,4.2375367E-2,-2.393412E-1,-3.6953843E-1,-1.2604139E-2,2.4673437E-1,3.2661427E-2,-5.1054135E-2,-2.1340296E-1,5.699821E-3,-2.8453267E-1,-9.3894176E-2,1.5639305E-1,1.9605544E-1,-3.0872207E-3,1.0974233E-1,1.1102691E-2,-9.207944E-2,5.7621073E-2,-4.282956E-1,-0E0,2.512107E-2,-2.750667E-1],"categories":[],"categories_nodes":[],"categories_segments":[],"categories_sizes":[],"default_left":[0,0,0,0,0,0,0,0,0,0,0,0,0,0,0,0,0,0,0,0,0,0,0,0,0,0,0,0,0,0,0,0,0,0,0,0,0,0,0,0,0,0,0,0,0,0,0,0,0,0,0],"id":25,"left_children":[1,3,5,7,9,11,13,15,17,19,-1,21,23,25,27,29,31,-1,33,35,-1,37,39,41,-1,43,45,47,49,-1,-1,-1,-1,-1,-1,-1,-1,-1,-1,-1,-1,-1,-1,-1,-1,-1,-1,-1,-1,-1,-1],"loss_changes":[7.321752E0,5.5554986E0,7.9506097E0,1.1019518E1,6.6754303E0,1.0012947E1,9.321299E0,8.282471E0,7.3840485E0,6.0108013E0,0E0,8.990749E0,7.1764297E0,6.0619507E0,7.659821E0,5.504375E0,3.6497612E0,0E0,7.11939E0,7.086649E0,0E0,1.118189E1,1.0682062E1,5.883341E0,0E0,8.060509E0,6.2258806E0,8.183594E0,6.910096E0,0E0,0E0,0E0,0E0,0E0,0E0,0E0,0E0,0E0,0E0,0E0,0E0,0E0,0E0,0E0,0E0,0E0,0E0,0E0,0E0,0E0,0E0],"parents":[2147483647,0,0,1,1,2,2,3,3,4,4,5,5,6,6,7,7,8,8,9,9,11,11,12,12,13,13,14,14,15,15,16,16,18,18,19,19,21,21,22,22,23,23,25,25,26,26,27,27,28,28],"right_children":[2,4,6,8,10,12,14,16,18,20,-1,22,24,26,28,30,32,-1,34,36,-1,38,40,42,-1,44,46,48,50,-1,-1,-1,-1,-1,-1,-1,-1,-1,-1,-1,-1,-1,-1,-1,-1,-1,-1,-1,-1,-1,-1],"split_conditions":[5.7217205E-1,2.873841E-2,-1.3516425E0,-2.4988727E-1,2.6097074E0,1.653384E-1,2.1575171E-1,3.2146416E1,-7.824012E-1,-3.4430847E-1,1.7275888E-1,-2.2648075E0,1.8621694E-1,1.7951542E0,5.342959E1,-1.3649201E1,-1.1438247E-1,-2.0726506E-1,-8.292829E1,-1.436088E1,1.8901736E-1,5.217732E-1,2.475997E0,8.630431E0,-2.782084E-1,-4.221799E1,5.1332783E1,1.6129032E-1,-1.064085E0,4.2375367E-2,-2.393412E-1,-3.6953843E-1,-1.2604139E-2,2.4673437E-1,3.2661427E-2,-5.1054135E-2,-2.1340296E-1,5.699821E-3,-2.8453267E-1,-9.3894176E-2,1.5639305E-1,1.9605544E-1,-3.0872207E-3,1.0974233E-1,1.1102691E-2,-9.207944E-2,5.7621073E-2,-4.282956E-1,-0E0,2.512107E-2,-2.750667E-1],"split_indices":[17,22,14,35,32,6,2,24,22,18,0,14,38,34,11,18,12,0,25,18,0,22,23,17,0,18,24,4,18,0,0,0,0,0,0,0,0,0,0,0,0,0,0,0,0,0,0,0,0,0,0],"split_type":[0,0,0,0,0,0,0,0,0,0,0,0,0,0,0,0,0,0,0,0,0,0,0,0,0,0,0,0,0,0,0,0,0,0,0,0,0,0,0,0,0,0,0,0,0,0,0,0,0,0,0],"sum_hessian":[2.644357E3,1.22715034E2,2.5216418E3,6.7575836E1,5.51392E1,3.3006583E2,2.1915762E3,2.241246E1,4.5163376E1,5.21854E1,2.9537997E0,3.0179837E2,2.8267439E1,2.1638384E3,2.773774E1,1.4950195E1,7.462266E0,3.4931972E0,4.1670177E1,5.030248E1,1.882921E0,1.6930191E2,1.3249646E2,2.7019651E1,1.2477883E0,2.1004695E3,6.336893E1,7.81969E0,1.9918049E1,1.1785736E1,3.1644588E0,5.5966253E0,1.8656404E0,8.192134E0,3.3478043E1,2.6190163E1,2.4112314E1,1.640536E2,5.2483172E0,1.25203445E2,7.293018E0,1.6451534E1,1.0568116E1,3.7358856E1,2.0631106E3,4.72639E1,1.6105032E1,4.7147036E0,3.1049867E0,1.6585838E1,3.3322098E0],"tree_param":{"num_deleted":"0","num_feature":"39","num_nodes":"51","size_leaf_vector":"1"}},{"base_weights":[1.8649701E-2,2.2861434E-2,-1.3593601E0,-5.042536E-1,2.8555622E-2,-4.2924348E-1,4.273315E-2,-1.3075897E0,6.049402E-1,8.343133E-2,-1.4523156E-2,-1.5668287E0,-0E0,-2.6815295E-1,2.0984577E-1,9.94757E-2,-6.205138E-1,-4.203823E-2,1.97049E-1,3.7534332E-3,-3.8779044E-1,1.0623472E-2,5.671788E-2,-3.5265738E-1,-4.5532208E-2,-5.679431E-3,-1.1673969E-1,5.1554672E-2,-1.4763144E-1],"categories":[],"categories_nodes":[],"categories_segments":[],"categories_sizes":[],"default_left":[0,0,0,0,0,0,0,0,0,0,0,0,0,0,0,0,0,0,0,0,0,0,0,0,0,0,0,0,0],"id":26,"left_children":[1,3,5,7,9,-1,-1,11,13,15,17,19,-1,-1,-1,21,23,25,27,-1,-1,-1,-1,-1,-1,-1,-1,-1,-1],"loss_changes":[1.5093943E1,7.805066E0,8.691684E0,2.5610077E1,6.118211E0,0E0,0E0,5.4739532E0,9.928904E0,1.2861076E1,8.421076E0,5.7234E0,0E0,0E0,0E0,9.167826E0,1.0135044E1,9.905096E0,6.7859664E0,0E0,0E0,0E0,0E0,0E0,0E0,0E0,0E0,0E0,0E0],"parents":[2147483647,0,0,1,1,2,2,3,3,4,4,7,7,8,8,9,9,10,10,11,11,15,15,16,16,17,17,18,18],"right_children":[2,4,6,8,10,-1,-1,12,14,16,18,20,-1,-1,-1,22,24,26,28,-1,-1,-1,-1,-1,-1,-1,-1,-1,-1],"split_conditions":[3.4305328E-1,-4.8167095E0,1.547027E0,2.5914705E-1,3.0162426E1,-4.2924348E-1,4.273315E-2,5.3380406E-1,7.4357157E0,7.20831E-1,2.3180886E-1,1.9223561E0,-0E0,-2.6815295E-1,2.0984577E-1,6.334832E1,1.0965325E0,3.095939E0,6.0607867E0,3.7534332E-3,-3.8779044E-1,1.0623472E-2,5.671788E-2,-3.5265738E-1,-4.5532208E-2,-5.679431E-3,-1.1673969E-1,5.1554672E-2,-1.4763144E-1],"split_indices":[37,30,8,16,24,0,0,12,17,3,16,9,0,0,0,11,32,30,30,0,0,0,0,0,0,0,0,0,0],"split_type":[0,0,0,0,0,0,0,0,0,0,0,0,0,0,0,0,0,0,0,0,0,0,0,0,0,0,0,0,0],"sum_hessian":[2.617369E3,2.6104463E3,6.9225597E0,2.6774708E1,2.5836716E3,4.7132416E0,2.2093184E0,1.5476854E1,1.1297853E1,1.1368654E3,1.4468062E3,1.2705328E1,2.771527E0,1.478233E0,9.819621E0,1.1125096E3,2.4355654E1,1.2814296E3,1.6537665E2,1.82815E0,1.0877177E1,8.589855E2,2.535242E2,5.934995E0,1.8420658E1,1.2448589E3,3.657067E1,1.5822005E2,7.156599E0],"tree_param":{"num_deleted":"0","num_feature":"39","num_nodes":"29","size_leaf_vector":"1"}},{"base_weights":[7.1307616E-3,1.4335075E-1,-2.6109124E-2,-3.5111597E-1,1.6839032E-1,3.8157603E-1,-3.7644897E-2,1.0759747E-1,-9.758147E-1,1.131587E-1,4.0303645E-1,-1.744302E-1,5.007512E-1,-6.906906E-2,9.937071E-2,-1.8265256E-1,1.0937476E-1,-1.743222E-2,-3.9514905E-1,1.3114807E-1,8.120962E-2,5.4830027E-1,-1.8973224E-1,5.9166783E-1,-7.4902683E-1,-3.1212732E-1,-4.408635E-2,2.1494249E-1,-1.24378264E-1,1.6761526E-1,-2.077092E-1,-9.4579466E-2,2.7741103E-2,1.5382076E-2,2.0268266E-1,3.5490017E-2,-2.856837E-1,1.4074527E-1,-1.4038219E-1,-3.5113552E-1,1.519822E-1,1.8364124E-2,-9.447123E-2,1.6055902E-2,-1.8251307E-2,-1.4677465E-1,5.5223186E-2,7.188552E-2,-6.0107663E-2],"categories":[],"categories_nodes":[],"categories_segments":[],"categories_sizes":[],"default_left":[0,0,0,0,0,0,0,0,0,0,0,0,0,0,0,0,0,0,0,0,0,0,0,0,0,0,0,0,0,0,0,0,0,0,0,0,0,0,0,0,0,0,0,0,0,0,0,0,0],"id":27,"left_children":[1,3,5,7,9,11,13,15,17,19,21,-1,23,25,27,-1,-1,29,-1,-1,31,33,35,37,39,41,43,45,47,-1,-1,-1,-1,-1,-1,-1,-1,-1,-1,-1,-1,-1,-1,-1,-1,-1,-1,-1,-1],"loss_changes":[1.1960108E1,6.45669E0,9.954002E0,7.386649E0,6.3060293E0,8.706272E0,8.888818E0,6.3939486E0,8.900784E0,6.3297863E0,8.182733E0,0E0,6.523363E0,1.0150715E1,9.986352E0,0E0,0E0,5.594978E0,0E0,0E0,9.78701E0,1.43070755E1,8.134064E0,4.813175E0,6.5384116E0,8.240758E0,7.5853333E0,1.0328833E1,9.667616E0,0E0,0E0,0E0,0E0,0E0,0E0,0E0,0E0,0E0,0E0,0E0,0E0,0E0,0E0,0E0,0E0,0E0,0E0,0E0,0E0],"parents":[2147483647,0,0,1,1,2,2,3,3,4,4,5,5,6,6,7,7,8,8,9,9,10,10,12,12,13,13,14,14,17,17,20,20,21,21,22,22,23,23,24,24,25,25,26,26,27,27,28,28],"right_children":[2,4,6,8,10,12,14,16,18,20,22,-1,24,26,28,-1,-1,30,-1,-1,32,34,36,38,40,42,44,46,48,-1,-1,-1,-1,-1,-1,-1,-1,-1,-1,-1,-1,-1,-1,-1,-1,-1,-1,-1,-1],"split_conditions":[1.374E1,-7.382576E-1,-8.2E-3,-1.0166978E0,1.348E1,-1.4144621E1,1.3604237E0,-2.6546216E0,-7.9813075E-1,1.8817711E-1,-1.4550935E0,-1.744302E-1,-3.16E-3,1.432E1,7.1364255E0,-1.8265256E-1,1.0937476E-1,-9.015458E1,-3.9514905E-1,1.3114807E-1,3.40276E1,2.0290134E1,1.1937313E0,5.5971462E-2,4.3764215E0,-7.4027824E-1,-7.0998627E-1,-2.895122E0,-1.3196125E0,1.6761526E-1,-2.077092E-1,-9.4579466E-2,2.7741103E-2,1.5382076E-2,2.0268266E-1,3.5490017E-2,-2.856837E-1,1.4074527E-1,-1.4038219E-1,-3.5113552E-1,1.519822E-1,1.8364124E-2,-9.447123E-2,1.6055902E-2,-1.8251307E-2,-1.4677465E-1,5.5223186E-2,7.188552E-2,-6.0107663E-2],"split_indices":[29,34,6,34,29,13,31,14,30,15,18,0,36,29,17,0,0,25,0,0,21,19,14,2,12,8,13,13,8,0,0,0,0,0,0,0,0,0,0,0,0,0,0,0,0,0,0,0,0],"split_type":[0,0,0,0,0,0,0,0,0,0,0,0,0,0,0,0,0,0,0,0,0,0,0,0,0,0,0,0,0,0,0,0,0,0,0,0,0,0,0,0,0,0,0,0,0,0,0,0,0],"sum_hessian":[2.6369875E3,5.171906E2,2.119797E3,2.4107798E1,4.930828E2,5.7209595E1,2.0625874E3,1.4285618E1,9.82218E0,4.0067847E2,9.240433E1,4.560386E0,5.2649208E1,1.6787877E3,3.837997E2,3.8269994E0,1.0458618E1,5.2422695E0,4.5799103E0,2.2670414E1,3.7800806E2,7.441252E1,1.7991806E1,4.9644363E1,3.0048444E0,1.5502676E2,1.523761E3,2.5339917E2,1.3040054E2,2.889456E0,2.3528132E0,3.1411514E1,3.4659653E2,3.4779484E1,3.9633034E1,1.4326653E1,3.6651542E0,4.756771E1,2.0766523E0,1.8241723E0,1.1806723E0,3.834995E1,1.1667681E2,3.9272852E2,1.1310325E3,1.1057369E1,2.4234181E2,3.275818E1,9.764237E1],"tree_param":{"num_deleted":"0","num_feature":"39","num_nodes":"49","size_leaf_vector":"1"}},{"base_weights":[3.4865956E-3,-1.8573461E-2,1.2809108E-1,-8.9925075E-1,-1.337758E-2,1.5617433E-1,-8.789792E-1,1.0274523E-1,-1.4260088E0,-1.5584517E-3,-3.773503E-1,1.0167093E-1,6.1867684E-1,4.9201634E-2,-4.220483E-1,9.297867E-2,-1.7251904E0,-2.0143593E-2,1.7710869E-1,2.5242904E-1,-5.988736E-1,1.9067065E-1,-1.4862731E-1,7.3204833E-1,-1.9750823E-1,-2.1919802E-2,-4.4990557E-1,-1.9344928E-2,8.019037E-3,5.4838624E-2,-1.2509605E-1,-2.8154406E-1,1.20062426E-1,1.4567368E-2,-1.777317E-1,1.0785721E-2,1.22841954E-1,-1.1265564E-1,5.1586702E-2,3.117252E-3,2.097423E-1],"categories":[],"categories_nodes":[],"categories_segments":[],"categories_sizes":[],"default_left":[0,0,0,0,0,0,0,0,0,0,0,0,0,0,0,0,0,0,0,0,0,0,0,0,0,0,0,0,0,0,0,0,0,0,0,0,0,0,0,0,0],"id":28,"left_children":[1,3,5,7,9,11,13,-1,15,17,19,21,23,-1,-1,-1,25,27,29,31,33,35,37,39,-1,-1,-1,-1,-1,-1,-1,-1,-1,-1,-1,-1,-1,-1,-1,-1,-1],"loss_changes":[7.2869587E0,1.0184742E1,1.1344255E1,1.0286287E1,9.581518E0,9.66952E0,1.3939351E1,0E0,6.3202972E0,7.184139E0,9.960318E0,7.8143864E0,7.7773266E0,0E0,0E0,0E0,4.9967785E0,8.032487E0,1.2634962E1,9.88928E0,8.3451805E0,1.3878933E1,1.381448E1,6.8563614E0,0E0,0E0,0E0,0E0,0E0,0E0,0E0,0E0,0E0,0E0,0E0,0E0,0E0,0E0,0E0,0E0,0E0],"parents":[2147483647,0,0,1,1,2,2,3,3,4,4,5,5,6,6,8,8,9,9,10,10,11,11,12,12,16,16,17,17,18,18,19,19,20,20,21,21,22,22,23,23],"right_children":[2,4,6,8,10,12,14,-1,16,18,20,22,24,-1,-1,-1,26,28,30,32,34,36,38,40,-1,-1,-1,-1,-1,-1,-1,-1,-1,-1,-1,-1,-1,-1,-1,-1,-1],"split_conditions":[5.170175E1,-7.5548284E-2,4.5421133E0,-4.4817376E0,4.9257126E1,1.9429562E0,7.730781E-1,1.0274523E-1,-1.0692205E0,4.4177563E1,-3.3641657E-1,4.8548517E0,7.2926445E1,4.9201634E-2,-4.220483E-1,9.297867E-2,4.354911E1,-3.072413E-1,8.694183E0,-8.180084E-1,1.2238535E0,7.978634E1,7.543311E-1,-1.507646E-1,-1.9750823E-1,-2.1919802E-2,-4.4990557E-1,-1.9344928E-2,8.019037E-3,5.4838624E-2,-1.2509605E-1,-2.8154406E-1,1.20062426E-1,1.4567368E-2,-1.777317E-1,1.0785721E-2,1.22841954E-1,-1.1265564E-1,5.1586702E-2,3.117252E-3,2.097423E-1],"split_indices":[24,36,31,13,24,31,15,0,20,24,34,28,24,0,0,0,26,20,27,22,9,21,35,34,0,0,0,0,0,0,0,0,0,0,0,0,0,0,0,0,0],"split_type":[0,0,0,0,0,0,0,0,0,0,0,0,0,0,0,0,0,0,0,0,0,0,0,0,0,0,0,0,0,0,0,0,0,0,0,0,0,0,0,0,0],"sum_hessian":[2.6451274E3,2.2473105E3,3.9781686E2,1.2058955E1,2.2352515E3,3.8794287E2,9.873988E0,3.299414E0,8.7595415E0,2.166189E3,6.906268E1,3.483301E2,3.9612766E1,5.268946E0,4.605042E0,1.1025324E0,7.657009E0,1.9634009E3,2.0278802E2,1.7817503E1,5.1245182E1,2.5743167E2,9.0898445E1,3.7457024E1,2.1557431E0,1.7685256E0,5.888483E0,8.8375305E2,1.0796478E3,1.8421835E2,1.8569674E1,2.3522108E0,1.5465292E1,1.3444466E1,3.7800716E1,1.8992867E2,6.7503006E1,4.602143E1,4.487701E1,1.0134398E1,2.7322626E1],"tree_param":{"num_deleted":"0","num_feature":"39","num_nodes":"41","size_leaf_vector":"1"}},{"base_weights":[2.271915E-3,-4.6846515E-1,8.906454E-3,-1.0284053E0,2.782357E-1,2.9881561E-2,-1.3794875E-1,-1.5274454E0,1.9486947E-1,-8.350186E-1,5.893172E-1,5.3330954E-2,-1.3071816E-1,4.7874197E-1,-1.946046E-1,-8.926841E-2,-1.929804E0,1.5338111E-1,-1.6696554E-1,6.1424058E-2,-3.2810083E-1,-1.6499121E-1,8.1272E-1,-4.2947686E-1,6.588629E-2,-1.8549411E-1,5.774933E-1,6.965264E-1,-3.3517253E-1,-4.6979234E-1,-8.2250364E-2,1.8886445E-1,-1.725849E-1,-0E0,-4.622863E-1,2.1171363E-1,-1.1111431E-1,-2.7270788E-1,-4.7477316E-2,1.2252939E-2,1.21010385E-1,-1.5887277E-2,-1.2864108E-1,-1.6736054E-1,1.6011187E-1,1.6736817E-1,-1.4597745E-1,-1.7538661E-2,-1.8175505E-1,-7.1990243E-3,-2.0647249E-1],"categories":[],"categories_nodes":[],"categories_segments":[],"categories_sizes":[],"default_left":[0,0,0,0,0,0,0,0,0,0,0,0,0,0,0,0,0,0,0,0,0,0,0,0,0,0,0,0,0,0,0,0,0,0,0,0,0,0,0,0,0,0,0,0,0,0,0,0,0,0,0],"id":29,"left_children":[1,3,5,7,9,11,13,15,17,19,21,23,25,27,29,31,33,-1,-1,-1,-1,-1,35,37,39,41,43,45,-1,47,49,-1,-1,-1,-1,-1,-1,-1,-1,-1,-1,-1,-1,-1,-1,-1,-1,-1,-1,-1,-1],"loss_changes":[8.192856E0,1.560275E1,8.005846E0,1.3324837E1,6.1235704E0,8.576361E0,1.1408686E1,8.40575E0,4.1302094E0,3.6681368E0,4.722979E0,1.2046545E1,1.1314922E1,1.3281537E1,9.126608E0,3.8207762E0,5.4604187E0,0E0,0E0,0E0,0E0,0E0,3.4881067E0,8.411287E0,8.047957E0,1.2417452E1,5.5567856E0,3.7007914E0,0E0,1.2613445E1,9.032004E0,0E0,0E0,0E0,0E0,0E0,0E0,0E0,0E0,0E0,0E0,0E0,0E0,0E0,0E0,0E0,0E0,0E0,0E0,0E0,0E0],"parents":[2147483647,0,0,1,1,2,2,3,3,4,4,5,5,6,6,7,7,8,8,9,9,10,10,11,11,12,12,13,13,14,14,15,15,16,16,22,22,23,23,24,24,25,25,26,26,27,27,29,29,30,30],"right_children":[2,4,6,8,10,12,14,16,18,20,22,24,26,28,30,32,34,-1,-1,-1,-1,-1,36,38,40,42,44,46,-1,48,50,-1,-1,-1,-1,-1,-1,-1,-1,-1,-1,-1,-1,-1,-1,-1,-1,-1,-1,-1,-1],"split_conditions":[1.1350298E1,3.2632208E-1,5.4101133E0,8.8400614E-1,2.790685E-2,1.5440036E0,7.607584E-1,7.19193E-1,6.2826324E-1,4.0267657E-2,8.4701306E-1,4.9586666E-1,2.766989E0,2.2802465E1,7.256311E0,-3.7900808E-1,-1.3065544E0,1.5338111E-1,-1.6696554E-1,6.1424058E-2,-3.2810083E-1,-1.6499121E-1,4.0508294E0,-5.707743E-1,2.7076113E0,5.291022E0,5.9325665E1,6.674217E1,-3.3517253E-1,4.153372E1,8.8305145E1,1.8886445E-1,-1.725849E-1,-0E0,-4.622863E-1,2.1171363E-1,-1.1111431E-1,-2.7270788E-1,-4.7477316E-2,1.2252939E-2,1.21010385E-1,-1.5887277E-2,-1.2864108E-1,-1.6736054E-1,1.6011187E-1,1.6736817E-1,-1.4597745E-1,-1.7538661E-2,-1.8175505E-1,-7.1990243E-3,-2.0647249E-1],"split_indices":[24,34,28,31,10,31,15,32,28,14,17,17,23,13,27,31,14,0,0,0,0,0,12,20,14,27,21,24,0,24,26,0,0,0,0,0,0,0,0,0,0,0,0,0,0,0,0,0,0,0,0],"split_type":[0,0,0,0,0,0,0,0,0,0,0,0,0,0,0,0,0,0,0,0,0,0,0,0,0,0,0,0,0,0,0,0,0,0,0,0,0,0,0,0,0,0,0,0,0,0,0,0,0,0,0],"sum_hessian":[2.6356682E3,3.5453743E1,2.6002144E3,2.0121546E1,1.5332199E1,2.2765374E3,3.2367694E2,1.4172791E1,5.9487553E0,2.9105685E0,1.2421631E1,1.9876136E3,2.889237E2,2.6459051E1,2.972179E2,3.4197493E0,1.0753041E1,4.1097507E0,1.8390043E0,1.2959559E0,1.6146125E0,1.3379874E0,1.1083643E1,4.9333984E1,1.9382797E3,2.6899762E2,1.9926092E1,2.456197E1,1.8970807E0,8.498758E1,2.1223032E2,1.296391E0,2.1233582E0,1.30173E0,9.451311E0,1.0048832E1,1.0348109E0,8.527931E0,4.0806053E1,1.9078336E3,3.0446093E1,2.1376042E2,5.5237198E1,1.7950188E0,1.8131073E1,2.3545185E1,1.0167863E0,4.301095E1,4.1976635E1,2.023302E2,9.90011E0],"tree_param":{"num_deleted":"0","num_feature":"39","num_nodes":"51","size_leaf_vector":"1"}},{"base_weights":[-2.026287E-2,6.592309E-2,-5.916145E-2,2.5022542E-3,2.670699E-1,-9.42266E-2,1.6140817E-1,-7.4137336E-1,2.5741745E-2,-1.876911E-1,4.085547E-1,-1.0175454E-1,7.591568E-1,-3.4043387E-1,1.779567E-1,-1.310353E0,9.280916E-2,4.8432626E-2,-5.6705284E-1,4.3370333E-1,